<?xml version="1.0"?>
<MethodSetup Method="BDT::BDT">
  <GeneralInfo>
    <Info name="TMVA Release" value="4.2.1 [262657]"/>
    <Info name="ROOT Release" value="6.18/04 [397828]"/>
    <Info name="Creator" value="mfujimot"/>
    <Info name="Date" value="Tue Mar 24 08:48:11 2020"/>
    <Info name="Host" value="Linux buildvm-28.phx2.fedoraproject.org 5.0.6-200.fc29.x86_64 #1 SMP Wed Apr 3 15:09:51 UTC 2019 x86_64 x86_64 x86_64 GNU/Linux"/>
    <Info name="Dir" value="/afs/cern.ch/work/m/mfujimot/public/VBS/macro/testTMVA"/>
    <Info name="Training events" value="276913"/>
    <Info name="TrainingTime" value="1.19283694e+02"/>
    <Info name="AnalysisType" value="Classification"/>
  </GeneralInfo>
  <Options>
    <Option name="V" modified="Yes">False</Option>
    <Option name="VerbosityLevel" modified="No">Default</Option>
    <Option name="VarTransform" modified="No">None</Option>
    <Option name="H" modified="No">False</Option>
    <Option name="CreateMVAPdfs" modified="No">False</Option>
    <Option name="IgnoreNegWeightsInTraining" modified="Yes">True</Option>
    <Option name="NTrees" modified="Yes">400</Option>
    <Option name="MaxDepth" modified="Yes">4</Option>
    <Option name="MinNodeSize" modified="Yes">15%</Option>
    <Option name="nCuts" modified="Yes">20</Option>
    <Option name="BoostType" modified="Yes">Grad</Option>
    <Option name="AdaBoostR2Loss" modified="No">quadratic</Option>
    <Option name="UseBaggedBoost" modified="Yes">True</Option>
    <Option name="Shrinkage" modified="Yes">1.000000e-01</Option>
    <Option name="AdaBoostBeta" modified="No">5.000000e-01</Option>
    <Option name="UseRandomisedTrees" modified="No">False</Option>
    <Option name="UseNvars" modified="No">4</Option>
    <Option name="UsePoissonNvars" modified="No">True</Option>
    <Option name="BaggedSampleFraction" modified="Yes">5.000000e-01</Option>
    <Option name="UseYesNoLeaf" modified="No">True</Option>
    <Option name="NegWeightTreatment" modified="No">pray</Option>
    <Option name="Css" modified="No">1.000000e+00</Option>
    <Option name="Cts_sb" modified="No">1.000000e+00</Option>
    <Option name="Ctb_ss" modified="No">1.000000e+00</Option>
    <Option name="Cbb" modified="No">1.000000e+00</Option>
    <Option name="NodePurityLimit" modified="No">5.000000e-01</Option>
    <Option name="SeparationType" modified="Yes">giniindex</Option>
    <Option name="RegressionLossFunctionBDTG" modified="No">huber</Option>
    <Option name="HuberQuantile" modified="No">7.000000e-01</Option>
    <Option name="DoBoostMonitor" modified="No">False</Option>
    <Option name="UseFisherCuts" modified="No">False</Option>
    <Option name="MinLinCorrForFisher" modified="No">8.000000e-01</Option>
    <Option name="UseExclusiveVars" modified="No">False</Option>
    <Option name="DoPreselection" modified="No">False</Option>
    <Option name="SigToBkgFraction" modified="No">1.000000e+00</Option>
    <Option name="PruneMethod" modified="No">nopruning</Option>
    <Option name="PruneStrength" modified="No">0.000000e+00</Option>
    <Option name="PruningValFraction" modified="No">5.000000e-01</Option>
    <Option name="SkipNormalization" modified="No">False</Option>
    <Option name="nEventsMin" modified="No">0</Option>
    <Option name="UseBaggedGrad" modified="No">False</Option>
    <Option name="GradBaggingFraction" modified="No">5.000000e-01</Option>
    <Option name="UseNTrainEvents" modified="No">0</Option>
    <Option name="NNodesMax" modified="No">0</Option>
  </Options>
  <Variables NVar="12">
    <Variable VarIndex="0" Expression="MTagResJets" Label="MTagResJets" Title="MTagResJets" Unit="" Internal="MTagResJets" Type="F" Min="1.83568363e+01" Max="9.41224316e+03"/>
    <Variable VarIndex="1" Expression="DeltaEtaTagResJets" Label="DeltaEtaTagResJets" Title="DeltaEtaTagResJets" Unit="" Internal="DeltaEtaTagResJets" Type="F" Min="3.40223988e-03" Max="8.87207699e+00"/>
    <Variable VarIndex="2" Expression="DeltaEtaSignalJets" Label="DeltaEtaSignalJets" Title="DeltaEtaSignalJets" Unit="" Internal="DeltaEtaSignalJets" Type="F" Min="1.19209290e-06" Max="2.69978213e+00"/>
    <Variable VarIndex="3" Expression="PtSignalJet2" Label="PtSignalJet2" Title="PtSignalJet2" Unit="" Internal="PtSignalJet2" Type="F" Min="2.00000782e+01" Max="2.21948593e+02"/>
    <Variable VarIndex="4" Expression="WidthSignalJet1" Label="WidthSignalJet1" Title="WidthSignalJet1" Unit="" Internal="WidthSignalJet1" Type="F" Min="5.40355744e-04" Max="3.00597101e-01"/>
    <Variable VarIndex="5" Expression="WidthSignalJet2" Label="WidthSignalJet2" Title="WidthSignalJet2" Unit="" Internal="WidthSignalJet2" Type="F" Min="4.88552148e-04" Max="2.94649273e-01"/>
    <Variable VarIndex="6" Expression="PtTagResJet2" Label="PtTagResJet2" Title="PtTagResJet2" Unit="" Internal="PtTagResJet2" Type="F" Min="3.00000229e+01" Max="2.15446118e+03"/>
    <Variable VarIndex="7" Expression="WidthTagResJet1" Label="WidthTagResJet1" Title="WidthTagResJet1" Unit="" Internal="WidthTagResJet1" Type="F" Min="2.40479261e-04" Max="2.80378580e-01"/>
    <Variable VarIndex="8" Expression="WidthTagResJet2" Label="WidthTagResJet2" Title="WidthTagResJet2" Unit="" Internal="WidthTagResJet2" Type="F" Min="1.27470354e-04" Max="3.04893285e-01"/>
    <Variable VarIndex="9" Expression="NTrackJets" Label="NTrackJets" Title="NTrackJets" Unit="" Internal="NTrackJets" Type="F" Min="0.00000000e+00" Max="1.40000000e+01"/>
    <Variable VarIndex="10" Expression="Mlljj" Label="Mlljj" Title="Mlljj" Unit="" Internal="Mlljj" Type="F" Min="1.51984756e+02" Max="3.36680176e+03"/>
    <Variable VarIndex="11" Expression="xiVRes" Label="xiVRes" Title="xiVRes" Unit="" Internal="xiVRes" Type="F" Min="-6.41192579e+00" Max="4.13350916e+00"/>
  </Variables>
  <Spectators NSpec="0"/>
  <Classes NClass="2">
    <Class Name="Signal" Index="0"/>
    <Class Name="Background" Index="1"/>
  </Classes>
  <Transformations NTransformations="0"/>
  <MVAPdfs/>
  <Weights NTrees="400" AnalysisType="1">
    <BinaryTree type="DecisionTree" boostWeight="1.0000000000000000e+00" itree="0">
      <Node pos="s" depth="0" NCoef="0" IVar="0" Cut="4.6594674682617188e+02" cType="1" res="-7.7787577174603939e-04" rms="4.9999940395355225e-01" purity="4.9922212958335876e-01" nType="0">
        <Node pos="l" depth="1" NCoef="0" IVar="6" Cut="4.5328414916992188e+01" cType="1" res="-1.3449527323246002e-01" rms="4.8157140612602234e-01" purity="3.6550471186637878e-01" nType="0">
          <Node pos="l" depth="2" NCoef="0" IVar="-1" Cut="0.0000000000000000e+00" cType="1" res="-4.4136893004179001e-02" rms="4.4866287708282471e-01" purity="2.7931553125381470e-01" nType="-99"/>
          <Node pos="r" depth="2" NCoef="0" IVar="-1" Cut="0.0000000000000000e+00" cType="1" res="-4.5120143331587315e-03" rms="4.9949079751968384e-01" purity="4.7743991017341614e-01" nType="-99"/>
        </Node>
        <Node pos="r" depth="1" NCoef="0" IVar="2" Cut="1.1454284191131592e+00" cType="1" res="1.1881886422634125e-01" rms="4.8567691445350647e-01" purity="6.1881887912750244e-01" nType="0">
          <Node pos="l" depth="2" NCoef="0" IVar="7" Cut="5.2601937204599380e-02" cType="1" res="1.9273729622364044e-01" rms="4.6135923266410828e-01" purity="6.9273728132247925e-01" nType="0">
            <Node pos="l" depth="3" NCoef="0" IVar="-1" Cut="0.0000000000000000e+00" cType="1" res="5.7514429092407227e-02" rms="4.0902599692344666e-01" purity="7.8757208585739136e-01" nType="-99"/>
            <Node pos="r" depth="3" NCoef="0" IVar="-1" Cut="0.0000000000000000e+00" cType="1" res="2.0400645211338997e-02" rms="4.8948475718498230e-01" purity="6.0200321674346924e-01" nType="-99"/>
          </Node>
          <Node pos="r" depth="2" NCoef="0" IVar="-1" Cut="0.0000000000000000e+00" cType="1" res="-1.3258608058094978e-02" rms="4.9558573961257935e-01" purity="4.3370693922042847e-01" nType="-99"/>
        </Node>
      </Node>
    </BinaryTree>
    <BinaryTree type="DecisionTree" boostWeight="1.0000000000000000e+00" itree="1">
      <Node pos="s" depth="0" NCoef="0" IVar="0" Cut="9.1301269531250000e+02" cType="1" res="-4.8856143839657307e-03" rms="4.9408578872680664e-01" purity="4.9508866667747498e-01" nType="0">
        <Node pos="l" depth="1" NCoef="0" IVar="6" Cut="5.3668029785156250e+01" cType="1" res="-7.3505997657775879e-02" rms="4.8973217606544495e-01" purity="4.2210626602172852e-01" nType="0">
          <Node pos="l" depth="2" NCoef="0" IVar="6" Cut="3.9013896942138672e+01" cType="1" res="-1.6745358705520630e-01" rms="4.6536374092102051e-01" purity="3.2250654697418213e-01" nType="0">
            <Node pos="l" depth="3" NCoef="0" IVar="-1" Cut="0.0000000000000000e+00" cType="1" res="-4.7139536589384079e-02" rms="4.3258938193321228e-01" purity="2.5163948535919189e-01" nType="-99"/>
            <Node pos="r" depth="3" NCoef="0" IVar="-1" Cut="0.0000000000000000e+00" cType="1" res="-1.4388184063136578e-02" rms="4.9233460426330566e-01" purity="4.2232781648635864e-01" nType="-99"/>
          </Node>
          <Node pos="r" depth="2" NCoef="0" IVar="-1" Cut="0.0000000000000000e+00" cType="1" res="1.6941228881478310e-02" rms="4.8902723193168640e-01" purity="5.8977216482162476e-01" nType="-99"/>
        </Node>
        <Node pos="r" depth="1" NCoef="0" IVar="-1" Cut="0.0000000000000000e+00" cType="1" res="4.1766222566366196e-02" rms="4.4414088129997253e-01" purity="7.2204548120498657e-01" nType="-99"/>
      </Node>
    </BinaryTree>
    <BinaryTree type="DecisionTree" boostWeight="1.0000000000000000e+00" itree="2">
      <Node pos="s" depth="0" NCoef="0" IVar="0" Cut="7.1103515625000000e+02" cType="1" res="-3.3812199253588915e-03" rms="4.8854213953018188e-01" purity="4.9595838785171509e-01" nType="0">
        <Node pos="l" depth="1" NCoef="0" IVar="6" Cut="4.9095851898193359e+01" cType="1" res="-8.6670689284801483e-02" rms="4.8302140831947327e-01" purity="3.9846020936965942e-01" nType="0">
          <Node pos="l" depth="2" NCoef="0" IVar="9" Cut="3.1428570747375488e+00" cType="1" res="-1.6257037222385406e-01" rms="4.5833349227905273e-01" purity="3.0597722530364990e-01" nType="0">
            <Node pos="l" depth="3" NCoef="0" IVar="-1" Cut="0.0000000000000000e+00" cType="1" res="-4.8035271465778351e-02" rms="4.1750082373619080e-01" purity="2.2925217449665070e-01" nType="-99"/>
            <Node pos="r" depth="3" NCoef="0" IVar="-1" Cut="0.0000000000000000e+00" cType="1" res="-1.7387844622135162e-02" rms="4.8385658860206604e-01" purity="3.8243874907493591e-01" nType="-99"/>
          </Node>
          <Node pos="r" depth="2" NCoef="0" IVar="-1" Cut="0.0000000000000000e+00" cType="1" res="4.4817300513386726e-03" rms="4.9651941657066345e-01" purity="5.3134655952453613e-01" nType="-99"/>
        </Node>
        <Node pos="r" depth="1" NCoef="0" IVar="8" Cut="6.4357496798038483e-02" cType="1" res="1.6026902198791504e-01" rms="4.5694702863693237e-01" purity="6.8752652406692505e-01" nType="0">
          <Node pos="l" depth="2" NCoef="0" IVar="-1" Cut="0.0000000000000000e+00" cType="1" res="4.1464149951934814e-02" rms="4.3473258614540100e-01" purity="7.3599272966384888e-01" nType="-99"/>
          <Node pos="r" depth="2" NCoef="0" IVar="-1" Cut="0.0000000000000000e+00" cType="1" res="2.3059047758579254e-02" rms="4.7350233793258667e-01" purity="6.3965660333633423e-01" nType="-99"/>
        </Node>
      </Node>
    </BinaryTree>
    <BinaryTree type="DecisionTree" boostWeight="1.0000000000000000e+00" itree="3">
      <Node pos="s" depth="0" NCoef="0" IVar="7" Cut="8.0279938876628876e-02" cType="1" res="-2.9625992756336927e-03" rms="4.8460444808006287e-01" purity="4.9665337800979614e-01" nType="0">
        <Node pos="l" depth="1" NCoef="0" IVar="3" Cut="2.9617111206054688e+01" cType="1" res="8.4675967693328857e-02" rms="4.7811695933341980e-01" purity="5.9562945365905762e-01" nType="0">
          <Node pos="l" depth="2" NCoef="0" IVar="-1" Cut="0.0000000000000000e+00" cType="1" res="-3.9323144592344761e-03" rms="4.8765653371810913e-01" purity="4.8512345552444458e-01" nType="-99"/>
          <Node pos="r" depth="2" NCoef="0" IVar="3" Cut="3.8775836944580078e+01" cType="1" res="1.6847647726535797e-01" rms="4.5324593782424927e-01" purity="6.8449974060058594e-01" nType="0">
            <Node pos="l" depth="3" NCoef="0" IVar="-1" Cut="0.0000000000000000e+00" cType="1" res="2.0012425258755684e-02" rms="4.7590959072113037e-01" purity="6.1056989431381226e-01" nType="-99"/>
            <Node pos="r" depth="3" NCoef="0" IVar="-1" Cut="0.0000000000000000e+00" cType="1" res="4.6617589890956879e-02" rms="4.2203140258789062e-01" purity="7.5144922733306885e-01" nType="-99"/>
          </Node>
        </Node>
        <Node pos="r" depth="1" NCoef="0" IVar="3" Cut="2.8079879760742188e+01" cType="1" res="-1.3776439428329468e-01" rms="4.6310135722160339e-01" purity="3.4441265463829041e-01" nType="0">
          <Node pos="l" depth="2" NCoef="0" IVar="-1" Cut="0.0000000000000000e+00" cType="1" res="-4.6270135790109634e-02" rms="4.2030000686645508e-01" purity="2.4581219255924225e-01" nType="-99"/>
          <Node pos="r" depth="2" NCoef="0" IVar="-1" Cut="0.0000000000000000e+00" cType="1" res="-1.3030678033828735e-02" rms="4.8222908377647400e-01" purity="4.2295840382575989e-01" nType="-99"/>
        </Node>
      </Node>
    </BinaryTree>
    <BinaryTree type="DecisionTree" boostWeight="1.0000000000000000e+00" itree="4">
      <Node pos="s" depth="0" NCoef="0" IVar="7" Cut="6.6940024495124817e-02" cType="1" res="4.9101458862423897e-03" rms="4.8022684454917908e-01" purity="5.0420409440994263e-01" nType="0">
        <Node pos="l" depth="1" NCoef="0" IVar="5" Cut="1.1817983537912369e-01" cType="1" res="1.0014239698648453e-01" rms="4.6955955028533936e-01" purity="6.2273007631301880e-01" nType="0">
          <Node pos="l" depth="2" NCoef="0" IVar="-1" Cut="0.0000000000000000e+00" cType="1" res="3.9425268769264221e-02" rms="4.3190026283264160e-01" purity="7.2584414482116699e-01" nType="-99"/>
          <Node pos="r" depth="2" NCoef="0" IVar="-1" Cut="0.0000000000000000e+00" cType="1" res="4.5634927228093147e-03" rms="4.8471865057945251e-01" purity="5.3825628757476807e-01" nType="-99"/>
        </Node>
        <Node pos="r" depth="1" NCoef="0" IVar="5" Cut="1.2053187936544418e-01" cType="1" res="-9.0616017580032349e-02" rms="4.7176083922386169e-01" purity="3.8531225919723511e-01" nType="0">
          <Node pos="l" depth="2" NCoef="0" IVar="-1" Cut="0.0000000000000000e+00" cType="1" res="2.5076498277485371e-03" rms="4.8424127697944641e-01" purity="4.9811753630638123e-01" nType="-99"/>
          <Node pos="r" depth="2" NCoef="0" IVar="-1" Cut="0.0000000000000000e+00" cType="1" res="-3.1729795038700104e-02" rms="4.5127624273300171e-01" purity="3.1272122263908386e-01" nType="-99"/>
        </Node>
      </Node>
    </BinaryTree>
    <BinaryTree type="DecisionTree" boostWeight="1.0000000000000000e+00" itree="5">
      <Node pos="s" depth="0" NCoef="0" IVar="3" Cut="3.9233268737792969e+01" cType="1" res="-1.7846996197476983e-03" rms="4.7743940353393555e-01" purity="4.9780222773551941e-01" nType="0">
        <Node pos="l" depth="1" NCoef="0" IVar="7" Cut="6.7105509340763092e-02" cType="1" res="-5.7994358241558075e-02" rms="4.7555041313171387e-01" purity="4.3076062202453613e-01" nType="0">
          <Node pos="l" depth="2" NCoef="0" IVar="2" Cut="8.9992815256118774e-01" cType="1" res="3.8717776536941528e-02" rms="4.8188877105712891e-01" purity="5.6045919656753540e-01" nType="0">
            <Node pos="l" depth="3" NCoef="0" IVar="-1" Cut="0.0000000000000000e+00" cType="1" res="2.2852307185530663e-02" rms="4.6392217278480530e-01" purity="6.4528411626815796e-01" nType="-99"/>
            <Node pos="r" depth="3" NCoef="0" IVar="-1" Cut="0.0000000000000000e+00" cType="1" res="-7.2166239842772484e-03" rms="4.8807704448699951e-01" purity="4.7516310214996338e-01" nType="-99"/>
          </Node>
          <Node pos="r" depth="2" NCoef="0" IVar="4" Cut="1.0219102352857590e-01" cType="1" res="-1.4435534179210663e-01" rms="4.5267948508262634e-01" purity="3.1494373083114624e-01" nType="0">
            <Node pos="l" depth="3" NCoef="0" IVar="-1" Cut="0.0000000000000000e+00" cType="1" res="-1.6659796237945557e-02" rms="4.7334814071655273e-01" purity="3.8056424260139465e-01" nType="-99"/>
            <Node pos="r" depth="3" NCoef="0" IVar="-1" Cut="0.0000000000000000e+00" cType="1" res="-4.4539846479892731e-02" rms="4.1416916251182556e-01" purity="2.3575863242149353e-01" nType="-99"/>
          </Node>
        </Node>
        <Node pos="r" depth="1" NCoef="0" IVar="-1" Cut="0.0000000000000000e+00" cType="1" res="3.2302800565958023e-02" rms="4.4521448016166687e-01" purity="6.8954503536224365e-01" nType="-99"/>
      </Node>
    </BinaryTree>
    <BinaryTree type="DecisionTree" boostWeight="1.0000000000000000e+00" itree="6">
      <Node pos="s" depth="0" NCoef="0" IVar="0" Cut="9.0468811035156250e+02" cType="1" res="-2.4919542483985424e-03" rms="4.7344648838043213e-01" purity="4.9756374955177307e-01" nType="0">
        <Node pos="l" depth="1" NCoef="0" IVar="6" Cut="4.9899124145507812e+01" cType="1" res="-5.6803792715072632e-02" rms="4.7370025515556335e-01" purity="4.2220824956893921e-01" nType="0">
          <Node pos="l" depth="2" NCoef="0" IVar="9" Cut="3.4285714626312256e+00" cType="1" res="-1.3517560064792633e-01" rms="4.5026096701622009e-01" purity="3.1348124146461487e-01" nType="0">
            <Node pos="l" depth="3" NCoef="0" IVar="-1" Cut="0.0000000000000000e+00" cType="1" res="-4.1634868830442429e-02" rms="4.1135227680206299e-01" purity="2.3594225943088531e-01" nType="-99"/>
            <Node pos="r" depth="3" NCoef="0" IVar="-1" Cut="0.0000000000000000e+00" cType="1" res="-1.3267959468066692e-02" rms="4.7697272896766663e-01" purity="3.9302766323089600e-01" nType="-99"/>
          </Node>
          <Node pos="r" depth="2" NCoef="0" IVar="4" Cut="9.4010792672634125e-02" cType="1" res="4.8179522156715393e-02" rms="4.8389405012130737e-01" purity="5.6785404682159424e-01" nType="0">
            <Node pos="l" depth="3" NCoef="0" IVar="-1" Cut="0.0000000000000000e+00" cType="1" res="2.6448788121342659e-02" rms="4.6325778961181641e-01" purity="6.5772366523742676e-01" nType="-99"/>
            <Node pos="r" depth="3" NCoef="0" IVar="-1" Cut="0.0000000000000000e+00" cType="1" res="-8.3149997517466545e-03" rms="4.8974344134330750e-01" purity="4.7082397341728210e-01" nType="-99"/>
          </Node>
        </Node>
        <Node pos="r" depth="1" NCoef="0" IVar="-1" Cut="0.0000000000000000e+00" cType="1" res="3.2928746193647385e-02" rms="4.3345910310745239e-01" purity="7.2415792942047119e-01" nType="-99"/>
      </Node>
    </BinaryTree>
    <BinaryTree type="DecisionTree" boostWeight="1.0000000000000000e+00" itree="7">
      <Node pos="s" depth="0" NCoef="0" IVar="3" Cut="3.6158512115478516e+01" cType="1" res="-7.4975127354264259e-03" rms="4.6984583139419556e-01" purity="4.9113956093788147e-01" nType="0">
        <Node pos="l" depth="1" NCoef="0" IVar="8" Cut="9.1450698673725128e-02" cType="1" res="-6.9045104086399078e-02" rms="4.6642056107521057e-01" purity="4.0937349200248718e-01" nType="0">
          <Node pos="l" depth="2" NCoef="0" IVar="2" Cut="1.0284891128540039e+00" cType="1" res="3.2759958412498236e-03" rms="4.7586199641227722e-01" purity="5.0426661968231201e-01" nType="0">
            <Node pos="l" depth="3" NCoef="0" IVar="-1" Cut="0.0000000000000000e+00" cType="1" res="1.4623571187257767e-02" rms="4.6787929534912109e-01" purity="5.8644413948059082e-01" nType="-99"/>
            <Node pos="r" depth="3" NCoef="0" IVar="-1" Cut="0.0000000000000000e+00" cType="1" res="-1.6452450305223465e-02" rms="4.7210735082626343e-01" purity="4.0305206179618835e-01" nType="-99"/>
          </Node>
          <Node pos="r" depth="2" NCoef="0" IVar="7" Cut="7.8803427517414093e-02" cType="1" res="-1.4330582320690155e-01" rms="4.4444093108177185e-01" purity="3.1193533539772034e-01" nType="0">
            <Node pos="l" depth="3" NCoef="0" IVar="-1" Cut="0.0000000000000000e+00" cType="1" res="-1.8177302554249763e-02" rms="4.7625738382339478e-01" purity="4.0260902047157288e-01" nType="-99"/>
            <Node pos="r" depth="3" NCoef="0" IVar="-1" Cut="0.0000000000000000e+00" cType="1" res="-4.1477710008621216e-02" rms="4.0064227581024170e-01" purity="2.1658326685428619e-01" nType="-99"/>
          </Node>
        </Node>
        <Node pos="r" depth="1" NCoef="0" IVar="-1" Cut="0.0000000000000000e+00" cType="1" res="2.4038024246692657e-02" rms="4.5170021057128906e-01" purity="6.5677589178085327e-01" nType="-99"/>
      </Node>
    </BinaryTree>
    <BinaryTree type="DecisionTree" boostWeight="1.0000000000000000e+00" itree="8">
      <Node pos="s" depth="0" NCoef="0" IVar="0" Cut="9.1326159667968750e+02" cType="1" res="-1.5804143622517586e-03" rms="4.6670898795127869e-01" purity="4.9753037095069885e-01" nType="0">
        <Node pos="l" depth="1" NCoef="0" IVar="6" Cut="5.4404155731201172e+01" cType="1" res="-5.0128966569900513e-02" rms="4.6814793348312378e-01" purity="4.2173859477043152e-01" nType="0">
          <Node pos="l" depth="2" NCoef="0" IVar="2" Cut="8.9052939414978027e-01" cType="1" res="-1.1622796952724457e-01" rms="4.4922932982444763e-01" purity="3.2194733619689941e-01" nType="0">
            <Node pos="l" depth="3" NCoef="0" IVar="-1" Cut="0.0000000000000000e+00" cType="1" res="-9.4022909179329872e-03" rms="4.7353029251098633e-01" purity="4.0841239690780640e-01" nType="-99"/>
            <Node pos="r" depth="3" NCoef="0" IVar="-1" Cut="0.0000000000000000e+00" cType="1" res="-3.9007388055324554e-02" rms="4.1067379713058472e-01" purity="2.3352952301502228e-01" nType="-99"/>
          </Node>
          <Node pos="r" depth="2" NCoef="0" IVar="-1" Cut="0.0000000000000000e+00" cType="1" res="1.2340881861746311e-02" rms="4.7817301750183105e-01" purity="5.8932721614837646e-01" nType="-99"/>
        </Node>
        <Node pos="r" depth="1" NCoef="0" IVar="-1" Cut="0.0000000000000000e+00" cType="1" res="3.0508454889059067e-02" rms="4.2943164706230164e-01" purity="7.2948461771011353e-01" nType="-99"/>
      </Node>
    </BinaryTree>
    <BinaryTree type="DecisionTree" boostWeight="1.0000000000000000e+00" itree="9">
      <Node pos="s" depth="0" NCoef="0" IVar="2" Cut="8.9992815256118774e-01" cType="1" res="-1.6790336230769753e-03" rms="4.6551656723022461e-01" purity="4.9717193841934204e-01" nType="0">
        <Node pos="l" depth="1" NCoef="0" IVar="7" Cut="7.8752115368843079e-02" cType="1" res="6.5152391791343689e-02" rms="4.5849364995956421e-01" purity="5.9025615453720093e-01" nType="0">
          <Node pos="l" depth="2" NCoef="0" IVar="-1" Cut="0.0000000000000000e+00" cType="1" res="2.6516834273934364e-02" rms="4.4056603312492371e-01" purity="6.9024968147277832e-01" nType="-99"/>
          <Node pos="r" depth="2" NCoef="0" IVar="-1" Cut="0.0000000000000000e+00" cType="1" res="-8.1728175282478333e-03" rms="4.6867245435714722e-01" purity="4.2270180583000183e-01" nType="-99"/>
        </Node>
        <Node pos="r" depth="1" NCoef="0" IVar="8" Cut="1.0172634571790695e-01" cType="1" res="-8.3765402436256409e-02" rms="4.6092516183853149e-01" purity="3.8284030556678772e-01" nType="0">
          <Node pos="l" depth="2" NCoef="0" IVar="-1" Cut="0.0000000000000000e+00" cType="1" res="-5.0794645212590694e-03" rms="4.7480243444442749e-01" purity="4.6511149406433105e-01" nType="-99"/>
          <Node pos="r" depth="2" NCoef="0" IVar="-1" Cut="0.0000000000000000e+00" cType="1" res="-3.4307222813367844e-02" rms="4.2816200852394104e-01" purity="2.7009215950965881e-01" nType="-99"/>
        </Node>
      </Node>
    </BinaryTree>
    <BinaryTree type="DecisionTree" boostWeight="1.0000000000000000e+00" itree="10">
      <Node pos="s" depth="0" NCoef="0" IVar="4" Cut="9.4118252396583557e-02" cType="1" res="2.6794672012329102e-03" rms="4.6224591135978699e-01" purity="5.0143498182296753e-01" nType="0">
        <Node pos="l" depth="1" NCoef="0" IVar="5" Cut="1.1826370656490326e-01" cType="1" res="7.1907080709934235e-02" rms="4.5389401912689209e-01" purity="5.9057927131652832e-01" nType="0">
          <Node pos="l" depth="2" NCoef="0" IVar="-1" Cut="0.0000000000000000e+00" cType="1" res="3.3099189400672913e-02" rms="4.2233636975288391e-01" purity="7.0884960889816284e-01" nType="-99"/>
          <Node pos="r" depth="2" NCoef="0" IVar="-1" Cut="0.0000000000000000e+00" cType="1" res="3.5103864502161741e-04" rms="4.6631464362144470e-01" purity="4.9462217092514038e-01" nType="-99"/>
        </Node>
        <Node pos="r" depth="1" NCoef="0" IVar="2" Cut="8.9992815256118774e-01" cType="1" res="-7.4897073209285736e-02" rms="4.5919170975685120e-01" purity="4.0153977274894714e-01" nType="0">
          <Node pos="l" depth="2" NCoef="0" IVar="-1" Cut="0.0000000000000000e+00" cType="1" res="-2.9867589473724365e-03" rms="4.7091132402420044e-01" purity="4.9832645058631897e-01" nType="-99"/>
          <Node pos="r" depth="2" NCoef="0" IVar="-1" Cut="0.0000000000000000e+00" cType="1" res="-2.7065422385931015e-02" rms="4.4122311472892761e-01" purity="3.1389474868774414e-01" nType="-99"/>
        </Node>
      </Node>
    </BinaryTree>
    <BinaryTree type="DecisionTree" boostWeight="1.0000000000000000e+00" itree="11">
      <Node pos="s" depth="0" NCoef="0" IVar="0" Cut="9.1326159667968750e+02" cType="1" res="-5.4603087482973933e-04" rms="4.6004182100296021e-01" purity="4.9790212512016296e-01" nType="0">
        <Node pos="l" depth="1" NCoef="0" IVar="6" Cut="5.6337932586669922e+01" cType="1" res="-4.1278813034296036e-02" rms="4.6344846487045288e-01" purity="4.2371258139610291e-01" nType="0">
          <Node pos="l" depth="2" NCoef="0" IVar="6" Cut="4.0032844543457031e+01" cType="1" res="-9.0731091797351837e-02" rms="4.4969436526298523e-01" purity="3.3593639731407166e-01" nType="0">
            <Node pos="l" depth="3" NCoef="0" IVar="-1" Cut="0.0000000000000000e+00" cType="1" res="-2.9445149004459381e-02" rms="4.2343953251838684e-01" purity="2.6502948999404907e-01" nType="-99"/>
            <Node pos="r" depth="3" NCoef="0" IVar="-1" Cut="0.0000000000000000e+00" cType="1" res="-3.9623598568141460e-03" rms="4.7690162062644958e-01" purity="4.4042375683784485e-01" nType="-99"/>
          </Node>
          <Node pos="r" depth="2" NCoef="0" IVar="-1" Cut="0.0000000000000000e+00" cType="1" res="1.0713615454733372e-02" rms="4.7451883554458618e-01" purity="5.9001725912094116e-01" nType="-99"/>
        </Node>
        <Node pos="r" depth="1" NCoef="0" IVar="-1" Cut="0.0000000000000000e+00" cType="1" res="2.7264649048447609e-02" rms="4.2398712038993835e-01" purity="7.3292964696884155e-01" nType="-99"/>
      </Node>
    </BinaryTree>
    <BinaryTree type="DecisionTree" boostWeight="1.0000000000000000e+00" itree="12">
      <Node pos="s" depth="0" NCoef="0" IVar="0" Cut="4.6568475341796875e+02" cType="1" res="-5.6610205210745335e-03" rms="4.5781299471855164e-01" purity="4.9180218577384949e-01" nType="0">
        <Node pos="l" depth="1" NCoef="0" IVar="5" Cut="1.2078345566987991e-01" cType="1" res="-8.0887481570243835e-02" rms="4.5444950461387634e-01" purity="3.5259264707565308e-01" nType="0">
          <Node pos="l" depth="2" NCoef="0" IVar="-1" Cut="0.0000000000000000e+00" cType="1" res="-3.5222456790506840e-03" rms="4.7428765892982483e-01" purity="4.5019820332527161e-01" nType="-99"/>
          <Node pos="r" depth="2" NCoef="0" IVar="-1" Cut="0.0000000000000000e+00" cType="1" res="-2.5798559188842773e-02" rms="4.3643218278884888e-01" purity="2.9018658399581909e-01" nType="-99"/>
        </Node>
        <Node pos="r" depth="1" NCoef="0" IVar="1" Cut="4.6598167419433594e+00" cType="1" res="6.0323711484670639e-02" rms="4.5051792263984680e-01" purity="6.1390960216522217e-01" nType="0">
          <Node pos="l" depth="2" NCoef="0" IVar="-1" Cut="0.0000000000000000e+00" cType="1" res="2.8066674247384071e-02" rms="4.3323531746864319e-01" purity="6.9668358564376831e-01" nType="-99"/>
          <Node pos="r" depth="2" NCoef="0" IVar="-1" Cut="0.0000000000000000e+00" cType="1" res="-5.0737340934574604e-03" rms="4.5504730939865112e-01" purity="5.1935899257659912e-01" nType="-99"/>
        </Node>
      </Node>
    </BinaryTree>
    <BinaryTree type="DecisionTree" boostWeight="1.0000000000000000e+00" itree="13">
      <Node pos="s" depth="0" NCoef="0" IVar="4" Cut="1.0078758001327515e-01" cType="1" res="-3.6861652042716742e-03" rms="4.5727193355560303e-01" purity="4.9420437216758728e-01" nType="0">
        <Node pos="l" depth="1" NCoef="0" IVar="0" Cut="7.8077954101562500e+02" cType="1" res="5.2652239799499512e-02" rms="4.5418375730514526e-01" purity="5.7183653116226196e-01" nType="0">
          <Node pos="l" depth="2" NCoef="0" IVar="3" Cut="2.9616781234741211e+01" cType="1" res="9.3976929783821106e-03" rms="4.6890357136726379e-01" purity="4.8010253906250000e-01" nType="0">
            <Node pos="l" depth="3" NCoef="0" IVar="-1" Cut="0.0000000000000000e+00" cType="1" res="-1.0870130732655525e-02" rms="4.6233770251274109e-01" purity="3.8224464654922485e-01" nType="-99"/>
            <Node pos="r" depth="3" NCoef="0" IVar="-1" Cut="0.0000000000000000e+00" cType="1" res="1.4292054809629917e-02" rms="4.6757426857948303e-01" purity="5.7567375898361206e-01" nType="-99"/>
          </Node>
          <Node pos="r" depth="2" NCoef="0" IVar="-1" Cut="0.0000000000000000e+00" cType="1" res="2.9426284134387970e-02" rms="4.1129890084266663e-01" purity="7.5014287233352661e-01" nType="-99"/>
        </Node>
        <Node pos="r" depth="1" NCoef="0" IVar="3" Cut="2.8894147872924805e+01" cType="1" res="-8.6026005446910858e-02" rms="4.4921338558197021e-01" purity="3.8074329495429993e-01" nType="0">
          <Node pos="l" depth="2" NCoef="0" IVar="-1" Cut="0.0000000000000000e+00" cType="1" res="-3.2289825379848480e-02" rms="4.1976171731948853e-01" purity="2.7449151873588562e-01" nType="-99"/>
          <Node pos="r" depth="2" NCoef="0" IVar="-1" Cut="0.0000000000000000e+00" cType="1" res="-6.4781070686876774e-03" rms="4.6548569202423096e-01" purity="4.7006368637084961e-01" nType="-99"/>
        </Node>
      </Node>
    </BinaryTree>
    <BinaryTree type="DecisionTree" boostWeight="1.0000000000000000e+00" itree="14">
      <Node pos="s" depth="0" NCoef="0" IVar="7" Cut="1.0490465164184570e-01" cType="1" res="5.9663702268153429e-04" rms="4.5488142967224121e-01" purity="4.9683734774589539e-01" nType="0">
        <Node pos="l" depth="1" NCoef="0" IVar="11" Cut="-5.6828588247299194e-01" cType="1" res="3.4372791647911072e-02" rms="4.5796185731887817e-01" purity="5.5517768859863281e-01" nType="0">
          <Node pos="l" depth="2" NCoef="0" IVar="-1" Cut="0.0000000000000000e+00" cType="1" res="-1.3426216319203377e-02" rms="4.6205663681030273e-01" purity="4.3060356378555298e-01" nType="-99"/>
          <Node pos="r" depth="2" NCoef="0" IVar="4" Cut="1.0843198746442795e-01" cType="1" res="7.3999829590320587e-02" rms="4.5026850700378418e-01" purity="6.0533273220062256e-01" nType="0">
            <Node pos="l" depth="3" NCoef="0" IVar="-1" Cut="0.0000000000000000e+00" cType="1" res="2.4083709344267845e-02" rms="4.3613240122795105e-01" purity="6.6213691234588623e-01" nType="-99"/>
            <Node pos="r" depth="3" NCoef="0" IVar="-1" Cut="0.0000000000000000e+00" cType="1" res="-2.2950661368668079e-03" rms="4.6853697299957275e-01" purity="4.8152381181716919e-01" nType="-99"/>
          </Node>
        </Node>
        <Node pos="r" depth="1" NCoef="0" IVar="-1" Cut="0.0000000000000000e+00" cType="1" res="-2.3333719000220299e-02" rms="4.2672675848007202e-01" purity="3.0761718750000000e-01" nType="-99"/>
      </Node>
    </BinaryTree>
    <BinaryTree type="DecisionTree" boostWeight="1.0000000000000000e+00" itree="15">
      <Node pos="s" depth="0" NCoef="0" IVar="4" Cut="1.0757444798946381e-01" cType="1" res="2.3829229176044464e-03" rms="4.5282736420631409e-01" purity="5.0027978420257568e-01" nType="0">
        <Node pos="l" depth="1" NCoef="0" IVar="3" Cut="3.7788257598876953e+01" cType="1" res="4.6066861599683762e-02" rms="4.4930228590965271e-01" purity="5.6995081901550293e-01" nType="0">
          <Node pos="l" depth="2" NCoef="0" IVar="9" Cut="3.4285714626312256e+00" cType="1" res="4.1501354426145554e-03" rms="4.5953068137168884e-01" purity="4.9403876066207886e-01" nType="0">
            <Node pos="l" depth="3" NCoef="0" IVar="-1" Cut="0.0000000000000000e+00" cType="1" res="-1.1425960808992386e-02" rms="4.4577312469482422e-01" purity="4.2749932408332825e-01" nType="-99"/>
            <Node pos="r" depth="3" NCoef="0" IVar="-1" Cut="0.0000000000000000e+00" cType="1" res="1.2360064312815666e-02" rms="4.6566686034202576e-01" purity="5.5751067399978638e-01" nType="-99"/>
          </Node>
          <Node pos="r" depth="2" NCoef="0" IVar="-1" Cut="0.0000000000000000e+00" cType="1" res="2.9052393510937691e-02" rms="4.1337627172470093e-01" purity="7.2950214147567749e-01" nType="-99"/>
        </Node>
        <Node pos="r" depth="1" NCoef="0" IVar="5" Cut="1.2680780887603760e-01" cType="1" res="-7.7350854873657227e-02" rms="4.4834858179092407e-01" purity="3.7311321496963501e-01" nType="0">
          <Node pos="l" depth="2" NCoef="0" IVar="-1" Cut="0.0000000000000000e+00" cType="1" res="-4.9327863380312920e-03" rms="4.6147933602333069e-01" purity="4.5807904005050659e-01" nType="-99"/>
          <Node pos="r" depth="2" NCoef="0" IVar="-1" Cut="0.0000000000000000e+00" cType="1" res="-2.5723436847329140e-02" rms="4.3294325470924377e-01" purity="3.0586737394332886e-01" nType="-99"/>
        </Node>
      </Node>
    </BinaryTree>
    <BinaryTree type="DecisionTree" boostWeight="1.0000000000000000e+00" itree="16">
      <Node pos="s" depth="0" NCoef="0" IVar="8" Cut="1.0608983784914017e-01" cType="1" res="2.9186503961682320e-03" rms="4.5108443498611450e-01" purity="5.0064224004745483e-01" nType="0">
        <Node pos="l" depth="1" NCoef="0" IVar="0" Cut="7.8771856689453125e+02" cType="1" res="5.1543448120355606e-02" rms="4.5027607679367065e-01" purity="5.8377110958099365e-01" nType="0">
          <Node pos="l" depth="2" NCoef="0" IVar="11" Cut="-3.5917893052101135e-01" cType="1" res="8.2954997196793556e-03" rms="4.6745294332504272e-01" purity="4.8579284548759460e-01" nType="0">
            <Node pos="l" depth="3" NCoef="0" IVar="-1" Cut="0.0000000000000000e+00" cType="1" res="-1.1978648602962494e-02" rms="4.6616840362548828e-01" purity="4.1587039828300476e-01" nType="-99"/>
            <Node pos="r" depth="3" NCoef="0" IVar="-1" Cut="0.0000000000000000e+00" cType="1" res="1.1970256455242634e-02" rms="4.6240600943565369e-01" purity="5.3770798444747925e-01" nType="-99"/>
          </Node>
          <Node pos="r" depth="2" NCoef="0" IVar="-1" Cut="0.0000000000000000e+00" cType="1" res="2.7344847097992897e-02" rms="4.0923872590065002e-01" purity="7.4988001585006714e-01" nType="-99"/>
        </Node>
        <Node pos="r" depth="1" NCoef="0" IVar="5" Cut="1.4531417191028595e-01" cType="1" res="-7.5527660548686981e-02" rms="4.4123059511184692e-01" purity="3.6653056740760803e-01" nType="0">
          <Node pos="l" depth="2" NCoef="0" IVar="-1" Cut="0.0000000000000000e+00" cType="1" res="-5.8190007694065571e-03" rms="4.5801883935928345e-01" purity="4.4584310054779053e-01" nType="-99"/>
          <Node pos="r" depth="2" NCoef="0" IVar="-1" Cut="0.0000000000000000e+00" cType="1" res="-3.0119234696030617e-02" rms="4.1034805774688721e-01" purity="2.6429212093353271e-01" nType="-99"/>
        </Node>
      </Node>
    </BinaryTree>
    <BinaryTree type="DecisionTree" boostWeight="1.0000000000000000e+00" itree="17">
      <Node pos="s" depth="0" NCoef="0" IVar="3" Cut="3.6158481597900391e+01" cType="1" res="5.1066428422927856e-03" rms="4.4930896162986755e-01" purity="5.0263583660125732e-01" nType="0">
        <Node pos="l" depth="1" NCoef="0" IVar="8" Cut="1.0172634571790695e-01" cType="1" res="-3.5249825567007065e-02" rms="4.5101383328437805e-01" purity="4.2214179039001465e-01" nType="0">
          <Node pos="l" depth="2" NCoef="0" IVar="7" Cut="6.4618147909641266e-02" cType="1" res="1.0560351423919201e-02" rms="4.6073040366172791e-01" purity="5.0823730230331421e-01" nType="0">
            <Node pos="l" depth="3" NCoef="0" IVar="-1" Cut="0.0000000000000000e+00" cType="1" res="1.2303520925343037e-02" rms="4.5333072543144226e-01" purity="6.1762875318527222e-01" nType="-99"/>
            <Node pos="r" depth="3" NCoef="0" IVar="-1" Cut="0.0000000000000000e+00" cType="1" res="-7.0209512487053871e-03" rms="4.6311035752296448e-01" purity="4.0785920619964600e-01" nType="-99"/>
          </Node>
          <Node pos="r" depth="2" NCoef="0" IVar="-1" Cut="0.0000000000000000e+00" cType="1" res="-2.1189989522099495e-02" rms="4.2987975478172302e-01" purity="3.0591571331024170e-01" nType="-99"/>
        </Node>
        <Node pos="r" depth="1" NCoef="0" IVar="-1" Cut="0.0000000000000000e+00" cType="1" res="1.8792457878589630e-02" rms="4.3448060750961304e-01" purity="6.6580486297607422e-01" nType="-99"/>
      </Node>
    </BinaryTree>
    <BinaryTree type="DecisionTree" boostWeight="1.0000000000000000e+00" itree="18">
      <Node pos="s" depth="0" NCoef="0" IVar="7" Cut="1.0387568175792694e-01" cType="1" res="7.9757283674553037e-04" rms="4.4899189472198486e-01" purity="4.9932140111923218e-01" nType="0">
        <Node pos="l" depth="1" NCoef="0" IVar="2" Cut="1.2789047956466675e+00" cType="1" res="3.4350711852312088e-02" rms="4.5276162028312683e-01" purity="5.6446826457977295e-01" nType="0">
          <Node pos="l" depth="2" NCoef="0" IVar="11" Cut="-2.8495270013809204e-01" cType="1" res="6.5575361251831055e-02" rms="4.4408690929412842e-01" purity="6.2091934680938721e-01" nType="0">
            <Node pos="l" depth="3" NCoef="0" IVar="-1" Cut="0.0000000000000000e+00" cType="1" res="-1.5177392633631825e-03" rms="4.6563562750816345e-01" purity="5.0954806804656982e-01" nType="-99"/>
            <Node pos="r" depth="3" NCoef="0" IVar="-1" Cut="0.0000000000000000e+00" cType="1" res="2.3496950045228004e-02" rms="4.2537796497344971e-01" purity="6.8568944931030273e-01" nType="-99"/>
          </Node>
          <Node pos="r" depth="2" NCoef="0" IVar="-1" Cut="0.0000000000000000e+00" cType="1" res="-1.2827986851334572e-02" rms="4.6547779440879822e-01" purity="3.9286571741104126e-01" nType="-99"/>
        </Node>
        <Node pos="r" depth="1" NCoef="0" IVar="-1" Cut="0.0000000000000000e+00" cType="1" res="-2.2451967000961304e-02" rms="4.2071062326431274e-01" purity="2.9878929257392883e-01" nType="-99"/>
      </Node>
    </BinaryTree>
    <BinaryTree type="DecisionTree" boostWeight="1.0000000000000000e+00" itree="19">
      <Node pos="s" depth="0" NCoef="0" IVar="7" Cut="5.2088633179664612e-02" cType="1" res="-6.0989442281424999e-03" rms="4.4617465138435364e-01" purity="4.9187031388282776e-01" nType="0">
        <Node pos="l" depth="1" NCoef="0" IVar="2" Cut="7.7144730091094971e-01" cType="1" res="6.4254455268383026e-02" rms="4.3614849448204041e-01" purity="6.4828926324844360e-01" nType="0">
          <Node pos="l" depth="2" NCoef="0" IVar="-1" Cut="0.0000000000000000e+00" cType="1" res="2.4464283138513565e-02" rms="4.0699362754821777e-01" purity="7.3938769102096558e-01" nType="-99"/>
          <Node pos="r" depth="2" NCoef="0" IVar="-1" Cut="0.0000000000000000e+00" cType="1" res="3.6552674137055874e-03" rms="4.6006375551223755e-01" purity="5.5281013250350952e-01" nType="-99"/>
        </Node>
        <Node pos="r" depth="1" NCoef="0" IVar="4" Cut="1.0798960179090500e-01" cType="1" res="-4.4082868844270706e-02" rms="4.4691482186317444e-01" purity="4.0741944313049316e-01" nType="0">
          <Node pos="l" depth="2" NCoef="0" IVar="5" Cut="1.3273943960666656e-01" cType="1" res="-3.8142686244100332e-03" rms="4.5607683062553406e-01" purity="4.7773811221122742e-01" nType="0">
            <Node pos="l" depth="3" NCoef="0" IVar="-1" Cut="0.0000000000000000e+00" cType="1" res="1.0056548751890659e-02" rms="4.5324468612670898e-01" purity="5.6968474388122559e-01" nType="-99"/>
            <Node pos="r" depth="3" NCoef="0" IVar="-1" Cut="0.0000000000000000e+00" cType="1" res="-1.2063214555382729e-02" rms="4.5304918289184570e-01" purity="3.8386926054954529e-01" nType="-99"/>
          </Node>
          <Node pos="r" depth="2" NCoef="0" IVar="-1" Cut="0.0000000000000000e+00" cType="1" res="-2.4573255330324173e-02" rms="4.2255315184593201e-01" purity="2.8936764597892761e-01" nType="-99"/>
        </Node>
      </Node>
    </BinaryTree>
    <BinaryTree type="DecisionTree" boostWeight="1.0000000000000000e+00" itree="20">
      <Node pos="s" depth="0" NCoef="0" IVar="2" Cut="1.4067882299423218e+00" cType="1" res="3.5209690686315298e-03" rms="4.4601526856422424e-01" purity="5.0188589096069336e-01" nType="0">
        <Node pos="l" depth="1" NCoef="0" IVar="8" Cut="1.2779250741004944e-01" cType="1" res="2.9323609545826912e-02" rms="4.4604429602622986e-01" purity="5.5108851194381714e-01" nType="0">
          <Node pos="l" depth="2" NCoef="0" IVar="11" Cut="-5.1749402284622192e-01" cType="1" res="6.0948211699724197e-02" rms="4.4272938370704651e-01" purity="6.0706245899200439e-01" nType="0">
            <Node pos="l" depth="3" NCoef="0" IVar="-1" Cut="0.0000000000000000e+00" cType="1" res="-2.5050875265151262e-03" rms="4.6278142929077148e-01" purity="4.8823747038841248e-01" nType="-99"/>
            <Node pos="r" depth="3" NCoef="0" IVar="5" Cut="1.3356947898864746e-01" cType="1" res="9.2362262308597565e-02" rms="4.2999333143234253e-01" purity="6.5839385986328125e-01" nType="0">
              <Node pos="l" depth="4" NCoef="0" IVar="-1" Cut="0.0000000000000000e+00" cType="1" res="2.9115483164787292e-02" rms="4.0532460808753967e-01" purity="7.3127889633178711e-01" nType="-99"/>
              <Node pos="r" depth="4" NCoef="0" IVar="-1" Cut="0.0000000000000000e+00" cType="1" res="8.3442907780408859e-03" rms="4.5678472518920898e-01" purity="5.5685740709304810e-01" nType="-99"/>
            </Node>
          </Node>
          <Node pos="r" depth="2" NCoef="0" IVar="-1" Cut="0.0000000000000000e+00" cType="1" res="-1.4132178388535976e-02" rms="4.4256180524826050e-01" purity="3.8411170244216919e-01" nType="-99"/>
        </Node>
        <Node pos="r" depth="1" NCoef="0" IVar="-1" Cut="0.0000000000000000e+00" cType="1" res="-2.1722564473748207e-02" rms="4.3092498183250427e-01" purity="3.0660077929496765e-01" nType="-99"/>
      </Node>
    </BinaryTree>
    <BinaryTree type="DecisionTree" boostWeight="1.0000000000000000e+00" itree="21">
      <Node pos="s" depth="0" NCoef="0" IVar="4" Cut="1.1471346765756607e-01" cType="1" res="4.7382786870002747e-03" rms="4.4520658254623413e-01" purity="5.0240588188171387e-01" nType="0">
        <Node pos="l" depth="1" NCoef="0" IVar="2" Cut="8.8785308599472046e-01" cType="1" res="3.5924520343542099e-02" rms="4.4419348239898682e-01" purity="5.6149137020111084e-01" nType="0">
          <Node pos="l" depth="2" NCoef="0" IVar="5" Cut="1.3650429248809814e-01" cType="1" res="7.6097279787063599e-02" rms="4.3088647723197937e-01" purity="6.4803618192672729e-01" nType="0">
            <Node pos="l" depth="3" NCoef="0" IVar="-1" Cut="0.0000000000000000e+00" cType="1" res="2.6303019374608994e-02" rms="4.0857064723968506e-01" purity="7.2600257396697998e-01" nType="-99"/>
            <Node pos="r" depth="3" NCoef="0" IVar="-1" Cut="0.0000000000000000e+00" cType="1" res="2.1337356884032488e-03" rms="4.5684942603111267e-01" purity="5.2251470088958740e-01" nType="-99"/>
          </Node>
          <Node pos="r" depth="2" NCoef="0" IVar="-1" Cut="0.0000000000000000e+00" cType="1" res="-3.9098891429603100e-03" rms="4.5593267679214478e-01" purity="4.4516819715499878e-01" nType="-99"/>
        </Node>
        <Node pos="r" depth="1" NCoef="0" IVar="-1" Cut="0.0000000000000000e+00" cType="1" res="-1.4691874384880066e-02" rms="4.3921285867691040e-01" purity="3.6661919951438904e-01" nType="-99"/>
      </Node>
    </BinaryTree>
    <BinaryTree type="DecisionTree" boostWeight="1.0000000000000000e+00" itree="22">
      <Node pos="s" depth="0" NCoef="0" IVar="0" Cut="9.1301269531250000e+02" cType="1" res="3.7724135909229517e-03" rms="4.4533306360244751e-01" purity="5.0027650594711304e-01" nType="0">
        <Node pos="l" depth="1" NCoef="0" IVar="6" Cut="5.3668029785156250e+01" cType="1" res="-2.1204236894845963e-02" rms="4.5261040329933167e-01" purity="4.2655339837074280e-01" nType="0">
          <Node pos="l" depth="2" NCoef="0" IVar="6" Cut="4.1269771575927734e+01" cType="1" res="-5.9182055294513702e-02" rms="4.4112601876258850e-01" purity="3.3180588483810425e-01" nType="0">
            <Node pos="l" depth="3" NCoef="0" IVar="-1" Cut="0.0000000000000000e+00" cType="1" res="-2.1464562043547630e-02" rms="4.1966736316680908e-01" purity="2.7220752835273743e-01" nType="-99"/>
            <Node pos="r" depth="3" NCoef="0" IVar="-1" Cut="0.0000000000000000e+00" cType="1" res="2.1914592944085598e-03" rms="4.7211501002311707e-01" purity="4.4673767685890198e-01" nType="-99"/>
          </Node>
          <Node pos="r" depth="2" NCoef="0" IVar="-1" Cut="0.0000000000000000e+00" cType="1" res="8.8891834020614624e-03" rms="4.6427938342094421e-01" purity="5.8453142642974854e-01" nType="-99"/>
        </Node>
        <Node pos="r" depth="1" NCoef="0" IVar="-1" Cut="0.0000000000000000e+00" cType="1" res="1.9084302708506584e-02" rms="4.1140511631965637e-01" purity="7.3468244075775146e-01" nType="-99"/>
      </Node>
    </BinaryTree>
    <BinaryTree type="DecisionTree" boostWeight="1.0000000000000000e+00" itree="23">
      <Node pos="s" depth="0" NCoef="0" IVar="7" Cut="6.6994406282901764e-02" cType="1" res="2.2216709112399258e-06" rms="4.4047269225120544e-01" purity="4.9852421879768372e-01" nType="0">
        <Node pos="l" depth="1" NCoef="0" IVar="4" Cut="9.0662136673927307e-02" cType="1" res="5.0217475742101669e-02" rms="4.3873047828674316e-01" purity="6.2756443023681641e-01" nType="0">
          <Node pos="l" depth="2" NCoef="0" IVar="-1" Cut="0.0000000000000000e+00" cType="1" res="2.1818943321704865e-02" rms="4.1292604804039001e-01" purity="7.1847724914550781e-01" nType="-99"/>
          <Node pos="r" depth="2" NCoef="0" IVar="-1" Cut="0.0000000000000000e+00" cType="1" res="-1.9639272068161517e-04" rms="4.6058475971221924e-01" purity="5.2578276395797729e-01" nType="-99"/>
        </Node>
        <Node pos="r" depth="1" NCoef="0" IVar="8" Cut="1.1624758690595627e-01" cType="1" res="-5.0677705556154251e-02" rms="4.3640434741973877e-01" purity="3.6828988790512085e-01" nType="0">
          <Node pos="l" depth="2" NCoef="0" IVar="10" Cut="2.7536148071289062e+02" cType="1" res="-1.8467405810952187e-02" rms="4.5155659317970276e-01" purity="4.3681538105010986e-01" nType="0">
            <Node pos="l" depth="3" NCoef="0" IVar="-1" Cut="0.0000000000000000e+00" cType="1" res="-1.1534615419805050e-02" rms="4.4897109270095825e-01" purity="3.8069361448287964e-01" nType="-99"/>
            <Node pos="r" depth="3" NCoef="0" IVar="-1" Cut="0.0000000000000000e+00" cType="1" res="3.9726640097796917e-03" rms="4.5138520002365112e-01" purity="4.9659499526023865e-01" nType="-99"/>
          </Node>
          <Node pos="r" depth="2" NCoef="0" IVar="-1" Cut="0.0000000000000000e+00" cType="1" res="-2.4427469819784164e-02" rms="4.0318357944488525e-01" purity="2.5082087516784668e-01" nType="-99"/>
        </Node>
      </Node>
    </BinaryTree>
    <BinaryTree type="DecisionTree" boostWeight="1.0000000000000000e+00" itree="24">
      <Node pos="s" depth="0" NCoef="0" IVar="0" Cut="7.1833660888671875e+02" cType="1" res="-7.3401641566306353e-04" rms="4.4150763750076294e-01" purity="4.9757993221282959e-01" nType="0">
        <Node pos="l" depth="1" NCoef="0" IVar="11" Cut="-8.6264473199844360e-01" cType="1" res="-3.5762630403041840e-02" rms="4.4717034697532654e-01" purity="3.9452084898948669e-01" nType="0">
          <Node pos="l" depth="2" NCoef="0" IVar="-1" Cut="0.0000000000000000e+00" cType="1" res="-2.3520780727267265e-02" rms="4.2971256375312805e-01" purity="3.0446752905845642e-01" nType="-99"/>
          <Node pos="r" depth="2" NCoef="0" IVar="3" Cut="2.8079280853271484e+01" cType="1" res="-1.0174538008868694e-02" rms="4.5052835345268250e-01" purity="4.2683815956115723e-01" nType="0">
            <Node pos="l" depth="3" NCoef="0" IVar="-1" Cut="0.0000000000000000e+00" cType="1" res="-1.3436103239655495e-02" rms="4.3497416377067566e-01" purity="3.1788682937622070e-01" nType="-99"/>
            <Node pos="r" depth="3" NCoef="0" IVar="-1" Cut="0.0000000000000000e+00" cType="1" res="6.2217642553150654e-03" rms="4.5878028869628906e-01" purity="5.1349544525146484e-01" nType="-99"/>
          </Node>
        </Node>
        <Node pos="r" depth="1" NCoef="0" IVar="-1" Cut="0.0000000000000000e+00" cType="1" res="1.5282591804862022e-02" rms="4.2221200466156006e-01" purity="6.9662499427795410e-01" nType="-99"/>
      </Node>
    </BinaryTree>
    <BinaryTree type="DecisionTree" boostWeight="1.0000000000000000e+00" itree="25">
      <Node pos="s" depth="0" NCoef="0" IVar="2" Cut="1.4141854047775269e+00" cType="1" res="4.4439360499382019e-03" rms="4.4249925017356873e-01" purity="5.0298112630844116e-01" nType="0">
        <Node pos="l" depth="1" NCoef="0" IVar="0" Cut="4.2648492431640625e+02" cType="1" res="2.7199491858482361e-02" rms="4.4303271174430847e-01" purity="5.5300486087799072e-01" nType="0">
          <Node pos="l" depth="2" NCoef="0" IVar="7" Cut="8.1093788146972656e-02" cType="1" res="-2.5000620633363724e-02" rms="4.5952841639518738e-01" purity="3.9373776316642761e-01" nType="0">
            <Node pos="l" depth="3" NCoef="0" IVar="-1" Cut="0.0000000000000000e+00" cType="1" res="2.4209020193666220e-03" rms="4.7859960794448853e-01" purity="4.8910713195800781e-01" nType="-99"/>
            <Node pos="r" depth="3" NCoef="0" IVar="-1" Cut="0.0000000000000000e+00" cType="1" res="-1.4245393685996532e-02" rms="4.3572193384170532e-01" purity="2.9509657621383667e-01" nType="-99"/>
          </Node>
          <Node pos="r" depth="2" NCoef="0" IVar="1" Cut="4.1886882781982422e+00" cType="1" res="6.3264228403568268e-02" rms="4.2756104469299316e-01" purity="6.6304141283035278e-01" nType="0">
            <Node pos="l" depth="3" NCoef="0" IVar="-1" Cut="0.0000000000000000e+00" cType="1" res="2.6515517383813858e-02" rms="4.1481891274452209e-01" purity="7.3226779699325562e-01" nType="-99"/>
            <Node pos="r" depth="3" NCoef="0" IVar="-1" Cut="0.0000000000000000e+00" cType="1" res="5.1080430857837200e-03" rms="4.3235856294631958e-01" purity="6.1140596866607666e-01" nType="-99"/>
          </Node>
        </Node>
        <Node pos="r" depth="1" NCoef="0" IVar="-1" Cut="0.0000000000000000e+00" cType="1" res="-1.9799355417490005e-02" rms="4.2813155055046082e-01" purity="3.0033648014068604e-01" nType="-99"/>
      </Node>
    </BinaryTree>
    <BinaryTree type="DecisionTree" boostWeight="1.0000000000000000e+00" itree="26">
      <Node pos="s" depth="0" NCoef="0" IVar="3" Cut="2.8100578308105469e+01" cType="1" res="-6.3335197046399117e-04" rms="4.4115367531776428e-01" purity="4.9849686026573181e-01" nType="0">
        <Node pos="l" depth="1" NCoef="0" IVar="9" Cut="3.4285714626312256e+00" cType="1" res="-5.3248379379510880e-02" rms="4.3930399417877197e-01" purity="3.7565252184867859e-01" nType="0">
          <Node pos="l" depth="2" NCoef="0" IVar="-1" Cut="0.0000000000000000e+00" cType="1" res="-2.2421322762966156e-02" rms="4.1788733005523682e-01" purity="3.2052338123321533e-01" nType="-99"/>
          <Node pos="r" depth="2" NCoef="0" IVar="-1" Cut="0.0000000000000000e+00" cType="1" res="-1.1557517573237419e-03" rms="4.5657551288604736e-01" purity="4.3541911244392395e-01" nType="-99"/>
        </Node>
        <Node pos="r" depth="1" NCoef="0" IVar="5" Cut="1.2695474922657013e-01" cType="1" res="3.5596963018178940e-02" rms="4.3876996636390686e-01" purity="5.8308649063110352e-01" nType="0">
          <Node pos="l" depth="2" NCoef="0" IVar="-1" Cut="0.0000000000000000e+00" cType="1" res="1.6793102025985718e-02" rms="4.2620679736137390e-01" purity="6.6232544183731079e-01" nType="-99"/>
          <Node pos="r" depth="2" NCoef="0" IVar="-1" Cut="0.0000000000000000e+00" cType="1" res="-4.0659345686435699e-03" rms="4.5030763745307922e-01" purity="4.7179651260375977e-01" nType="-99"/>
        </Node>
      </Node>
    </BinaryTree>
    <BinaryTree type="DecisionTree" boostWeight="1.0000000000000000e+00" itree="27">
      <Node pos="s" depth="0" NCoef="0" IVar="5" Cut="1.5119442343711853e-01" cType="1" res="-3.2420415664091706e-04" rms="4.3827009201049805e-01" purity="4.9812772870063782e-01" nType="0">
        <Node pos="l" depth="1" NCoef="0" IVar="2" Cut="1.1385059356689453e+00" cType="1" res="3.2192893326282501e-02" rms="4.3797698616981506e-01" purity="5.6787234544754028e-01" nType="0">
          <Node pos="l" depth="2" NCoef="0" IVar="8" Cut="1.0792674869298935e-01" cType="1" res="5.8563645929098129e-02" rms="4.3068781495094299e-01" purity="6.3587313890457153e-01" nType="0">
            <Node pos="l" depth="3" NCoef="0" IVar="-1" Cut="0.0000000000000000e+00" cType="1" res="2.0091479644179344e-02" rms="4.1521838307380676e-01" purity="7.0648169517517090e-01" nType="-99"/>
            <Node pos="r" depth="3" NCoef="0" IVar="-1" Cut="0.0000000000000000e+00" cType="1" res="8.0487996456213295e-05" rms="4.5539677143096924e-01" purity="4.9057942628860474e-01" nType="-99"/>
          </Node>
          <Node pos="r" depth="2" NCoef="0" IVar="-1" Cut="0.0000000000000000e+00" cType="1" res="-7.7543915249407291e-03" rms="4.4908428192138672e-01" purity="3.9440757036209106e-01" nType="-99"/>
        </Node>
        <Node pos="r" depth="1" NCoef="0" IVar="9" Cut="3.3333332538604736e+00" cType="1" res="-6.2499977648258209e-02" rms="4.3206956982612610e-01" purity="3.6476948857307434e-01" nType="0">
          <Node pos="l" depth="2" NCoef="0" IVar="-1" Cut="0.0000000000000000e+00" cType="1" res="-2.3659555241465569e-02" rms="4.0626221895217896e-01" purity="3.0334037542343140e-01" nType="-99"/>
          <Node pos="r" depth="2" NCoef="0" IVar="-1" Cut="0.0000000000000000e+00" cType="1" res="-4.2340890504419804e-03" rms="4.5511022210121155e-01" purity="4.3294697999954224e-01" nType="-99"/>
        </Node>
      </Node>
    </BinaryTree>
    <BinaryTree type="DecisionTree" boostWeight="1.0000000000000000e+00" itree="28">
      <Node pos="s" depth="0" NCoef="0" IVar="8" Cut="8.7214425206184387e-02" cType="1" res="2.6294947601854801e-03" rms="4.4001856446266174e-01" purity="5.0217807292938232e-01" nType="0">
        <Node pos="l" depth="1" NCoef="0" IVar="4" Cut="8.8263981044292450e-02" cType="1" res="4.0817324072122574e-02" rms="4.3418574333190918e-01" purity="6.0783410072326660e-01" nType="0">
          <Node pos="l" depth="2" NCoef="0" IVar="-1" Cut="0.0000000000000000e+00" cType="1" res="1.7408957704901695e-02" rms="4.1135087609291077e-01" purity="6.9404488801956177e-01" nType="-99"/>
          <Node pos="r" depth="2" NCoef="0" IVar="-1" Cut="0.0000000000000000e+00" cType="1" res="1.1680604657158256e-03" rms="4.5417344570159912e-01" purity="5.1755237579345703e-01" nType="-99"/>
        </Node>
        <Node pos="r" depth="1" NCoef="0" IVar="9" Cut="3.3333332538604736e+00" cType="1" res="-3.5359922796487808e-02" rms="4.4248729944229126e-01" purity="3.9707106351852417e-01" nType="0">
          <Node pos="l" depth="2" NCoef="0" IVar="-1" Cut="0.0000000000000000e+00" cType="1" res="-1.8262984231114388e-02" rms="4.1720566153526306e-01" purity="3.2385227084159851e-01" nType="-99"/>
          <Node pos="r" depth="2" NCoef="0" IVar="-1" Cut="0.0000000000000000e+00" cType="1" res="-1.1129130871267989e-04" rms="4.5906394720077515e-01" purity="4.5654764771461487e-01" nType="-99"/>
        </Node>
      </Node>
    </BinaryTree>
    <BinaryTree type="DecisionTree" boostWeight="1.0000000000000000e+00" itree="29">
      <Node pos="s" depth="0" NCoef="0" IVar="11" Cut="-5.5999051779508591e-02" cType="1" res="3.1817515846341848e-03" rms="4.3888810276985168e-01" purity="5.0320619344711304e-01" nType="0">
        <Node pos="l" depth="1" NCoef="0" IVar="11" Cut="-9.6399343013763428e-01" cType="1" res="-3.8197219371795654e-02" rms="4.4271606206893921e-01" purity="4.2343297600746155e-01" nType="0">
          <Node pos="l" depth="2" NCoef="0" IVar="-1" Cut="0.0000000000000000e+00" cType="1" res="-1.7784023657441139e-02" rms="4.3636509776115417e-01" purity="3.5043865442276001e-01" nType="-99"/>
          <Node pos="r" depth="2" NCoef="0" IVar="-1" Cut="0.0000000000000000e+00" cType="1" res="-2.2821570746600628e-03" rms="4.4487851858139038e-01" purity="4.7370168566703796e-01" nType="-99"/>
        </Node>
        <Node pos="r" depth="1" NCoef="0" IVar="1" Cut="4.3362450599670410e+00" cType="1" res="3.8829412311315536e-02" rms="4.3239986896514893e-01" purity="5.7193017005920410e-01" nType="0">
          <Node pos="l" depth="2" NCoef="0" IVar="-1" Cut="0.0000000000000000e+00" cType="1" res="1.8933648243546486e-02" rms="4.3048006296157837e-01" purity="5.9296166896820068e-01" nType="-99"/>
          <Node pos="r" depth="2" NCoef="0" IVar="-1" Cut="0.0000000000000000e+00" cType="1" res="-2.3754518479108810e-03" rms="4.2922425270080566e-01" purity="5.4850322008132935e-01" nType="-99"/>
        </Node>
      </Node>
    </BinaryTree>
    <BinaryTree type="DecisionTree" boostWeight="1.0000000000000000e+00" itree="30">
      <Node pos="s" depth="0" NCoef="0" IVar="7" Cut="8.0279938876628876e-02" cType="1" res="-1.4609820209443569e-03" rms="4.3540072441101074e-01" purity="4.9957376718521118e-01" nType="0">
        <Node pos="l" depth="1" NCoef="0" IVar="11" Cut="-8.1305705010890961e-02" cType="1" res="3.1390108168125153e-02" rms="4.3867114186286926e-01" purity="6.0203939676284790e-01" nType="0">
          <Node pos="l" depth="2" NCoef="0" IVar="-1" Cut="0.0000000000000000e+00" cType="1" res="-2.0083135459572077e-03" rms="4.5589864253997803e-01" purity="5.1644855737686157e-01" nType="-99"/>
          <Node pos="r" depth="2" NCoef="0" IVar="-1" Cut="0.0000000000000000e+00" cType="1" res="1.4734320342540741e-02" rms="4.2173850536346436e-01" purity="6.6997903585433960e-01" nType="-99"/>
        </Node>
        <Node pos="r" depth="1" NCoef="0" IVar="3" Cut="3.2612911224365234e+01" cType="1" res="-5.2590034902095795e-02" rms="4.2524212598800659e-01" purity="3.4009748697280884e-01" nType="0">
          <Node pos="l" depth="2" NCoef="0" IVar="-1" Cut="0.0000000000000000e+00" cType="1" res="-1.9746376201510429e-02" rms="4.0304964780807495e-01" purity="2.5613346695899963e-01" nType="-99"/>
          <Node pos="r" depth="2" NCoef="0" IVar="-1" Cut="0.0000000000000000e+00" cType="1" res="-1.2574754655361176e-03" rms="4.5370054244995117e-01" purity="4.7077694535255432e-01" nType="-99"/>
        </Node>
      </Node>
    </BinaryTree>
    <BinaryTree type="DecisionTree" boostWeight="1.0000000000000000e+00" itree="31">
      <Node pos="s" depth="0" NCoef="0" IVar="4" Cut="1.2039379775524139e-01" cType="1" res="2.5166983250528574e-03" rms="4.3683251738548279e-01" purity="5.0118243694305420e-01" nType="0">
        <Node pos="l" depth="1" NCoef="0" IVar="8" Cut="1.0179046541452408e-01" cType="1" res="2.8416303917765617e-02" rms="4.3756484985351562e-01" purity="5.5739969015121460e-01" nType="0">
          <Node pos="l" depth="2" NCoef="0" IVar="2" Cut="8.8156670331954956e-01" cType="1" res="5.5597767233848572e-02" rms="4.2993193864822388e-01" purity="6.3967114686965942e-01" nType="0">
            <Node pos="l" depth="3" NCoef="0" IVar="-1" Cut="0.0000000000000000e+00" cType="1" res="1.9193181768059731e-02" rms="4.0501296520233154e-01" purity="7.1904575824737549e-01" nType="-99"/>
            <Node pos="r" depth="3" NCoef="0" IVar="-1" Cut="0.0000000000000000e+00" cType="1" res="4.5494069345295429e-03" rms="4.6035364270210266e-01" purity="5.2838432788848877e-01" nType="-99"/>
          </Node>
          <Node pos="r" depth="2" NCoef="0" IVar="-1" Cut="0.0000000000000000e+00" cType="1" res="-3.3876621164381504e-03" rms="4.4606158137321472e-01" purity="4.2606845498085022e-01" nType="-99"/>
        </Node>
        <Node pos="r" depth="1" NCoef="0" IVar="-1" Cut="0.0000000000000000e+00" cType="1" res="-1.5824912115931511e-02" rms="4.2671316862106323e-01" purity="3.4591090679168701e-01" nType="-99"/>
      </Node>
    </BinaryTree>
    <BinaryTree type="DecisionTree" boostWeight="1.0000000000000000e+00" itree="32">
      <Node pos="s" depth="0" NCoef="0" IVar="7" Cut="1.0695975273847580e-01" cType="1" res="1.6862167976796627e-03" rms="4.3638977408409119e-01" purity="5.0046199560165405e-01" nType="0">
        <Node pos="l" depth="1" NCoef="0" IVar="4" Cut="7.8925795853137970e-02" cType="1" res="2.2572252899408340e-02" rms="4.4091811776161194e-01" purity="5.6237566471099854e-01" nType="0">
          <Node pos="l" depth="2" NCoef="0" IVar="-1" Cut="0.0000000000000000e+00" cType="1" res="1.6018528491258621e-02" rms="4.1842880845069885e-01" purity="6.7500841617584229e-01" nType="-99"/>
          <Node pos="r" depth="2" NCoef="0" IVar="9" Cut="3.4285714626312256e+00" cType="1" res="-7.6125697232782841e-03" rms="4.5264905691146851e-01" purity="4.8793944716453552e-01" nType="0">
            <Node pos="l" depth="3" NCoef="0" IVar="-1" Cut="0.0000000000000000e+00" cType="1" res="-1.0938439518213272e-02" rms="4.3621927499771118e-01" purity="4.2251262068748474e-01" nType="-99"/>
            <Node pos="r" depth="3" NCoef="0" IVar="-1" Cut="0.0000000000000000e+00" cType="1" res="5.2200411446392536e-03" rms="4.6257033944129944e-01" purity="5.3865295648574829e-01" nType="-99"/>
          </Node>
        </Node>
        <Node pos="r" depth="1" NCoef="0" IVar="-1" Cut="0.0000000000000000e+00" cType="1" res="-1.5638735145330429e-02" rms="4.1406455636024475e-01" purity="2.9881787300109863e-01" nType="-99"/>
      </Node>
    </BinaryTree>
    <BinaryTree type="DecisionTree" boostWeight="1.0000000000000000e+00" itree="33">
      <Node pos="s" depth="0" NCoef="0" IVar="5" Cut="9.5646254718303680e-02" cType="1" res="-3.3578772563487291e-03" rms="4.3601983785629272e-01" purity="4.9697983264923096e-01" nType="0">
        <Node pos="l" depth="1" NCoef="0" IVar="-1" Cut="0.0000000000000000e+00" cType="1" res="1.3403611257672310e-02" rms="4.1664177179336548e-01" purity="6.5586906671524048e-01" nType="-99"/>
        <Node pos="r" depth="1" NCoef="0" IVar="7" Cut="5.1498938351869583e-02" cType="1" res="-2.3219777271151543e-02" rms="4.4042566418647766e-01" purity="4.4455569982528687e-01" nType="0">
          <Node pos="l" depth="2" NCoef="0" IVar="-1" Cut="0.0000000000000000e+00" cType="1" res="5.2136373706161976e-03" rms="4.4459810853004456e-01" purity="6.0657280683517456e-01" nType="-99"/>
          <Node pos="r" depth="2" NCoef="0" IVar="9" Cut="3.3333332538604736e+00" cType="1" res="-4.5452177524566650e-02" rms="4.3666520714759827e-01" purity="3.6660549044609070e-01" nType="0">
            <Node pos="l" depth="3" NCoef="0" IVar="-1" Cut="0.0000000000000000e+00" cType="1" res="-1.9698789343237877e-02" rms="4.0576982498168945e-01" purity="2.9395025968551636e-01" nType="-99"/>
            <Node pos="r" depth="3" NCoef="0" IVar="-1" Cut="0.0000000000000000e+00" cType="1" res="-3.3518872223794460e-03" rms="4.5838892459869385e-01" purity="4.2657455801963806e-01" nType="-99"/>
          </Node>
        </Node>
      </Node>
    </BinaryTree>
    <BinaryTree type="DecisionTree" boostWeight="1.0000000000000000e+00" itree="34">
      <Node pos="s" depth="0" NCoef="0" IVar="0" Cut="7.7568890380859375e+02" cType="1" res="-1.8790196627378464e-03" rms="4.3493157625198364e-01" purity="4.9993482232093811e-01" nType="0">
        <Node pos="l" depth="1" NCoef="0" IVar="6" Cut="4.9979721069335938e+01" cType="1" res="-2.5580449029803276e-02" rms="4.4230231642723083e-01" purity="4.0891295671463013e-01" nType="0">
          <Node pos="l" depth="2" NCoef="0" IVar="6" Cut="3.5707893371582031e+01" cType="1" res="-5.3660813719034195e-02" rms="4.2539221048355103e-01" purity="3.0947697162628174e-01" nType="0">
            <Node pos="l" depth="3" NCoef="0" IVar="-1" Cut="0.0000000000000000e+00" cType="1" res="-2.3321269080042839e-02" rms="3.9835453033447266e-01" purity="2.3369625210762024e-01" nType="-99"/>
            <Node pos="r" depth="3" NCoef="0" IVar="-1" Cut="0.0000000000000000e+00" cType="1" res="-3.8573190104216337e-03" rms="4.4417470693588257e-01" purity="3.7492460012435913e-01" nType="-99"/>
          </Node>
          <Node pos="r" depth="2" NCoef="0" IVar="-1" Cut="0.0000000000000000e+00" cType="1" res="3.2011019065976143e-03" rms="4.6253708004951477e-01" purity="5.5168002843856812e-01" nType="-99"/>
        </Node>
        <Node pos="r" depth="1" NCoef="0" IVar="-1" Cut="0.0000000000000000e+00" cType="1" res="1.1884901672601700e-02" rms="4.1380876302719116e-01" purity="6.9776546955108643e-01" nType="-99"/>
      </Node>
    </BinaryTree>
    <BinaryTree type="DecisionTree" boostWeight="1.0000000000000000e+00" itree="35">
      <Node pos="s" depth="0" NCoef="0" IVar="0" Cut="1.0915844726562500e+03" cType="1" res="2.9812802094966173e-03" rms="4.3501365184783936e-01" purity="5.0263375043869019e-01" nType="0">
        <Node pos="l" depth="1" NCoef="0" IVar="6" Cut="5.6337440490722656e+01" cType="1" res="-1.4062037691473961e-02" rms="4.4262373447418213e-01" purity="4.4273662567138672e-01" nType="0">
          <Node pos="l" depth="2" NCoef="0" IVar="6" Cut="3.6270355224609375e+01" cType="1" res="-4.7563109546899796e-02" rms="4.3574383854866028e-01" purity="3.4174588322639465e-01" nType="0">
            <Node pos="l" depth="3" NCoef="0" IVar="-1" Cut="0.0000000000000000e+00" cType="1" res="-2.4591457098722458e-02" rms="4.0447518229484558e-01" purity="2.4109688401222229e-01" nType="-99"/>
            <Node pos="r" depth="3" NCoef="0" IVar="-1" Cut="0.0000000000000000e+00" cType="1" res="-1.5583628555759788e-03" rms="4.5375528931617737e-01" purity="4.1782438755035400e-01" nType="-99"/>
          </Node>
          <Node pos="r" depth="2" NCoef="0" IVar="-1" Cut="0.0000000000000000e+00" cType="1" res="1.0130099952220917e-02" rms="4.4845998287200928e-01" purity="6.2224102020263672e-01" nType="-99"/>
        </Node>
        <Node pos="r" depth="1" NCoef="0" IVar="-1" Cut="0.0000000000000000e+00" cType="1" res="1.9456014037132263e-02" rms="3.9086437225341797e-01" purity="7.6726865768432617e-01" nType="-99"/>
      </Node>
    </BinaryTree>
    <BinaryTree type="DecisionTree" boostWeight="1.0000000000000000e+00" itree="36">
      <Node pos="s" depth="0" NCoef="0" IVar="11" Cut="-7.8108370304107666e-01" cType="1" res="7.6247454853728414e-04" rms="4.3580493330955505e-01" purity="5.0127810239791870e-01" nType="0">
        <Node pos="l" depth="1" NCoef="0" IVar="-1" Cut="0.0000000000000000e+00" cType="1" res="-1.2089417316019535e-02" rms="4.3788859248161316e-01" purity="3.7377902865409851e-01" nType="-99"/>
        <Node pos="r" depth="1" NCoef="0" IVar="1" Cut="4.6029281616210938e+00" cType="1" res="1.7206115648150444e-02" rms="4.3384164571762085e-01" purity="5.4075217247009277e-01" nType="0">
          <Node pos="l" depth="2" NCoef="0" IVar="0" Cut="3.4118048095703125e+02" cType="1" res="4.3125271797180176e-02" rms="4.3444249033927917e-01" purity="5.4806071519851685e-01" nType="0">
            <Node pos="l" depth="3" NCoef="0" IVar="-1" Cut="0.0000000000000000e+00" cType="1" res="-3.1510135158896446e-03" rms="4.5039993524551392e-01" purity="3.7230598926544189e-01" nType="-99"/>
            <Node pos="r" depth="3" NCoef="0" IVar="8" Cut="7.5847528874874115e-02" cType="1" res="8.0519072711467743e-02" rms="4.1942140460014343e-01" purity="6.6389703750610352e-01" nType="0">
              <Node pos="l" depth="4" NCoef="0" IVar="-1" Cut="0.0000000000000000e+00" cType="1" res="2.2706905379891396e-02" rms="3.9394196867942810e-01" purity="7.3597896099090576e-01" nType="-99"/>
              <Node pos="r" depth="4" NCoef="0" IVar="-1" Cut="0.0000000000000000e+00" cType="1" res="1.5498342923820019e-02" rms="4.4243815541267395e-01" purity="5.9380310773849487e-01" nType="-99"/>
            </Node>
          </Node>
          <Node pos="r" depth="2" NCoef="0" IVar="-1" Cut="0.0000000000000000e+00" cType="1" res="-8.3183171227574348e-03" rms="4.2786127328872681e-01" purity="5.2598667144775391e-01" nType="-99"/>
        </Node>
      </Node>
    </BinaryTree>
    <BinaryTree type="DecisionTree" boostWeight="1.0000000000000000e+00" itree="37">
      <Node pos="s" depth="0" NCoef="0" IVar="2" Cut="7.7138710021972656e-01" cType="1" res="-6.7783327540382743e-04" rms="4.3228724598884583e-01" purity="4.9869295954704285e-01" nType="0">
        <Node pos="l" depth="1" NCoef="0" IVar="0" Cut="4.7355905151367188e+02" cType="1" res="3.2382618635892868e-02" rms="4.2429476976394653e-01" purity="6.0215836763381958e-01" nType="0">
          <Node pos="l" depth="2" NCoef="0" IVar="-1" Cut="0.0000000000000000e+00" cType="1" res="-3.5183115396648645e-03" rms="4.5804598927497864e-01" purity="4.2470648884773254e-01" nType="-99"/>
          <Node pos="r" depth="2" NCoef="0" IVar="-1" Cut="0.0000000000000000e+00" cType="1" res="1.7248632386326790e-02" rms="3.9262643456459045e-01" purity="7.3765134811401367e-01" nType="-99"/>
        </Node>
        <Node pos="r" depth="1" NCoef="0" IVar="1" Cut="3.7598290443420410e+00" cType="1" res="-3.0676562339067459e-02" rms="4.3725588917732239e-01" purity="4.0480947494506836e-01" nType="0">
          <Node pos="l" depth="2" NCoef="0" IVar="-1" Cut="0.0000000000000000e+00" cType="1" res="1.0532239684835076e-03" rms="4.4934603571891785e-01" purity="4.2106056213378906e-01" nType="-99"/>
          <Node pos="r" depth="2" NCoef="0" IVar="-1" Cut="0.0000000000000000e+00" cType="1" res="-1.6105031594634056e-02" rms="4.2062631249427795e-01" purity="3.8736614584922791e-01" nType="-99"/>
        </Node>
      </Node>
    </BinaryTree>
    <BinaryTree type="DecisionTree" boostWeight="1.0000000000000000e+00" itree="38">
      <Node pos="s" depth="0" NCoef="0" IVar="5" Cut="1.6013619303703308e-01" cType="1" res="-5.8878236450254917e-04" rms="4.3330743908882141e-01" purity="4.9965965747833252e-01" nType="0">
        <Node pos="l" depth="1" NCoef="0" IVar="2" Cut="1.0231451988220215e+00" cType="1" res="2.0465215668082237e-02" rms="4.3469950556755066e-01" purity="5.5386853218078613e-01" nType="0">
          <Node pos="l" depth="2" NCoef="0" IVar="11" Cut="-3.8687154650688171e-01" cType="1" res="4.5364480465650558e-02" rms="4.2561122775077820e-01" purity="6.3441395759582520e-01" nType="0">
            <Node pos="l" depth="3" NCoef="0" IVar="-1" Cut="0.0000000000000000e+00" cType="1" res="4.6688297879882157e-04" rms="4.5416128635406494e-01" purity="5.1796096563339233e-01" nType="-99"/>
            <Node pos="r" depth="3" NCoef="0" IVar="-1" Cut="0.0000000000000000e+00" cType="1" res="1.6171379014849663e-02" rms="4.0951362252235413e-01" purity="6.9053578376770020e-01" nType="-99"/>
          </Node>
          <Node pos="r" depth="2" NCoef="0" IVar="-1" Cut="0.0000000000000000e+00" cType="1" res="-5.6872442364692688e-03" rms="4.4723182916641235e-01" purity="4.0720221400260925e-01" nType="-99"/>
        </Node>
        <Node pos="r" depth="1" NCoef="0" IVar="-1" Cut="0.0000000000000000e+00" cType="1" res="-1.2674902565777302e-02" rms="4.2514079809188843e-01" purity="3.6258295178413391e-01" nType="-99"/>
      </Node>
    </BinaryTree>
    <BinaryTree type="DecisionTree" boostWeight="1.0000000000000000e+00" itree="39">
      <Node pos="s" depth="0" NCoef="0" IVar="1" Cut="4.6022424697875977e+00" cType="1" res="1.2124929344281554e-03" rms="4.3281656503677368e-01" purity="5.0312691926956177e-01" nType="0">
        <Node pos="l" depth="1" NCoef="0" IVar="0" Cut="3.6202621459960938e+02" cType="1" res="1.9413463771343231e-02" rms="4.3609359860420227e-01" purity="5.0566750764846802e-01" nType="0">
          <Node pos="l" depth="2" NCoef="0" IVar="8" Cut="1.0450848191976547e-01" cType="1" res="-1.8911557272076607e-02" rms="4.4626656174659729e-01" purity="3.5643067955970764e-01" nType="0">
            <Node pos="l" depth="3" NCoef="0" IVar="-1" Cut="0.0000000000000000e+00" cType="1" res="4.6055819257162511e-04" rms="4.6132710576057434e-01" purity="4.2415517568588257e-01" nType="-99"/>
            <Node pos="r" depth="3" NCoef="0" IVar="-1" Cut="0.0000000000000000e+00" cType="1" res="-9.5652956515550613e-03" rms="4.3030306696891785e-01" purity="2.9121845960617065e-01" nType="-99"/>
          </Node>
          <Node pos="r" depth="2" NCoef="0" IVar="0" Cut="6.8933843994140625e+02" cType="1" res="5.4335143417119980e-02" rms="4.2360430955886841e-01" purity="6.4165186882019043e-01" nType="0">
            <Node pos="l" depth="3" NCoef="0" IVar="-1" Cut="0.0000000000000000e+00" cType="1" res="3.8487836718559265e-03" rms="4.5321962237358093e-01" purity="5.3135031461715698e-01" nType="-99"/>
            <Node pos="r" depth="3" NCoef="0" IVar="-1" Cut="0.0000000000000000e+00" cType="1" res="2.8143614530563354e-02" rms="3.6790528893470764e-01" purity="8.0698782205581665e-01" nType="-99"/>
          </Node>
        </Node>
        <Node pos="r" depth="1" NCoef="0" IVar="-1" Cut="0.0000000000000000e+00" cType="1" res="-1.0989590547978878e-02" rms="4.2051213979721069e-01" purity="4.9652361869812012e-01" nType="-99"/>
      </Node>
    </BinaryTree>
    <BinaryTree type="DecisionTree" boostWeight="1.0000000000000000e+00" itree="40">
      <Node pos="s" depth="0" NCoef="0" IVar="4" Cut="8.0815926194190979e-02" cType="1" res="3.9282450452446938e-03" rms="4.3127810955047607e-01" purity="5.0463378429412842e-01" nType="0">
        <Node pos="l" depth="1" NCoef="0" IVar="10" Cut="2.8948333740234375e+02" cType="1" res="4.1189711540937424e-02" rms="4.1887587308883667e-01" purity="6.1738252639770508e-01" nType="0">
          <Node pos="l" depth="2" NCoef="0" IVar="-1" Cut="0.0000000000000000e+00" cType="1" res="1.4442517422139645e-03" rms="4.3544989824295044e-01" purity="5.4690706729888916e-01" nType="-99"/>
          <Node pos="r" depth="2" NCoef="0" IVar="-1" Cut="0.0000000000000000e+00" cType="1" res="1.8077397719025612e-02" rms="4.0025445818901062e-01" purity="6.8245345354080200e-01" nType="-99"/>
        </Node>
        <Node pos="r" depth="1" NCoef="0" IVar="11" Cut="-3.8285303115844727e-01" cType="1" res="-2.1237121894955635e-02" rms="4.3766519427299500e-01" purity="4.2848628759384155e-01" nType="0">
          <Node pos="l" depth="2" NCoef="0" IVar="-1" Cut="0.0000000000000000e+00" cType="1" res="-1.4050917699933052e-02" rms="4.2989882826805115e-01" purity="3.4406775236129761e-01" nType="-99"/>
          <Node pos="r" depth="2" NCoef="0" IVar="1" Cut="3.7706797122955322e+00" cType="1" res="2.2168287541717291e-03" rms="4.4067215919494629e-01" purity="4.7980597615242004e-01" nType="0">
            <Node pos="l" depth="3" NCoef="0" IVar="-1" Cut="0.0000000000000000e+00" cType="1" res="8.3942348137497902e-03" rms="4.5179986953735352e-01" purity="4.9785748124122620e-01" nType="-99"/>
            <Node pos="r" depth="3" NCoef="0" IVar="-1" Cut="0.0000000000000000e+00" cType="1" res="-5.5834972299635410e-03" rms="4.3020913004875183e-01" purity="4.6605807542800903e-01" nType="-99"/>
          </Node>
        </Node>
      </Node>
    </BinaryTree>
    <BinaryTree type="DecisionTree" boostWeight="1.0000000000000000e+00" itree="41">
      <Node pos="s" depth="0" NCoef="0" IVar="5" Cut="1.2680780887603760e-01" cType="1" res="-4.9945130012929440e-03" rms="4.3235504627227783e-01" purity="4.9369916319847107e-01" nType="0">
        <Node pos="l" depth="1" NCoef="0" IVar="10" Cut="2.8034185791015625e+02" cType="1" res="3.2569330185651779e-02" rms="4.2969340085983276e-01" purity="6.0608875751495361e-01" nType="0">
          <Node pos="l" depth="2" NCoef="0" IVar="-1" Cut="0.0000000000000000e+00" cType="1" res="-6.6620222060009837e-04" rms="4.4887635111808777e-01" purity="5.2786111831665039e-01" nType="-99"/>
          <Node pos="r" depth="2" NCoef="0" IVar="-1" Cut="0.0000000000000000e+00" cType="1" res="1.5590675175189972e-02" rms="4.0928450226783752e-01" purity="6.7574733495712280e-01" nType="-99"/>
        </Node>
        <Node pos="r" depth="1" NCoef="0" IVar="9" Cut="3.1428570747375488e+00" cType="1" res="-3.8060404360294342e-02" rms="4.3198981881141663e-01" purity="3.9476725459098816e-01" nType="0">
          <Node pos="l" depth="2" NCoef="0" IVar="-1" Cut="0.0000000000000000e+00" cType="1" res="-1.7546908929944038e-02" rms="4.0827730298042297e-01" purity="3.2829335331916809e-01" nType="-99"/>
          <Node pos="r" depth="2" NCoef="0" IVar="-1" Cut="0.0000000000000000e+00" cType="1" res="-1.2613605940714478e-03" rms="4.5148465037345886e-01" purity="4.5938786864280701e-01" nType="-99"/>
        </Node>
      </Node>
    </BinaryTree>
    <BinaryTree type="DecisionTree" boostWeight="1.0000000000000000e+00" itree="42">
      <Node pos="s" depth="0" NCoef="0" IVar="11" Cut="-5.5371171236038208e-01" cType="1" res="7.4484474025666714e-03" rms="4.3396952748298645e-01" purity="5.0711286067962646e-01" nType="0">
        <Node pos="l" depth="1" NCoef="0" IVar="-1" Cut="0.0000000000000000e+00" cType="1" res="-9.5801539719104767e-03" rms="4.4015520811080933e-01" purity="3.8657659292221069e-01" nType="-99"/>
        <Node pos="r" depth="1" NCoef="0" IVar="10" Cut="2.5455819702148438e+02" cType="1" res="2.7421060949563980e-02" rms="4.2981153726577759e-01" purity="5.5664646625518799e-01" nType="0">
          <Node pos="l" depth="2" NCoef="0" IVar="-1" Cut="0.0000000000000000e+00" cType="1" res="-3.1030359677970409e-03" rms="4.3527343869209290e-01" purity="4.6099495887756348e-01" nType="-99"/>
          <Node pos="r" depth="2" NCoef="0" IVar="8" Cut="9.0762875974178314e-02" cType="1" res="5.6643560528755188e-02" rms="4.2343130707740784e-01" purity="6.2557417154312134e-01" nType="0">
            <Node pos="l" depth="3" NCoef="0" IVar="-1" Cut="0.0000000000000000e+00" cType="1" res="2.0010400563478470e-02" rms="4.0786743164062500e-01" purity="7.1283501386642456e-01" nType="-99"/>
            <Node pos="r" depth="3" NCoef="0" IVar="-1" Cut="0.0000000000000000e+00" cType="1" res="5.4903263226151466e-03" rms="4.4179829955101013e-01" purity="5.0564932823181152e-01" nType="-99"/>
          </Node>
        </Node>
      </Node>
    </BinaryTree>
    <BinaryTree type="DecisionTree" boostWeight="1.0000000000000000e+00" itree="43">
      <Node pos="s" depth="0" NCoef="0" IVar="5" Cut="9.8542124032974243e-02" cType="1" res="3.6396380892256275e-05" rms="4.3074581027030945e-01" purity="5.0112378597259521e-01" nType="0">
        <Node pos="l" depth="1" NCoef="0" IVar="-1" Cut="0.0000000000000000e+00" cType="1" res="1.2220132164657116e-02" rms="4.1429200768470764e-01" purity="6.5608125925064087e-01" nType="-99"/>
        <Node pos="r" depth="1" NCoef="0" IVar="8" Cut="1.2960001826286316e-01" cType="1" res="-1.7582142725586891e-02" rms="4.3503868579864502e-01" purity="4.4643947482109070e-01" nType="0">
          <Node pos="l" depth="2" NCoef="0" IVar="2" Cut="7.7138090133666992e-01" cType="1" res="-6.1788904713466763e-04" rms="4.4220790266990662e-01" purity="5.0128906965255737e-01" nType="0">
            <Node pos="l" depth="3" NCoef="0" IVar="-1" Cut="0.0000000000000000e+00" cType="1" res="6.2788086943328381e-03" rms="4.3293741345405579e-01" purity="5.9947186708450317e-01" nType="-99"/>
            <Node pos="r" depth="3" NCoef="0" IVar="-1" Cut="0.0000000000000000e+00" cType="1" res="-5.5949254892766476e-03" rms="4.4875422120094299e-01" purity="4.1604948043823242e-01" nType="-99"/>
          </Node>
          <Node pos="r" depth="2" NCoef="0" IVar="-1" Cut="0.0000000000000000e+00" cType="1" res="-1.6613429412245750e-02" rms="4.0935677289962769e-01" purity="2.8609812259674072e-01" nType="-99"/>
        </Node>
      </Node>
    </BinaryTree>
    <BinaryTree type="DecisionTree" boostWeight="1.0000000000000000e+00" itree="44">
      <Node pos="s" depth="0" NCoef="0" IVar="7" Cut="1.0487010329961777e-01" cType="1" res="-2.6014386676251888e-03" rms="4.3142473697662354e-01" purity="4.9727052450180054e-01" nType="0">
        <Node pos="l" depth="1" NCoef="0" IVar="4" Cut="1.2085479497909546e-01" cType="1" res="1.2756108306348324e-02" rms="4.3688121438026428e-01" purity="5.6075221300125122e-01" nType="0">
          <Node pos="l" depth="2" NCoef="0" IVar="10" Cut="2.9032806396484375e+02" cType="1" res="2.7831658720970154e-02" rms="4.3223434686660767e-01" purity="6.0843211412429810e-01" nType="0">
            <Node pos="l" depth="3" NCoef="0" IVar="-1" Cut="0.0000000000000000e+00" cType="1" res="1.7457477515563369e-03" rms="4.4970440864562988e-01" purity="5.4648101329803467e-01" nType="-99"/>
            <Node pos="r" depth="3" NCoef="0" IVar="-1" Cut="0.0000000000000000e+00" cType="1" res="1.1972961947321892e-02" rms="4.1272550821304321e-01" purity="6.7131841182708740e-01" nType="-99"/>
          </Node>
          <Node pos="r" depth="2" NCoef="0" IVar="-1" Cut="0.0000000000000000e+00" cType="1" res="-7.4904104694724083e-03" rms="4.4752413034439087e-01" purity="4.1724652051925659e-01" nType="-99"/>
        </Node>
        <Node pos="r" depth="1" NCoef="0" IVar="-1" Cut="0.0000000000000000e+00" cType="1" res="-1.2420350685715675e-02" rms="4.1046664118766785e-01" purity="3.0087941884994507e-01" nType="-99"/>
      </Node>
    </BinaryTree>
    <BinaryTree type="DecisionTree" boostWeight="1.0000000000000000e+00" itree="45">
      <Node pos="s" depth="0" NCoef="0" IVar="11" Cut="2.6759395003318787e-01" cType="1" res="-9.1797480126842856e-04" rms="4.3010270595550537e-01" purity="4.9955332279205322e-01" nType="0">
        <Node pos="l" depth="1" NCoef="0" IVar="1" Cut="3.5002493858337402e+00" cType="1" res="-2.4304769933223724e-02" rms="4.3521279096603394e-01" purity="4.4271269440650940e-01" nType="0">
          <Node pos="l" depth="2" NCoef="0" IVar="4" Cut="9.0458944439888000e-02" cType="1" res="-1.7341159982606769e-03" rms="4.4899109005928040e-01" purity="4.5871889591217041e-01" nType="0">
            <Node pos="l" depth="3" NCoef="0" IVar="-1" Cut="0.0000000000000000e+00" cType="1" res="5.8274092152714729e-03" rms="4.4524097442626953e-01" purity="5.5558514595031738e-01" nType="-99"/>
            <Node pos="r" depth="3" NCoef="0" IVar="-1" Cut="0.0000000000000000e+00" cType="1" res="-5.6616864167153835e-03" rms="4.5091173052787781e-01" purity="3.7691095471382141e-01" nType="-99"/>
          </Node>
          <Node pos="r" depth="2" NCoef="0" IVar="-1" Cut="0.0000000000000000e+00" cType="1" res="-1.3964340090751648e-02" rms="4.1202950477600098e-01" purity="4.1931501030921936e-01" nType="-99"/>
        </Node>
        <Node pos="r" depth="1" NCoef="0" IVar="1" Cut="4.2234487533569336e+00" cType="1" res="3.1714215874671936e-02" rms="4.2070224881172180e-01" purity="5.7886457443237305e-01" nType="0">
          <Node pos="l" depth="2" NCoef="0" IVar="-1" Cut="0.0000000000000000e+00" cType="1" res="1.7067149281501770e-02" rms="4.2156308889389038e-01" purity="6.0261619091033936e-01" nType="-99"/>
          <Node pos="r" depth="2" NCoef="0" IVar="-1" Cut="0.0000000000000000e+00" cType="1" res="3.0835758661851287e-04" rms="4.1751313209533691e-01" purity="5.6006485223770142e-01" nType="-99"/>
        </Node>
      </Node>
    </BinaryTree>
    <BinaryTree type="DecisionTree" boostWeight="1.0000000000000000e+00" itree="46">
      <Node pos="s" depth="0" NCoef="0" IVar="4" Cut="1.4360390603542328e-01" cType="1" res="1.9508094992488623e-03" rms="4.3011984229087830e-01" purity="5.0415986776351929e-01" nType="0">
        <Node pos="l" depth="1" NCoef="0" IVar="11" Cut="-8.3309113979339600e-01" cType="1" res="1.3000921346247196e-02" rms="4.3062469363212585e-01" purity="5.3484880924224854e-01" nType="0">
          <Node pos="l" depth="2" NCoef="0" IVar="-1" Cut="0.0000000000000000e+00" cType="1" res="-8.0278813838958740e-03" rms="4.4012820720672607e-01" purity="3.9087805151939392e-01" nType="-99"/>
          <Node pos="r" depth="2" NCoef="0" IVar="10" Cut="2.7499319458007812e+02" cType="1" res="2.5377202779054642e-02" rms="4.2723345756530762e-01" purity="5.7264757156372070e-01" nType="0">
            <Node pos="l" depth="3" NCoef="0" IVar="-1" Cut="0.0000000000000000e+00" cType="1" res="-2.7170751709491014e-03" rms="4.3510627746582031e-01" purity="4.8242154717445374e-01" nType="-99"/>
            <Node pos="r" depth="3" NCoef="0" IVar="5" Cut="1.3195186853408813e-01" cType="1" res="6.0619637370109558e-02" rms="4.1653364896774292e-01" purity="6.5884733200073242e-01" nType="0">
              <Node pos="l" depth="4" NCoef="0" IVar="-1" Cut="0.0000000000000000e+00" cType="1" res="1.8008854240179062e-02" rms="3.9340218901634216e-01" purity="7.3201370239257812e-01" nType="-99"/>
              <Node pos="r" depth="4" NCoef="0" IVar="-1" Cut="0.0000000000000000e+00" cType="1" res="1.1289205402135849e-02" rms="4.4471490383148193e-01" purity="5.6307607889175415e-01" nType="-99"/>
            </Node>
          </Node>
        </Node>
        <Node pos="r" depth="1" NCoef="0" IVar="-1" Cut="0.0000000000000000e+00" cType="1" res="-1.4821088872849941e-02" rms="4.2162907123565674e-01" purity="3.2779043912887573e-01" nType="-99"/>
      </Node>
    </BinaryTree>
    <BinaryTree type="DecisionTree" boostWeight="1.0000000000000000e+00" itree="47">
      <Node pos="s" depth="0" NCoef="0" IVar="4" Cut="1.3347846269607544e-01" cType="1" res="6.1206812970340252e-03" rms="4.3084233999252319e-01" purity="5.0567352771759033e-01" nType="0">
        <Node pos="l" depth="1" NCoef="0" IVar="0" Cut="9.0468811035156250e+02" cType="1" res="1.6918508335947990e-02" rms="4.3134361505508423e-01" purity="5.4239928722381592e-01" nType="0">
          <Node pos="l" depth="2" NCoef="0" IVar="1" Cut="3.8581030368804932e+00" cType="1" res="4.2897998355329037e-03" rms="4.4570314884185791e-01" purity="4.6442753076553345e-01" nType="0">
            <Node pos="l" depth="3" NCoef="0" IVar="11" Cut="-3.5900324583053589e-01" cType="1" res="2.8213746845722198e-02" rms="4.5294642448425293e-01" purity="5.0413388013839722e-01" nType="0">
              <Node pos="l" depth="4" NCoef="0" IVar="-1" Cut="0.0000000000000000e+00" cType="1" res="-6.4839253900572658e-04" rms="4.5343714952468872e-01" purity="4.3105170130729675e-01" nType="-99"/>
              <Node pos="r" depth="4" NCoef="0" IVar="-1" Cut="0.0000000000000000e+00" cType="1" res="1.3288031332194805e-02" rms="4.5059871673583984e-01" purity="5.7161915302276611e-01" nType="-99"/>
            </Node>
            <Node pos="r" depth="3" NCoef="0" IVar="-1" Cut="0.0000000000000000e+00" cType="1" res="-1.0529344901442528e-02" rms="4.2647361755371094e-01" purity="3.8366568088531494e-01" nType="-99"/>
          </Node>
          <Node pos="r" depth="2" NCoef="0" IVar="-1" Cut="0.0000000000000000e+00" cType="1" res="1.4346134848892689e-02" rms="3.8424000144004822e-01" purity="7.6903432607650757e-01" nType="-99"/>
        </Node>
        <Node pos="r" depth="1" NCoef="0" IVar="-1" Cut="0.0000000000000000e+00" cType="1" res="-9.6265263855457306e-03" rms="4.2565423250198364e-01" purity="3.4946531057357788e-01" nType="-99"/>
      </Node>
    </BinaryTree>
    <BinaryTree type="DecisionTree" boostWeight="1.0000000000000000e+00" itree="48">
      <Node pos="s" depth="0" NCoef="0" IVar="2" Cut="7.7142322063446045e-01" cType="1" res="-6.6672880202531815e-03" rms="4.2989441752433777e-01" purity="4.9237114191055298e-01" nType="0">
        <Node pos="l" depth="1" NCoef="0" IVar="3" Cut="2.9616781234741211e+01" cType="1" res="1.9801953807473183e-02" rms="4.2409157752990723e-01" purity="5.9408915042877197e-01" nType="0">
          <Node pos="l" depth="2" NCoef="0" IVar="-1" Cut="0.0000000000000000e+00" cType="1" res="-4.9503557384014130e-03" rms="4.3994075059890747e-01" purity="4.7554734349250793e-01" nType="-99"/>
          <Node pos="r" depth="2" NCoef="0" IVar="-1" Cut="0.0000000000000000e+00" cType="1" res="1.0464172810316086e-02" rms="4.1343086957931519e-01" purity="6.5919733047485352e-01" nType="-99"/>
        </Node>
        <Node pos="r" depth="1" NCoef="0" IVar="1" Cut="3.7601151466369629e+00" cType="1" res="-3.0713757500052452e-02" rms="4.3370088934898376e-01" purity="3.9996355772018433e-01" nType="0">
          <Node pos="l" depth="2" NCoef="0" IVar="-1" Cut="0.0000000000000000e+00" cType="1" res="-8.4303691983222961e-04" rms="4.4774317741394043e-01" purity="4.1188773512840271e-01" nType="-99"/>
          <Node pos="r" depth="2" NCoef="0" IVar="-1" Cut="0.0000000000000000e+00" cType="1" res="-1.4609383419156075e-02" rms="4.1574957966804504e-01" purity="3.8690248131752014e-01" nType="-99"/>
        </Node>
      </Node>
    </BinaryTree>
    <BinaryTree type="DecisionTree" boostWeight="1.0000000000000000e+00" itree="49">
      <Node pos="s" depth="0" NCoef="0" IVar="1" Cut="4.5949401855468750e+00" cType="1" res="-4.2124427855014801e-03" rms="4.2986345291137695e-01" purity="4.9588856101036072e-01" nType="0">
        <Node pos="l" depth="1" NCoef="0" IVar="0" Cut="3.6202621459960938e+02" cType="1" res="1.2491776607930660e-02" rms="4.3292984366416931e-01" purity="4.9834308028221130e-01" nType="0">
          <Node pos="l" depth="2" NCoef="0" IVar="8" Cut="1.0614937543869019e-01" cType="1" res="-2.2006107494235039e-02" rms="4.3926399946212769e-01" purity="3.4942463040351868e-01" nType="0">
            <Node pos="l" depth="3" NCoef="0" IVar="-1" Cut="0.0000000000000000e+00" cType="1" res="2.4964474141597748e-04" rms="4.5903012156486511e-01" purity="4.2612650990486145e-01" nType="-99"/>
            <Node pos="r" depth="3" NCoef="0" IVar="-1" Cut="0.0000000000000000e+00" cType="1" res="-1.1055149137973785e-02" rms="4.1852232813835144e-01" purity="2.7681651711463928e-01" nType="-99"/>
          </Node>
          <Node pos="r" depth="2" NCoef="0" IVar="11" Cut="-8.7597168982028961e-02" cType="1" res="4.4532489031553268e-02" rms="4.2445868253707886e-01" purity="6.3665455579757690e-01" nType="0">
            <Node pos="l" depth="3" NCoef="0" IVar="-1" Cut="0.0000000000000000e+00" cType="1" res="2.4888387415558100e-03" rms="4.4453361630439758e-01" purity="5.6579196453094482e-01" nType="-99"/>
            <Node pos="r" depth="3" NCoef="0" IVar="-1" Cut="0.0000000000000000e+00" cType="1" res="1.9037252292037010e-02" rms="4.0316945314407349e-01" purity="7.0028388500213623e-01" nType="-99"/>
          </Node>
        </Node>
        <Node pos="r" depth="1" NCoef="0" IVar="-1" Cut="0.0000000000000000e+00" cType="1" res="-1.1341117322444916e-02" rms="4.1911360621452332e-01" purity="4.8971217870712280e-01" nType="-99"/>
      </Node>
    </BinaryTree>
    <BinaryTree type="DecisionTree" boostWeight="1.0000000000000000e+00" itree="50">
      <Node pos="s" depth="0" NCoef="0" IVar="0" Cut="1.0806920166015625e+03" cType="1" res="8.5952719673514366e-03" rms="4.3072384595870972e-01" purity="5.0710004568099976e-01" nType="0">
        <Node pos="l" depth="1" NCoef="0" IVar="1" Cut="4.0732798576354980e+00" cType="1" res="-4.1458248160779476e-03" rms="4.3881505727767944e-01" purity="4.4928210973739624e-01" nType="0">
          <Node pos="l" depth="2" NCoef="0" IVar="11" Cut="-3.2342046499252319e-01" cType="1" res="1.4647562056779861e-02" rms="4.4424623250961304e-01" purity="4.7694182395935059e-01" nType="0">
            <Node pos="l" depth="3" NCoef="0" IVar="-1" Cut="0.0000000000000000e+00" cType="1" res="-3.2918993383646011e-03" rms="4.4433909654617310e-01" purity="4.0154659748077393e-01" nType="-99"/>
            <Node pos="r" depth="3" NCoef="0" IVar="-1" Cut="0.0000000000000000e+00" cType="1" res="1.0116131976246834e-02" rms="4.4237574934959412e-01" purity="5.5031180381774902e-01" nType="-99"/>
          </Node>
          <Node pos="r" depth="2" NCoef="0" IVar="-1" Cut="0.0000000000000000e+00" cType="1" res="-1.1700089089572430e-02" rms="4.2247724533081055e-01" purity="3.8419887423515320e-01" nType="-99"/>
        </Node>
        <Node pos="r" depth="1" NCoef="0" IVar="-1" Cut="0.0000000000000000e+00" cType="1" res="1.7216522246599197e-02" rms="3.8742581009864807e-01" purity="7.6558506488800049e-01" nType="-99"/>
      </Node>
    </BinaryTree>
    <BinaryTree type="DecisionTree" boostWeight="1.0000000000000000e+00" itree="51">
      <Node pos="s" depth="0" NCoef="0" IVar="9" Cut="3.4285714626312256e+00" cType="1" res="7.5809733243659139e-04" rms="4.2940855026245117e-01" purity="5.0241130590438843e-01" nType="0">
        <Node pos="l" depth="1" NCoef="0" IVar="3" Cut="2.9265884399414062e+01" cType="1" res="-2.7628405019640923e-02" rms="4.1394057869911194e-01" purity="4.3529832363128662e-01" nType="0">
          <Node pos="l" depth="2" NCoef="0" IVar="-1" Cut="0.0000000000000000e+00" cType="1" res="-1.3843425549566746e-02" rms="4.0631985664367676e-01" purity="3.2848367094993591e-01" nType="-99"/>
          <Node pos="r" depth="2" NCoef="0" IVar="-1" Cut="0.0000000000000000e+00" cType="1" res="1.2223023804835975e-04" rms="4.1988784074783325e-01" purity="5.4652935266494751e-01" nType="-99"/>
        </Node>
        <Node pos="r" depth="1" NCoef="0" IVar="11" Cut="-2.1564544737339020e-01" cType="1" res="2.3479169234633446e-02" rms="4.4008162617683411e-01" purity="5.5612981319427490e-01" nType="0">
          <Node pos="l" depth="2" NCoef="0" IVar="-1" Cut="0.0000000000000000e+00" cType="1" res="-1.5471238875761628e-03" rms="4.4980192184448242e-01" purity="4.6269357204437256e-01" nType="-99"/>
          <Node pos="r" depth="2" NCoef="0" IVar="-1" Cut="0.0000000000000000e+00" cType="1" res="1.1767903342843056e-02" rms="4.3037876486778259e-01" purity="6.3270473480224609e-01" nType="-99"/>
        </Node>
      </Node>
    </BinaryTree>
    <BinaryTree type="DecisionTree" boostWeight="1.0000000000000000e+00" itree="52">
      <Node pos="s" depth="0" NCoef="0" IVar="3" Cut="3.8219058990478516e+01" cType="1" res="-1.9020960899069905e-03" rms="4.2952281236648560e-01" purity="4.9580520391464233e-01" nType="0">
        <Node pos="l" depth="1" NCoef="0" IVar="9" Cut="3.3333332538604736e+00" cType="1" res="-1.6070930287241936e-02" rms="4.3329280614852905e-01" purity="4.2453500628471375e-01" nType="0">
          <Node pos="l" depth="2" NCoef="0" IVar="-1" Cut="0.0000000000000000e+00" cType="1" res="-1.0104958899319172e-02" rms="4.0689340233802795e-01" purity="3.6730641126632690e-01" nType="-99"/>
          <Node pos="r" depth="2" NCoef="0" IVar="5" Cut="1.2695474922657013e-01" cType="1" res="6.7232083529233932e-03" rms="4.5566487312316895e-01" purity="4.7860780358314514e-01" nType="0">
            <Node pos="l" depth="3" NCoef="0" IVar="-1" Cut="0.0000000000000000e+00" cType="1" res="-1.7018517246469855e-03" rms="4.5178100466728210e-01" purity="5.1607334613800049e-01" nType="-99"/>
            <Node pos="r" depth="3" NCoef="0" IVar="-1" Cut="0.0000000000000000e+00" cType="1" res="3.9164926856756210e-03" rms="4.5817208290100098e-01" purity="4.5164978504180908e-01" nType="-99"/>
          </Node>
        </Node>
        <Node pos="r" depth="1" NCoef="0" IVar="-1" Cut="0.0000000000000000e+00" cType="1" res="8.5167838260531425e-03" rms="4.1771507263183594e-01" purity="6.7582339048385620e-01" nType="-99"/>
      </Node>
    </BinaryTree>
    <BinaryTree type="DecisionTree" boostWeight="1.0000000000000000e+00" itree="53">
      <Node pos="s" depth="0" NCoef="0" IVar="10" Cut="4.2021743774414062e+02" cType="1" res="2.0055554341524839e-03" rms="4.2814674973487854e-01" purity="5.0094574689865112e-01" nType="0">
        <Node pos="l" depth="1" NCoef="0" IVar="1" Cut="4.5949401855468750e+00" cType="1" res="-1.0348384268581867e-02" rms="4.3235522508621216e-01" purity="4.6785515546798706e-01" nType="0">
          <Node pos="l" depth="2" NCoef="0" IVar="0" Cut="3.2937194824218750e+02" cType="1" res="3.6881896667182446e-03" rms="4.3451008200645447e-01" purity="4.7093090415000916e-01" nType="0">
            <Node pos="l" depth="3" NCoef="0" IVar="-1" Cut="0.0000000000000000e+00" cType="1" res="-5.8559812605381012e-03" rms="4.3694663047790527e-01" purity="3.3201166987419128e-01" nType="-99"/>
            <Node pos="r" depth="3" NCoef="0" IVar="4" Cut="8.9587673544883728e-02" cType="1" res="2.6640025898814201e-02" rms="4.3113908171653748e-01" purity="5.8564209938049316e-01" nType="0">
              <Node pos="l" depth="4" NCoef="0" IVar="-1" Cut="0.0000000000000000e+00" cType="1" res="1.2628807686269283e-02" rms="4.1264519095420837e-01" purity="6.8146342039108276e-01" nType="-99"/>
              <Node pos="r" depth="4" NCoef="0" IVar="-1" Cut="0.0000000000000000e+00" cType="1" res="8.5548131028190255e-04" rms="4.4718489050865173e-01" purity="4.9253278970718384e-01" nType="-99"/>
            </Node>
          </Node>
          <Node pos="r" depth="2" NCoef="0" IVar="-1" Cut="0.0000000000000000e+00" cType="1" res="-1.1879034340381622e-02" rms="4.2399677634239197e-01" purity="4.5940765738487244e-01" nType="-99"/>
        </Node>
        <Node pos="r" depth="1" NCoef="0" IVar="-1" Cut="0.0000000000000000e+00" cType="1" res="1.4808499254286289e-02" rms="4.0345081686973572e-01" purity="6.5282428264617920e-01" nType="-99"/>
      </Node>
    </BinaryTree>
    <BinaryTree type="DecisionTree" boostWeight="1.0000000000000000e+00" itree="54">
      <Node pos="s" depth="0" NCoef="0" IVar="7" Cut="1.2029966711997986e-01" cType="1" res="-2.7079363353550434e-03" rms="4.2630580067634583e-01" purity="4.9956980347633362e-01" nType="0">
        <Node pos="l" depth="1" NCoef="0" IVar="3" Cut="2.9109567642211914e+01" cType="1" res="9.0323640033602715e-03" rms="4.3069863319396973e-01" purity="5.4586488008499146e-01" nType="0">
          <Node pos="l" depth="2" NCoef="0" IVar="3" Cut="2.3903709411621094e+01" cType="1" res="-1.8353508785367012e-02" rms="4.3744561076164246e-01" purity="4.2465797066688538e-01" nType="0">
            <Node pos="l" depth="3" NCoef="0" IVar="-1" Cut="0.0000000000000000e+00" cType="1" res="-1.1142202652990818e-02" rms="4.3103510141372681e-01" purity="3.7622699141502380e-01" nType="-99"/>
            <Node pos="r" depth="3" NCoef="0" IVar="-1" Cut="0.0000000000000000e+00" cType="1" res="1.8574435962364078e-03" rms="4.4174870848655701e-01" purity="4.6996790170669556e-01" nType="-99"/>
          </Node>
          <Node pos="r" depth="2" NCoef="0" IVar="5" Cut="1.0617425292730331e-01" cType="1" res="3.0336041003465652e-02" rms="4.2415511608123779e-01" purity="6.4015263319015503e-01" nType="0">
            <Node pos="l" depth="3" NCoef="0" IVar="-1" Cut="0.0000000000000000e+00" cType="1" res="1.4105073176324368e-02" rms="3.9595758914947510e-01" purity="7.3130238056182861e-01" nType="-99"/>
            <Node pos="r" depth="3" NCoef="0" IVar="-1" Cut="0.0000000000000000e+00" cType="1" res="2.8212342876940966e-03" rms="4.4432362914085388e-01" purity="5.6810379028320312e-01" nType="-99"/>
          </Node>
        </Node>
        <Node pos="r" depth="1" NCoef="0" IVar="-1" Cut="0.0000000000000000e+00" cType="1" res="-1.4556362293660641e-02" rms="4.0077081322669983e-01" purity="2.8436526656150818e-01" nType="-99"/>
      </Node>
    </BinaryTree>
    <BinaryTree type="DecisionTree" boostWeight="1.0000000000000000e+00" itree="55">
      <Node pos="s" depth="0" NCoef="0" IVar="5" Cut="1.6876816749572754e-01" cType="1" res="5.8004204183816910e-03" rms="4.2892715334892273e-01" purity="5.0744998455047607e-01" nType="0">
        <Node pos="l" depth="1" NCoef="0" IVar="2" Cut="5.0739800930023193e-01" cType="1" res="1.6713229939341545e-02" rms="4.3002560734748840e-01" purity="5.4997915029525757e-01" nType="0">
          <Node pos="l" depth="2" NCoef="0" IVar="-1" Cut="0.0000000000000000e+00" cType="1" res="1.1868142522871494e-02" rms="4.0949147939682007e-01" purity="6.5680992603302002e-01" nType="-99"/>
          <Node pos="r" depth="2" NCoef="0" IVar="3" Cut="2.6553977966308594e+01" cType="1" res="9.5332873752340674e-04" rms="4.3963319063186646e-01" purity="4.9373748898506165e-01" nType="0">
            <Node pos="l" depth="3" NCoef="0" IVar="-1" Cut="0.0000000000000000e+00" cType="1" res="-7.1822572499513626e-03" rms="4.3515256047248840e-01" purity="3.6705929040908813e-01" nType="-99"/>
