<?xml version="1.0"?>
<MethodSetup Method="BDT::BDT">
  <GeneralInfo>
    <Info name="TMVA Release" value="4.2.1 [262657]"/>
    <Info name="ROOT Release" value="6.18/04 [397828]"/>
    <Info name="Creator" value="mfujimot"/>
    <Info name="Date" value="Thu Apr  9 07:23:53 2020"/>
    <Info name="Host" value="Linux buildvm-28.phx2.fedoraproject.org 5.0.6-200.fc29.x86_64 #1 SMP Wed Apr 3 15:09:51 UTC 2019 x86_64 x86_64 x86_64 GNU/Linux"/>
    <Info name="Dir" value="/afs/cern.ch/work/m/mfujimot/public/VBS/macro/testTMVA"/>
    <Info name="Training events" value="220334"/>
    <Info name="TrainingTime" value="1.00627957e+02"/>
    <Info name="AnalysisType" value="Classification"/>
  </GeneralInfo>
  <Options>
    <Option name="V" modified="Yes">False</Option>
    <Option name="VerbosityLevel" modified="No">Default</Option>
    <Option name="VarTransform" modified="No">None</Option>
    <Option name="H" modified="No">False</Option>
    <Option name="CreateMVAPdfs" modified="No">False</Option>
    <Option name="IgnoreNegWeightsInTraining" modified="Yes">True</Option>
    <Option name="NTrees" modified="Yes">400</Option>
    <Option name="MaxDepth" modified="Yes">4</Option>
    <Option name="MinNodeSize" modified="Yes">15%</Option>
    <Option name="nCuts" modified="Yes">20</Option>
    <Option name="BoostType" modified="Yes">Grad</Option>
    <Option name="AdaBoostR2Loss" modified="No">quadratic</Option>
    <Option name="UseBaggedBoost" modified="Yes">True</Option>
    <Option name="Shrinkage" modified="Yes">1.000000e-01</Option>
    <Option name="AdaBoostBeta" modified="No">5.000000e-01</Option>
    <Option name="UseRandomisedTrees" modified="No">False</Option>
    <Option name="UseNvars" modified="No">4</Option>
    <Option name="UsePoissonNvars" modified="No">True</Option>
    <Option name="BaggedSampleFraction" modified="Yes">5.000000e-01</Option>
    <Option name="UseYesNoLeaf" modified="No">True</Option>
    <Option name="NegWeightTreatment" modified="No">pray</Option>
    <Option name="Css" modified="No">1.000000e+00</Option>
    <Option name="Cts_sb" modified="No">1.000000e+00</Option>
    <Option name="Ctb_ss" modified="No">1.000000e+00</Option>
    <Option name="Cbb" modified="No">1.000000e+00</Option>
    <Option name="NodePurityLimit" modified="No">5.000000e-01</Option>
    <Option name="SeparationType" modified="Yes">giniindex</Option>
    <Option name="RegressionLossFunctionBDTG" modified="No">huber</Option>
    <Option name="HuberQuantile" modified="No">7.000000e-01</Option>
    <Option name="DoBoostMonitor" modified="No">False</Option>
    <Option name="UseFisherCuts" modified="No">False</Option>
    <Option name="MinLinCorrForFisher" modified="No">8.000000e-01</Option>
    <Option name="UseExclusiveVars" modified="No">False</Option>
    <Option name="DoPreselection" modified="No">False</Option>
    <Option name="SigToBkgFraction" modified="No">1.000000e+00</Option>
    <Option name="PruneMethod" modified="No">nopruning</Option>
    <Option name="PruneStrength" modified="No">0.000000e+00</Option>
    <Option name="PruningValFraction" modified="No">5.000000e-01</Option>
    <Option name="SkipNormalization" modified="No">False</Option>
    <Option name="nEventsMin" modified="No">0</Option>
    <Option name="UseBaggedGrad" modified="No">False</Option>
    <Option name="GradBaggingFraction" modified="No">5.000000e-01</Option>
    <Option name="UseNTrainEvents" modified="No">0</Option>
    <Option name="NNodesMax" modified="No">0</Option>
  </Options>
  <Variables NVar="15">
    <Variable VarIndex="0" Expression="MTagResJets" Label="MTagResJets" Title="MTagResJets" Unit="" Internal="MTagResJets" Type="F" Min="4.00000885e+02" Max="1.04611299e+04"/>
    <Variable VarIndex="1" Expression="DeltaEtaTagResJets" Label="DeltaEtaTagResJets" Title="DeltaEtaTagResJets" Unit="" Internal="DeltaEtaTagResJets" Type="F" Min="1.22026270e-02" Max="8.88201904e+00"/>
    <Variable VarIndex="2" Expression="DeltaEtaSignalJets" Label="DeltaEtaSignalJets" Title="DeltaEtaSignalJets" Unit="" Internal="DeltaEtaSignalJets" Type="F" Min="9.53674316e-07" Max="2.66262913e+00"/>
    <Variable VarIndex="3" Expression="PtSignalJet2" Label="PtSignalJet2" Title="PtSignalJet2" Unit="" Internal="PtSignalJet2" Type="F" Min="2.00002632e+01" Max="2.34972519e+02"/>
    <Variable VarIndex="4" Expression="WidthSignalJet1" Label="WidthSignalJet1" Title="WidthSignalJet1" Unit="" Internal="WidthSignalJet1" Type="F" Min="1.54531299e-04" Max="2.94943720e-01"/>
    <Variable VarIndex="5" Expression="WidthSignalJet2" Label="WidthSignalJet2" Title="WidthSignalJet2" Unit="" Internal="WidthSignalJet2" Type="F" Min="1.12688853e-04" Max="2.82257408e-01"/>
    <Variable VarIndex="6" Expression="PtTagResJet2" Label="PtTagResJet2" Title="PtTagResJet2" Unit="" Internal="PtTagResJet2" Type="F" Min="3.00002136e+01" Max="2.15446118e+03"/>
    <Variable VarIndex="7" Expression="WidthTagResJet1" Label="WidthTagResJet1" Title="WidthTagResJet1" Unit="" Internal="WidthTagResJet1" Type="F" Min="1.91313942e-04" Max="2.74878442e-01"/>
    <Variable VarIndex="8" Expression="WidthTagResJet2" Label="WidthTagResJet2" Title="WidthTagResJet2" Unit="" Internal="WidthTagResJet2" Type="F" Min="8.30039135e-05" Max="2.82955140e-01"/>
    <Variable VarIndex="9" Expression="Mlljj" Label="Mlljj" Title="Mlljj" Unit="" Internal="Mlljj" Type="F" Min="1.52702805e+02" Max="3.66281714e+03"/>
    <Variable VarIndex="10" Expression="xiVRes" Label="xiVRes" Title="xiVRes" Unit="" Internal="xiVRes" Type="F" Min="-6.41192579e+00" Max="3.98940969e+00"/>
    <Variable VarIndex="11" Expression="NTrackJets" Label="NTrackJets" Title="NTrackJets" Unit="" Internal="NTrackJets" Type="I" Min="0.00000000e+00" Max="1.60000000e+01"/>
    <Variable VarIndex="12" Expression="NumTrkPt500SigJet1" Label="NumTrkPt500SigJet1" Title="NumTrkPt500SigJet1" Unit="" Internal="NumTrkPt500SigJet1" Type="I" Min="0.00000000e+00" Max="4.30000000e+01"/>
    <Variable VarIndex="13" Expression="NumTrkPt500TagResJet1" Label="NumTrkPt500TagResJet1" Title="NumTrkPt500TagResJet1" Unit="" Internal="NumTrkPt500TagResJet1" Type="I" Min="0.00000000e+00" Max="6.80000000e+01"/>
    <Variable VarIndex="14" Expression="NumTrkPt500TagResJet2" Label="NumTrkPt500TagResJet2" Title="NumTrkPt500TagResJet2" Unit="" Internal="NumTrkPt500TagResJet2" Type="I" Min="0.00000000e+00" Max="6.30000000e+01"/>
  </Variables>
  <Spectators NSpec="0"/>
  <Classes NClass="2">
    <Class Name="Signal" Index="0"/>
    <Class Name="Background" Index="1"/>
  </Classes>
  <Transformations NTransformations="0"/>
  <MVAPdfs/>
  <Weights NTrees="400" AnalysisType="1">
    <BinaryTree type="DecisionTree" boostWeight="1.0000000000000000e+00" itree="0">
      <Node pos="s" depth="0" NCoef="0" IVar="3" Cut="4.0366321563720703e+01" cType="1" res="5.9155900962650776e-03" rms="4.9996501207351685e-01" purity="5.0591558218002319e-01" nType="0">
        <Node pos="l" depth="1" NCoef="0" IVar="7" Cut="7.6279416680335999e-02" cType="1" res="-1.0873849689960480e-01" rms="4.8803272843360901e-01" purity="3.9126151800155640e-01" nType="0">
          <Node pos="l" depth="2" NCoef="0" IVar="2" Cut="8.6884790658950806e-01" cType="1" res="-1.9412359222769737e-02" rms="4.9962303042411804e-01" purity="4.8058766126632690e-01" nType="0">
            <Node pos="l" depth="3" NCoef="0" IVar="-1" Cut="0.0000000000000000e+00" cType="1" res="1.6559505835175514e-02" rms="4.9309691786766052e-01" purity="5.8279752731323242e-01" nType="-99"/>
            <Node pos="r" depth="3" NCoef="0" IVar="-1" Cut="0.0000000000000000e+00" cType="1" res="-2.5356344878673553e-02" rms="4.8365938663482666e-01" purity="3.7321829795837402e-01" nType="-99"/>
          </Node>
          <Node pos="r" depth="2" NCoef="0" IVar="-1" Cut="0.0000000000000000e+00" cType="1" res="-4.9615994095802307e-02" rms="4.3411555886268616e-01" purity="2.5192001461982727e-01" nType="-99"/>
        </Node>
        <Node pos="r" depth="1" NCoef="0" IVar="0" Cut="8.7910229492187500e+02" cType="1" res="1.6685219109058380e-01" rms="4.7133889794349670e-01" purity="6.6685217618942261e-01" nType="0">
          <Node pos="l" depth="2" NCoef="0" IVar="-1" Cut="0.0000000000000000e+00" cType="1" res="1.3207266107201576e-02" rms="4.9562001228332520e-01" purity="5.6603634357452393e-01" nType="-99"/>
          <Node pos="r" depth="2" NCoef="0" IVar="-1" Cut="0.0000000000000000e+00" cType="1" res="5.3082518279552460e-02" rms="4.2374065518379211e-01" purity="7.6541256904602051e-01" nType="-99"/>
        </Node>
      </Node>
    </BinaryTree>
    <BinaryTree type="DecisionTree" boostWeight="1.0000000000000000e+00" itree="1">
      <Node pos="s" depth="0" NCoef="0" IVar="3" Cut="4.0366569519042969e+01" cType="1" res="-2.1772745822090656e-04" rms="4.9342355132102966e-01" purity="5.0041657686233521e-01" nType="0">
        <Node pos="l" depth="1" NCoef="0" IVar="7" Cut="6.5637409687042236e-02" cType="1" res="-1.0995402187108994e-01" rms="4.8150670528411865e-01" purity="3.7908196449279785e-01" nType="0">
          <Node pos="l" depth="2" NCoef="0" IVar="-1" Cut="0.0000000000000000e+00" cType="1" res="-3.1797499395906925e-03" rms="4.9732035398483276e-01" purity="4.8220354318618774e-01" nType="-99"/>
          <Node pos="r" depth="2" NCoef="0" IVar="-1" Cut="0.0000000000000000e+00" cType="1" res="-4.2539410293102264e-02" rms="4.4150686264038086e-01" purity="2.6693397760391235e-01" nType="-99"/>
        </Node>
        <Node pos="r" depth="1" NCoef="0" IVar="4" Cut="8.5149563848972321e-02" cType="1" res="1.5151098370552063e-01" rms="4.6889123320579529e-01" purity="6.6818183660507202e-01" nType="0">
          <Node pos="l" depth="2" NCoef="0" IVar="-1" Cut="0.0000000000000000e+00" cType="1" res="4.7610942274332047e-02" rms="4.2810893058776855e-01" purity="7.5505763292312622e-01" nType="-99"/>
          <Node pos="r" depth="2" NCoef="0" IVar="-1" Cut="0.0000000000000000e+00" cType="1" res="7.9861758276820183e-03" rms="4.9515110254287720e-01" purity="5.5562180280685425e-01" nType="-99"/>
        </Node>
      </Node>
    </BinaryTree>
    <BinaryTree type="DecisionTree" boostWeight="1.0000000000000000e+00" itree="2">
      <Node pos="s" depth="0" NCoef="0" IVar="2" Cut="1.0031554698944092e+00" cType="1" res="8.4345467621460557e-04" rms="4.8836454749107361e-01" purity="5.0141805410385132e-01" nType="0">
        <Node pos="l" depth="1" NCoef="0" IVar="5" Cut="1.1914895474910736e-01" cType="1" res="7.9928427934646606e-02" rms="4.8213768005371094e-01" purity="5.8901232481002808e-01" nType="0">
          <Node pos="l" depth="2" NCoef="0" IVar="0" Cut="7.8966326904296875e+02" cType="1" res="1.8050228059291840e-01" rms="4.5087164640426636e-01" purity="6.9843250513076782e-01" nType="0">
            <Node pos="l" depth="3" NCoef="0" IVar="-1" Cut="0.0000000000000000e+00" cType="1" res="1.5525192953646183e-02" rms="4.8641401529312134e-01" purity="5.8363300561904907e-01" nType="-99"/>
            <Node pos="r" depth="3" NCoef="0" IVar="-1" Cut="0.0000000000000000e+00" cType="1" res="5.2376065403223038e-02" rms="4.0360972285270691e-01" purity="7.8729754686355591e-01" nType="-99"/>
          </Node>
          <Node pos="r" depth="2" NCoef="0" IVar="3" Cut="3.4300045013427734e+01" cType="1" res="-4.5466121286153793e-02" rms="4.9040016531944275e-01" purity="4.5258823037147522e-01" nType="0">
            <Node pos="l" depth="3" NCoef="0" IVar="-1" Cut="0.0000000000000000e+00" cType="1" res="-1.7999000847339630e-02" rms="4.8237249255180359e-01" purity="3.9309430122375488e-01" nType="-99"/>
            <Node pos="r" depth="3" NCoef="0" IVar="-1" Cut="0.0000000000000000e+00" cType="1" res="-2.7196807786822319e-04" rms="4.9435541033744812e-01" purity="5.1194542646408081e-01" nType="-99"/>
          </Node>
        </Node>
        <Node pos="r" depth="1" NCoef="0" IVar="-1" Cut="0.0000000000000000e+00" cType="1" res="-3.4747850149869919e-02" rms="4.5586544275283813e-01" purity="3.0886733531951904e-01" nType="-99"/>
      </Node>
    </BinaryTree>
    <BinaryTree type="DecisionTree" boostWeight="1.0000000000000000e+00" itree="3">
      <Node pos="s" depth="0" NCoef="0" IVar="3" Cut="5.0550056457519531e+01" cType="1" res="-5.9947720728814602e-03" rms="4.8334577679634094e-01" purity="4.9471068382263184e-01" nType="0">
        <Node pos="l" depth="1" NCoef="0" IVar="0" Cut="7.9046258544921875e+02" cType="1" res="-6.8224176764488220e-02" rms="4.8170435428619385e-01" purity="4.1729795932769775e-01" nType="0">
          <Node pos="l" depth="2" NCoef="0" IVar="6" Cut="5.4404327392578125e+01" cType="1" res="-1.5239526331424713e-01" rms="4.5965975522994995e-01" purity="3.2375508546829224e-01" nType="0">
            <Node pos="l" depth="3" NCoef="0" IVar="-1" Cut="0.0000000000000000e+00" cType="1" res="-5.1426190882921219e-02" rms="4.0405923128128052e-01" purity="2.1615333855152130e-01" nType="-99"/>
            <Node pos="r" depth="3" NCoef="0" IVar="-1" Cut="0.0000000000000000e+00" cType="1" res="1.0624831775203347e-03" rms="4.9378466606140137e-01" purity="4.8870688676834106e-01" nType="-99"/>
          </Node>
          <Node pos="r" depth="2" NCoef="0" IVar="2" Cut="7.5897425413131714e-01" cType="1" res="3.4485954791307449e-02" rms="4.8802375793457031e-01" purity="5.3144401311874390e-01" nType="0">
            <Node pos="l" depth="3" NCoef="0" IVar="-1" Cut="0.0000000000000000e+00" cType="1" res="2.4354435503482819e-02" rms="4.7232681512832642e-01" purity="6.3606041669845581e-01" nType="-99"/>
            <Node pos="r" depth="3" NCoef="0" IVar="-1" Cut="0.0000000000000000e+00" cType="1" res="-1.0192972607910633e-02" rms="4.8825961351394653e-01" purity="4.2851293087005615e-01" nType="-99"/>
          </Node>
        </Node>
        <Node pos="r" depth="1" NCoef="0" IVar="-1" Cut="0.0000000000000000e+00" cType="1" res="3.7098299711942673e-02" rms="4.3677100539207458e-01" purity="7.3037260770797729e-01" nType="-99"/>
      </Node>
    </BinaryTree>
    <BinaryTree type="DecisionTree" boostWeight="1.0000000000000000e+00" itree="4">
      <Node pos="s" depth="0" NCoef="0" IVar="2" Cut="8.8547688722610474e-01" cType="1" res="1.8062524031847715e-03" rms="4.7803026437759399e-01" purity="5.0187158584594727e-01" nType="0">
        <Node pos="l" depth="1" NCoef="0" IVar="5" Cut="1.0586710274219513e-01" cType="1" res="8.2477137446403503e-02" rms="4.7142916917800903e-01" purity="6.0631072521209717e-01" nType="0">
          <Node pos="l" depth="2" NCoef="0" IVar="-1" Cut="0.0000000000000000e+00" cType="1" res="3.7846747785806656e-02" rms="4.2891213297843933e-01" purity="7.3531568050384521e-01" nType="-99"/>
          <Node pos="r" depth="2" NCoef="0" IVar="7" Cut="6.3702128827571869e-02" cType="1" res="-6.9895787164568901e-03" rms="4.8787587881088257e-01" purity="4.9492380023002625e-01" nType="0">
            <Node pos="l" depth="3" NCoef="0" IVar="-1" Cut="0.0000000000000000e+00" cType="1" res="1.5867391601204872e-02" rms="4.8428192734718323e-01" purity="5.9856069087982178e-01" nType="-99"/>
            <Node pos="r" depth="3" NCoef="0" IVar="-1" Cut="0.0000000000000000e+00" cType="1" res="-2.1611317992210388e-02" rms="4.7279399633407593e-01" purity="3.7443906068801880e-01" nType="-99"/>
          </Node>
        </Node>
        <Node pos="r" depth="1" NCoef="0" IVar="7" Cut="6.1057887971401215e-02" cType="1" res="-1.3013365864753723e-01" rms="4.5903342962265015e-01" purity="3.3105793595314026e-01" nType="0">
          <Node pos="l" depth="2" NCoef="0" IVar="-1" Cut="0.0000000000000000e+00" cType="1" res="-7.6471595093607903e-03" rms="4.8848795890808105e-01" purity="4.3931177258491516e-01" nType="-99"/>
          <Node pos="r" depth="2" NCoef="0" IVar="-1" Cut="0.0000000000000000e+00" cType="1" res="-4.2599134147167206e-02" rms="4.1618010401725769e-01" purity="2.3811922967433929e-01" nType="-99"/>
        </Node>
      </Node>
    </BinaryTree>
    <BinaryTree type="DecisionTree" boostWeight="1.0000000000000000e+00" itree="5">
      <Node pos="s" depth="0" NCoef="0" IVar="5" Cut="1.3218091428279877e-01" cType="1" res="-3.1150218565016985e-03" rms="4.7380420565605164e-01" purity="4.9732536077499390e-01" nType="0">
        <Node pos="l" depth="1" NCoef="0" IVar="4" Cut="8.4219656884670258e-02" cType="1" res="7.9583525657653809e-02" rms="4.6577534079551697e-01" purity="6.0414791107177734e-01" nType="0">
          <Node pos="l" depth="2" NCoef="0" IVar="-1" Cut="0.0000000000000000e+00" cType="1" res="3.3904246985912323e-02" rms="4.3577355146408081e-01" purity="7.0733582973480225e-01" nType="-99"/>
          <Node pos="r" depth="2" NCoef="0" IVar="-1" Cut="0.0000000000000000e+00" cType="1" res="-2.9214154928922653e-03" rms="4.7915965318679810e-01" purity="4.9138072133064270e-01" nType="-99"/>
        </Node>
        <Node pos="r" depth="1" NCoef="0" IVar="8" Cut="8.5810951888561249e-02" cType="1" res="-1.2142038345336914e-01" rms="4.5989391207695007e-01" purity="3.4450918436050415e-01" nType="0">
          <Node pos="l" depth="2" NCoef="0" IVar="-1" Cut="0.0000000000000000e+00" cType="1" res="-9.0392623096704483e-03" rms="4.8005962371826172e-01" purity="4.2832446098327637e-01" nType="-99"/>
          <Node pos="r" depth="2" NCoef="0" IVar="-1" Cut="0.0000000000000000e+00" cType="1" res="-4.1571192443370819e-02" rms="4.2159309983253479e-01" purity="2.5391125679016113e-01" nType="-99"/>
        </Node>
      </Node>
    </BinaryTree>
    <BinaryTree type="DecisionTree" boostWeight="1.0000000000000000e+00" itree="6">
      <Node pos="s" depth="0" NCoef="0" IVar="3" Cut="4.0473812103271484e+01" cType="1" res="8.9499671958037652e-06" rms="4.7079443931579590e-01" purity="4.9938306212425232e-01" nType="0">
        <Node pos="l" depth="1" NCoef="0" IVar="0" Cut="1.0401110839843750e+03" cType="1" res="-7.5468435883522034e-02" rms="4.6700912714004517e-01" purity="3.8057872653007507e-01" nType="0">
          <Node pos="l" depth="2" NCoef="0" IVar="6" Cut="5.5134658813476562e+01" cType="1" res="-1.2569099664688110e-01" rms="4.5042580366134644e-01" purity="3.2149380445480347e-01" nType="0">
            <Node pos="l" depth="3" NCoef="0" IVar="-1" Cut="0.0000000000000000e+00" cType="1" res="-4.7543223947286606e-02" rms="3.8920781016349792e-01" purity="1.9950965046882629e-01" nType="-99"/>
            <Node pos="r" depth="3" NCoef="0" IVar="-1" Cut="0.0000000000000000e+00" cType="1" res="5.9818215668201447e-03" rms="4.8786279559135437e-01" purity="5.0094431638717651e-01" nType="-99"/>
          </Node>
          <Node pos="r" depth="2" NCoef="0" IVar="-1" Cut="0.0000000000000000e+00" cType="1" res="1.3044431805610657e-02" rms="4.8361176252365112e-01" purity="5.4514175653457642e-01" nType="-99"/>
        </Node>
        <Node pos="r" depth="1" NCoef="0" IVar="4" Cut="8.4801219403743744e-02" cType="1" res="1.0716424882411957e-01" rms="4.5510122179985046e-01" purity="6.6804969310760498e-01" nType="0">
          <Node pos="l" depth="2" NCoef="0" IVar="-1" Cut="0.0000000000000000e+00" cType="1" res="3.6730092018842697e-02" rms="4.1644939780235291e-01" purity="7.6011353731155396e-01" nType="-99"/>
          <Node pos="r" depth="2" NCoef="0" IVar="-1" Cut="0.0000000000000000e+00" cType="1" res="3.2507095020264387e-03" rms="4.8600381612777710e-01" purity="5.4843556880950928e-01" nType="-99"/>
        </Node>
      </Node>
    </BinaryTree>
    <BinaryTree type="DecisionTree" boostWeight="1.0000000000000000e+00" itree="7">
      <Node pos="s" depth="0" NCoef="0" IVar="5" Cut="1.0576726496219635e-01" cType="1" res="1.8048279453068972e-03" rms="4.6732354164123535e-01" purity="5.0242358446121216e-01" nType="0">
        <Node pos="l" depth="1" NCoef="0" IVar="0" Cut="7.9804730224609375e+02" cType="1" res="1.0643311589956284e-01" rms="4.4624990224838257e-01" purity="6.6016119718551636e-01" nType="0">
          <Node pos="l" depth="2" NCoef="0" IVar="-1" Cut="0.0000000000000000e+00" cType="1" res="3.4844917245209217e-03" rms="4.7490787506103516e-01" purity="5.3451508283615112e-01" nType="-99"/>
          <Node pos="r" depth="2" NCoef="0" IVar="-1" Cut="0.0000000000000000e+00" cType="1" res="3.7303928285837173e-02" rms="4.0783789753913879e-01" purity="7.6115888357162476e-01" nType="-99"/>
        </Node>
        <Node pos="r" depth="1" NCoef="0" IVar="7" Cut="8.8148556649684906e-02" cType="1" res="-6.5753757953643799e-02" rms="4.6817710995674133e-01" purity="4.0057229995727539e-01" nType="0">
          <Node pos="l" depth="2" NCoef="0" IVar="4" Cut="9.8674811422824860e-02" cType="1" res="-1.3876759447157383e-02" rms="4.8172938823699951e-01" purity="4.7076585888862610e-01" nType="0">
            <Node pos="l" depth="3" NCoef="0" IVar="-1" Cut="0.0000000000000000e+00" cType="1" res="9.7352415323257446e-03" rms="4.8032054305076599e-01" purity="5.4365593194961548e-01" nType="-99"/>
            <Node pos="r" depth="3" NCoef="0" IVar="-1" Cut="0.0000000000000000e+00" cType="1" res="-1.9582003355026245e-02" rms="4.7113519906997681e-01" purity="3.7327504158020020e-01" nType="-99"/>
          </Node>
          <Node pos="r" depth="2" NCoef="0" IVar="-1" Cut="0.0000000000000000e+00" cType="1" res="-3.7258207798004150e-02" rms="4.1502818465232849e-01" purity="2.4698297679424286e-01" nType="-99"/>
        </Node>
      </Node>
    </BinaryTree>
    <BinaryTree type="DecisionTree" boostWeight="1.0000000000000000e+00" itree="8">
      <Node pos="s" depth="0" NCoef="0" IVar="2" Cut="1.1367232799530029e+00" cType="1" res="2.4901987053453922e-03" rms="4.6342092752456665e-01" purity="5.0193417072296143e-01" nType="0">
        <Node pos="l" depth="1" NCoef="0" IVar="7" Cut="5.2638985216617584e-02" cType="1" res="5.2102778106927872e-02" rms="4.6338203549385071e-01" purity="5.7768237590789795e-01" nType="0">
          <Node pos="l" depth="2" NCoef="0" IVar="0" Cut="8.4747369384765625e+02" cType="1" res="1.3887266814708710e-01" rms="4.4202533364295959e-01" purity="6.9380891323089600e-01" nType="0">
            <Node pos="l" depth="3" NCoef="0" IVar="-1" Cut="0.0000000000000000e+00" cType="1" res="1.5489803627133369e-02" rms="4.7525125741958618e-01" purity="5.9663170576095581e-01" nType="-99"/>
            <Node pos="r" depth="3" NCoef="0" IVar="-1" Cut="0.0000000000000000e+00" cType="1" res="3.9398610591888428e-02" rms="4.0703302621841431e-01" purity="7.7077168226242065e-01" nType="-99"/>
          </Node>
          <Node pos="r" depth="2" NCoef="0" IVar="5" Cut="1.0625922679901123e-01" cType="1" res="-1.9981430843472481e-02" rms="4.6833309531211853e-01" purity="4.8121008276939392e-01" nType="0">
            <Node pos="l" depth="3" NCoef="0" IVar="-1" Cut="0.0000000000000000e+00" cType="1" res="1.5368456952273846e-02" rms="4.6129679679870605e-01" purity="6.4424568414688110e-01" nType="-99"/>
            <Node pos="r" depth="3" NCoef="0" IVar="-1" Cut="0.0000000000000000e+00" cType="1" res="-1.7381932586431503e-02" rms="4.6221339702606201e-01" purity="3.6914205551147461e-01" nType="-99"/>
          </Node>
        </Node>
        <Node pos="r" depth="1" NCoef="0" IVar="-1" Cut="0.0000000000000000e+00" cType="1" res="-2.9831260442733765e-02" rms="4.3155810236930847e-01" purity="2.7873966097831726e-01" nType="-99"/>
      </Node>
    </BinaryTree>
    <BinaryTree type="DecisionTree" boostWeight="1.0000000000000000e+00" itree="9">
      <Node pos="s" depth="0" NCoef="0" IVar="2" Cut="1.1367232799530029e+00" cType="1" res="5.4651875980198383e-03" rms="4.6173894405364990e-01" purity="5.0542414188385010e-01" nType="0">
        <Node pos="l" depth="1" NCoef="0" IVar="6" Cut="1.0706552886962891e+02" cType="1" res="5.1129803061485291e-02" rms="4.6277794241905212e-01" purity="5.8210462331771851e-01" nType="0">
          <Node pos="l" depth="2" NCoef="0" IVar="6" Cut="4.8346946716308594e+01" cType="1" res="1.1985240504145622e-02" rms="4.6908563375473022e-01" purity="5.3155910968780518e-01" nType="0">
            <Node pos="l" depth="3" NCoef="0" IVar="-1" Cut="0.0000000000000000e+00" cType="1" res="-2.0359979942440987e-02" rms="4.6022585034370422e-01" purity="3.9708742499351501e-01" nType="-99"/>
            <Node pos="r" depth="3" NCoef="0" IVar="-1" Cut="0.0000000000000000e+00" cType="1" res="2.4886537343263626e-02" rms="4.5227146148681641e-01" purity="6.6380530595779419e-01" nType="-99"/>
          </Node>
          <Node pos="r" depth="2" NCoef="0" IVar="-1" Cut="0.0000000000000000e+00" cType="1" res="3.8737103343009949e-02" rms="4.1317120194435120e-01" purity="7.5550025701522827e-01" nType="-99"/>
        </Node>
        <Node pos="r" depth="1" NCoef="0" IVar="-1" Cut="0.0000000000000000e+00" cType="1" res="-2.6727303862571716e-02" rms="4.3201175332069397e-01" purity="2.8204593062400818e-01" nType="-99"/>
      </Node>
    </BinaryTree>
    <BinaryTree type="DecisionTree" boostWeight="1.0000000000000000e+00" itree="10">
      <Node pos="s" depth="0" NCoef="0" IVar="4" Cut="8.0708250403404236e-02" cType="1" res="-2.6011912268586457e-04" rms="4.5600506663322449e-01" purity="5.0171828269958496e-01" nType="0">
        <Node pos="l" depth="1" NCoef="0" IVar="8" Cut="7.4510402977466583e-02" cType="1" res="8.8545188307762146e-02" rms="4.4257485866546631e-01" purity="6.3086611032485962e-01" nType="0">
          <Node pos="l" depth="2" NCoef="0" IVar="-1" Cut="0.0000000000000000e+00" cType="1" res="3.3363249152898788e-02" rms="4.1654103994369507e-01" purity="7.1801310777664185e-01" nType="-99"/>
          <Node pos="r" depth="2" NCoef="0" IVar="-1" Cut="0.0000000000000000e+00" cType="1" res="2.5683189742267132e-03" rms="4.5782276988029480e-01" purity="5.3419160842895508e-01" nType="-99"/>
        </Node>
        <Node pos="r" depth="1" NCoef="0" IVar="3" Cut="2.9019945144653320e+01" cType="1" res="-7.1730174124240875e-02" rms="4.5409038662910461e-01" purity="3.9778080582618713e-01" nType="0">
          <Node pos="l" depth="2" NCoef="0" IVar="-1" Cut="0.0000000000000000e+00" cType="1" res="-3.9567265659570694e-02" rms="3.9480385184288025e-01" purity="2.2369213402271271e-01" nType="-99"/>
          <Node pos="r" depth="2" NCoef="0" IVar="0" Cut="7.8962609863281250e+02" cType="1" res="-1.7984734848141670e-02" rms="4.6946528553962708e-01" purity="4.7845232486724854e-01" nType="0">
            <Node pos="l" depth="3" NCoef="0" IVar="-1" Cut="0.0000000000000000e+00" cType="1" res="-1.7711026594042778e-02" rms="4.6206617355346680e-01" purity="3.7481501698493958e-01" nType="-99"/>
            <Node pos="r" depth="3" NCoef="0" IVar="-1" Cut="0.0000000000000000e+00" cType="1" res="1.0865308344364166e-02" rms="4.6674188971519470e-01" purity="5.8639359474182129e-01" nType="-99"/>
          </Node>
        </Node>
      </Node>
    </BinaryTree>
    <BinaryTree type="DecisionTree" boostWeight="1.0000000000000000e+00" itree="11">
      <Node pos="s" depth="0" NCoef="0" IVar="3" Cut="5.0711017608642578e+01" cType="1" res="-2.8724465519189835e-03" rms="4.5454961061477661e-01" purity="4.9798893928527832e-01" nType="0">
        <Node pos="l" depth="1" NCoef="0" IVar="0" Cut="1.0403718261718750e+03" cType="1" res="-4.4191893190145493e-02" rms="4.5832523703575134e-01" purity="4.1789656877517700e-01" nType="0">
          <Node pos="l" depth="2" NCoef="0" IVar="6" Cut="5.7235877990722656e+01" cType="1" res="-9.0074054896831512e-02" rms="4.4780474901199341e-01" purity="3.4893813729286194e-01" nType="0">
            <Node pos="l" depth="3" NCoef="0" IVar="-1" Cut="0.0000000000000000e+00" cType="1" res="-3.7083473056554794e-02" rms="4.0306884050369263e-01" purity="2.3184733092784882e-01" nType="-99"/>
            <Node pos="r" depth="3" NCoef="0" IVar="-1" Cut="0.0000000000000000e+00" cType="1" res="8.3346534520387650e-03" rms="4.8137968778610229e-01" purity="5.3125256299972534e-01" nType="-99"/>
          </Node>
          <Node pos="r" depth="2" NCoef="0" IVar="-1" Cut="0.0000000000000000e+00" cType="1" res="1.4890991151332855e-02" rms="4.6409583091735840e-01" purity="5.9223753213882446e-01" nType="-99"/>
        </Node>
        <Node pos="r" depth="1" NCoef="0" IVar="-1" Cut="0.0000000000000000e+00" cType="1" res="2.6356443762779236e-02" rms="4.1878584027290344e-01" purity="7.4037289619445801e-01" nType="-99"/>
      </Node>
    </BinaryTree>
    <BinaryTree type="DecisionTree" boostWeight="1.0000000000000000e+00" itree="12">
      <Node pos="s" depth="0" NCoef="0" IVar="0" Cut="1.2949362792968750e+03" cType="1" res="-6.6280248574912548e-04" rms="4.5202767848968506e-01" purity="5.0077140331268311e-01" nType="0">
        <Node pos="l" depth="1" NCoef="0" IVar="6" Cut="5.8870838165283203e+01" cType="1" res="-3.7074826657772064e-02" rms="4.5406875014305115e-01" purity="4.4116321206092834e-01" nType="0">
          <Node pos="l" depth="2" NCoef="0" IVar="6" Cut="3.9622783660888672e+01" cType="1" res="-1.1613758653402328e-01" rms="4.2974722385406494e-01" purity="3.2018321752548218e-01" nType="0">
            <Node pos="l" depth="3" NCoef="0" IVar="-1" Cut="0.0000000000000000e+00" cType="1" res="-4.0054500102996826e-02" rms="3.8783708214759827e-01" purity="2.3222717642784119e-01" nType="-99"/>
            <Node pos="r" depth="3" NCoef="0" IVar="-1" Cut="0.0000000000000000e+00" cType="1" res="-5.7144975289702415e-03" rms="4.6294894814491272e-01" purity="4.3264293670654297e-01" nType="-99"/>
          </Node>
          <Node pos="r" depth="2" NCoef="0" IVar="10" Cut="-1.8034139648079872e-02" cType="1" res="7.1726672351360321e-02" rms="4.6402558684349060e-01" purity="6.0764873027801514e-01" nType="0">
            <Node pos="l" depth="3" NCoef="0" IVar="-1" Cut="0.0000000000000000e+00" cType="1" res="-1.2966436333954334e-03" rms="4.7989279031753540e-01" purity="5.1459264755249023e-01" nType="-99"/>
            <Node pos="r" depth="3" NCoef="0" IVar="-1" Cut="0.0000000000000000e+00" cType="1" res="3.2535389065742493e-02" rms="4.3127673864364624e-01" purity="7.0674252510070801e-01" nType="-99"/>
          </Node>
        </Node>
        <Node pos="r" depth="1" NCoef="0" IVar="-1" Cut="0.0000000000000000e+00" cType="1" res="2.7027560397982597e-02" rms="4.2095565795898438e-01" purity="7.0829933881759644e-01" nType="-99"/>
      </Node>
    </BinaryTree>
    <BinaryTree type="DecisionTree" boostWeight="1.0000000000000000e+00" itree="13">
      <Node pos="s" depth="0" NCoef="0" IVar="7" Cut="7.8697584569454193e-02" cType="1" res="-5.7869288139045238e-03" rms="4.4738334417343140e-01" purity="4.9216321110725403e-01" nType="0">
        <Node pos="l" depth="1" NCoef="0" IVar="5" Cut="1.3349232077598572e-01" cType="1" res="4.5039422810077667e-02" rms="4.5131272077560425e-01" purity="5.7837396860122681e-01" nType="0">
          <Node pos="l" depth="2" NCoef="0" IVar="10" Cut="2.4761524796485901e-01" cType="1" res="1.0117118060588837e-01" rms="4.3289291858673096e-01" purity="6.7530131340026855e-01" nType="0">
            <Node pos="l" depth="3" NCoef="0" IVar="-1" Cut="0.0000000000000000e+00" cType="1" res="8.3927689120173454e-03" rms="4.6122580766677856e-01" purity="5.9109759330749512e-01" nType="-99"/>
            <Node pos="r" depth="3" NCoef="0" IVar="-1" Cut="0.0000000000000000e+00" cType="1" res="3.2228298485279083e-02" rms="4.0333577990531921e-01" purity="7.4026089906692505e-01" nType="-99"/>
          </Node>
          <Node pos="r" depth="2" NCoef="0" IVar="-1" Cut="0.0000000000000000e+00" cType="1" res="-9.3605723232030869e-03" rms="4.6545553207397461e-01" purity="4.2284691333770752e-01" nType="-99"/>
        </Node>
        <Node pos="r" depth="1" NCoef="0" IVar="2" Cut="7.5345188379287720e-01" cType="1" res="-9.7979366779327393e-02" rms="4.2492496967315674e-01" purity="3.3578786253929138e-01" nType="0">
          <Node pos="l" depth="2" NCoef="0" IVar="-1" Cut="0.0000000000000000e+00" cType="1" res="-9.2424461618065834e-03" rms="4.5127308368682861e-01" purity="4.4755932688713074e-01" nType="-99"/>
          <Node pos="r" depth="2" NCoef="0" IVar="-1" Cut="0.0000000000000000e+00" cType="1" res="-3.3420652151107788e-02" rms="3.9037609100341797e-01" purity="2.2716037929058075e-01" nType="-99"/>
        </Node>
      </Node>
    </BinaryTree>
    <BinaryTree type="DecisionTree" boostWeight="1.0000000000000000e+00" itree="14">
      <Node pos="s" depth="0" NCoef="0" IVar="4" Cut="8.4380015730857849e-02" cType="1" res="-1.6024915967136621e-03" rms="4.4684836268424988e-01" purity="4.9950715899467468e-01" nType="0">
        <Node pos="l" depth="1" NCoef="0" IVar="9" Cut="3.2095034790039062e+02" cType="1" res="6.5302520990371704e-02" rms="4.3693119287490845e-01" purity="6.1510062217712402e-01" nType="0">
          <Node pos="l" depth="2" NCoef="0" IVar="-1" Cut="0.0000000000000000e+00" cType="1" res="7.5375981396064162e-04" rms="4.5310038328170776e-01" purity="5.1394069194793701e-01" nType="-99"/>
          <Node pos="r" depth="2" NCoef="0" IVar="-1" Cut="0.0000000000000000e+00" cType="1" res="2.5943435728549957e-02" rms="4.1520857810974121e-01" purity="7.0221757888793945e-01" nType="-99"/>
        </Node>
        <Node pos="r" depth="1" NCoef="0" IVar="3" Cut="3.8547618865966797e+01" cType="1" res="-6.4353033900260925e-02" rms="4.4694280624389648e-01" purity="3.9109143614768982e-01" nType="0">
          <Node pos="l" depth="2" NCoef="0" IVar="3" Cut="2.8832252502441406e+01" cType="1" res="-1.1114466935396194e-01" rms="4.2293018102645874e-01" purity="2.8829643130302429e-01" nType="0">
            <Node pos="l" depth="3" NCoef="0" IVar="-1" Cut="0.0000000000000000e+00" cType="1" res="-3.2196678221225739e-02" rms="3.9599657058715820e-01" purity="2.3090904951095581e-01" nType="-99"/>
            <Node pos="r" depth="3" NCoef="0" IVar="-1" Cut="0.0000000000000000e+00" cType="1" res="-1.6330299898982048e-02" rms="4.4549679756164551e-01" purity="3.4558886289596558e-01" nType="-99"/>
          </Node>
          <Node pos="r" depth="2" NCoef="0" IVar="-1" Cut="0.0000000000000000e+00" cType="1" res="9.6887745894491673e-04" rms="4.7177281975746155e-01" purity="5.4267114400863647e-01" nType="-99"/>
        </Node>
      </Node>
    </BinaryTree>
    <BinaryTree type="DecisionTree" boostWeight="1.0000000000000000e+00" itree="15">
      <Node pos="s" depth="0" NCoef="0" IVar="2" Cut="1.2649564743041992e+00" cType="1" res="2.3578214459121227e-03" rms="4.4432479143142700e-01" purity="5.0367856025695801e-01" nType="0">
        <Node pos="l" depth="1" NCoef="0" IVar="0" Cut="1.1369787597656250e+03" cType="1" res="3.2558269798755646e-02" rms="4.4789221882820129e-01" purity="5.6619131565093994e-01" nType="0">
          <Node pos="l" depth="2" NCoef="0" IVar="1" Cut="4.4940028190612793e+00" cType="1" res="-5.6646284647285938e-03" rms="4.5743435621261597e-01" purity="4.9284103512763977e-01" nType="0">
            <Node pos="l" depth="3" NCoef="0" IVar="10" Cut="-9.9208556115627289e-02" cType="1" res="5.8426510542631149e-02" rms="4.6211826801300049e-01" purity="5.8821594715118408e-01" nType="0">
              <Node pos="l" depth="4" NCoef="0" IVar="-1" Cut="0.0000000000000000e+00" cType="1" res="-3.9799250662326813e-03" rms="4.7315403819084167e-01" purity="4.9508401751518250e-01" nType="-99"/>
              <Node pos="r" depth="4" NCoef="0" IVar="-1" Cut="0.0000000000000000e+00" cType="1" res="2.6248196139931679e-02" rms="4.4237056374549866e-01" purity="6.6618168354034424e-01" nType="-99"/>
            </Node>
            <Node pos="r" depth="3" NCoef="0" IVar="-1" Cut="0.0000000000000000e+00" cType="1" res="-2.3272205144166946e-02" rms="4.3053027987480164e-01" purity="3.4063708782196045e-01" nType="-99"/>
          </Node>
          <Node pos="r" depth="2" NCoef="0" IVar="-1" Cut="0.0000000000000000e+00" cType="1" res="2.7075598016381264e-02" rms="4.1058135032653809e-01" purity="7.3954784870147705e-01" nType="-99"/>
        </Node>
        <Node pos="r" depth="1" NCoef="0" IVar="-1" Cut="0.0000000000000000e+00" cType="1" res="-2.6907641440629959e-02" rms="4.0651851892471313e-01" purity="2.4712850153446198e-01" nType="-99"/>
      </Node>
    </BinaryTree>
    <BinaryTree type="DecisionTree" boostWeight="1.0000000000000000e+00" itree="16">
      <Node pos="s" depth="0" NCoef="0" IVar="2" Cut="8.7552142143249512e-01" cType="1" res="-4.8183510079979897e-03" rms="4.4178467988967896e-01" purity="4.9528458714485168e-01" nType="0">
        <Node pos="l" depth="1" NCoef="0" IVar="4" Cut="1.0629288107156754e-01" cType="1" res="4.2785737663507462e-02" rms="4.4338387250900269e-01" purity="6.0411304235458374e-01" nType="0">
          <Node pos="l" depth="2" NCoef="0" IVar="5" Cut="1.0604898631572723e-01" cType="1" res="7.9060703516006470e-02" rms="4.2962062358856201e-01" purity="6.6234481334686279e-01" nType="0">
            <Node pos="l" depth="3" NCoef="0" IVar="-1" Cut="0.0000000000000000e+00" cType="1" res="2.9173133894801140e-02" rms="3.8930177688598633e-01" purity="7.8304094076156616e-01" nType="-99"/>
            <Node pos="r" depth="3" NCoef="0" IVar="-1" Cut="0.0000000000000000e+00" cType="1" res="6.9132121279835701e-03" rms="4.6047568321228027e-01" purity="5.4596352577209473e-01" nType="-99"/>
          </Node>
          <Node pos="r" depth="2" NCoef="0" IVar="-1" Cut="0.0000000000000000e+00" cType="1" res="-1.0482812300324440e-02" rms="4.6403154730796814e-01" purity="4.5549449324607849e-01" nType="-99"/>
        </Node>
        <Node pos="r" depth="1" NCoef="0" IVar="0" Cut="7.6482690429687500e+02" cType="1" res="-7.9326920211315155e-02" rms="4.2878860235214233e-01" purity="3.2494941353797913e-01" nType="0">
          <Node pos="l" depth="2" NCoef="0" IVar="-1" Cut="0.0000000000000000e+00" cType="1" res="-2.8224939480423927e-02" rms="3.9488199353218079e-01" purity="2.3691684007644653e-01" nType="-99"/>
          <Node pos="r" depth="2" NCoef="0" IVar="-1" Cut="0.0000000000000000e+00" cType="1" res="-5.1857982762157917e-03" rms="4.6027198433876038e-01" purity="4.3058273196220398e-01" nType="-99"/>
        </Node>
      </Node>
    </BinaryTree>
    <BinaryTree type="DecisionTree" boostWeight="1.0000000000000000e+00" itree="17">
      <Node pos="s" depth="0" NCoef="0" IVar="8" Cut="9.1058507561683655e-02" cType="1" res="-3.6694533191621304e-03" rms="4.4190067052841187e-01" purity="4.9805393815040588e-01" nType="0">
        <Node pos="l" depth="1" NCoef="0" IVar="0" Cut="1.2949432373046875e+03" cType="1" res="4.1937541216611862e-02" rms="4.4087529182434082e-01" purity="5.7264947891235352e-01" nType="0">
          <Node pos="l" depth="2" NCoef="0" IVar="6" Cut="5.8305877685546875e+01" cType="1" res="9.9670737981796265e-03" rms="4.5121258497238159e-01" purity="5.0620079040527344e-01" nType="0">
            <Node pos="l" depth="3" NCoef="0" IVar="-1" Cut="0.0000000000000000e+00" cType="1" res="-1.8692821264266968e-02" rms="4.3629056215286255e-01" purity="3.4034270048141479e-01" nType="-99"/>
            <Node pos="r" depth="3" NCoef="0" IVar="-1" Cut="0.0000000000000000e+00" cType="1" res="1.8945928663015366e-02" rms="4.4815951585769653e-01" purity="6.4259624481201172e-01" nType="-99"/>
          </Node>
          <Node pos="r" depth="2" NCoef="0" IVar="-1" Cut="0.0000000000000000e+00" cType="1" res="2.9699416831135750e-02" rms="3.9699304103851318e-01" purity="7.5900292396545410e-01" nType="-99"/>
        </Node>
        <Node pos="r" depth="1" NCoef="0" IVar="14" Cut="4.0000000000000000e+00" cType="1" res="1.4221361279487610e-01" rms="6.0631197690963745e-01" purity="3.8800922036170959e-01" nType="0">
          <Node pos="l" depth="2" NCoef="0" IVar="-1" Cut="0.0000000000000000e+00" cType="1" res="-3.0760331079363823e-02" rms="4.0279498696327209e-01" purity="3.0569773912429810e-01" nType="-99"/>
          <Node pos="r" depth="2" NCoef="0" IVar="-1" Cut="0.0000000000000000e+00" cType="1" res="-8.9235923951491714e-04" rms="4.5457386970520020e-01" purity="4.6974796056747437e-01" nType="-99"/>
        </Node>
      </Node>
    </BinaryTree>
    <BinaryTree type="DecisionTree" boostWeight="1.0000000000000000e+00" itree="18">
      <Node pos="s" depth="0" NCoef="0" IVar="5" Cut="7.9531662166118622e-02" cType="1" res="8.5882790153846145e-04" rms="4.3838039040565491e-01" purity="5.0196826457977295e-01" nType="0">
        <Node pos="l" depth="1" NCoef="0" IVar="-1" Cut="0.0000000000000000e+00" cType="1" res="2.4271674454212189e-02" rms="3.9936867356300354e-01" purity="7.2681564092636108e-01" nType="-99"/>
        <Node pos="r" depth="1" NCoef="0" IVar="1" Cut="5.0505762100219727e+00" cType="1" res="-2.7136258780956268e-02" rms="4.4397962093353271e-01" purity="4.4227614998817444e-01" nType="0">
          <Node pos="l" depth="2" NCoef="0" IVar="0" Cut="7.2550091552734375e+02" cType="1" res="1.5569861046969891e-02" rms="4.5479512214660645e-01" purity="4.9414411187171936e-01" nType="0">
            <Node pos="l" depth="3" NCoef="0" IVar="5" Cut="1.3608275353908539e-01" cType="1" res="-3.9577890187501907e-02" rms="4.5051884651184082e-01" purity="3.9041236042976379e-01" nType="0">
              <Node pos="l" depth="4" NCoef="0" IVar="-1" Cut="0.0000000000000000e+00" cType="1" res="5.3013209253549576e-04" rms="4.6679767966270447e-01" purity="4.7795683145523071e-01" nType="-99"/>
              <Node pos="r" depth="4" NCoef="0" IVar="-1" Cut="0.0000000000000000e+00" cType="1" res="-1.8390044569969177e-02" rms="4.2903545498847961e-01" purity="3.0103105306625366e-01" nType="-99"/>
            </Node>
            <Node pos="r" depth="3" NCoef="0" IVar="-1" Cut="0.0000000000000000e+00" cType="1" res="2.1773962303996086e-02" rms="4.4815552234649658e-01" purity="6.5462952852249146e-01" nType="-99"/>
          </Node>
          <Node pos="r" depth="2" NCoef="0" IVar="-1" Cut="0.0000000000000000e+00" cType="1" res="-2.2958299145102501e-02" rms="4.1320016980171204e-01" purity="3.4979102015495300e-01" nType="-99"/>
        </Node>
      </Node>
    </BinaryTree>
    <BinaryTree type="DecisionTree" boostWeight="1.0000000000000000e+00" itree="19">
      <Node pos="s" depth="0" NCoef="0" IVar="6" Cut="1.0477828216552734e+02" cType="1" res="-7.1938394103199244e-04" rms="4.3563768267631531e-01" purity="4.9600827693939209e-01" nType="0">
        <Node pos="l" depth="1" NCoef="0" IVar="6" Cut="4.4240356445312500e+01" cType="1" res="-2.9087994247674942e-02" rms="4.3492630124092102e-01" purity="4.4017961621284485e-01" nType="0">
          <Node pos="l" depth="2" NCoef="0" IVar="-1" Cut="0.0000000000000000e+00" cType="1" res="-2.9122289270162582e-02" rms="3.9596652984619141e-01" purity="2.7384784817695618e-01" nType="-99"/>
          <Node pos="r" depth="2" NCoef="0" IVar="10" Cut="1.8196916580200195e-01" cType="1" res="5.8705341070890427e-02" rms="4.4881784915924072e-01" purity="5.8755970001220703e-01" nType="0">
            <Node pos="l" depth="3" NCoef="0" IVar="-1" Cut="0.0000000000000000e+00" cType="1" res="-3.1287372112274170e-03" rms="4.6336066722869873e-01" purity="4.7646638751029968e-01" nType="-99"/>
            <Node pos="r" depth="3" NCoef="0" IVar="-1" Cut="0.0000000000000000e+00" cType="1" res="2.6468431577086449e-02" rms="4.2674043774604797e-01" purity="6.8041813373565674e-01" nType="-99"/>
          </Node>
        </Node>
        <Node pos="r" depth="1" NCoef="0" IVar="-1" Cut="0.0000000000000000e+00" cType="1" res="2.4186782538890839e-02" rms="4.2089939117431641e-01" purity="7.1078276634216309e-01" nType="-99"/>
      </Node>
    </BinaryTree>
    <BinaryTree type="DecisionTree" boostWeight="1.0000000000000000e+00" itree="20">
      <Node pos="s" depth="0" NCoef="0" IVar="0" Cut="1.2949338378906250e+03" cType="1" res="2.0953791681677103e-03" rms="4.3562516570091248e-01" purity="5.0445193052291870e-01" nType="0">
        <Node pos="l" depth="1" NCoef="0" IVar="6" Cut="5.8304504394531250e+01" cType="1" res="-2.4780208244919777e-02" rms="4.3919900059700012e-01" purity="4.4426375627517700e-01" nType="0">
          <Node pos="l" depth="2" NCoef="0" IVar="11" Cut="4.0000000000000000e+00" cType="1" res="-6.8435482680797577e-02" rms="3.7869712710380554e-01" purity="3.1664866209030151e-01" nType="0">
            <Node pos="l" depth="3" NCoef="0" IVar="-1" Cut="0.0000000000000000e+00" cType="1" res="-2.8745668008923531e-02" rms="3.8536834716796875e-01" purity="2.4191378057003021e-01" nType="-99"/>
            <Node pos="r" depth="3" NCoef="0" IVar="-1" Cut="0.0000000000000000e+00" cType="1" res="-5.1429569721221924e-03" rms="4.5293849706649780e-01" purity="4.1263335943222046e-01" nType="-99"/>
          </Node>
          <Node pos="r" depth="2" NCoef="0" IVar="10" Cut="-1.0420528799295425e-01" cType="1" res="4.7991286963224411e-02" rms="4.5388677716255188e-01" purity="6.1196541786193848e-01" nType="0">
            <Node pos="l" depth="3" NCoef="0" IVar="-1" Cut="0.0000000000000000e+00" cType="1" res="-4.0321890264749527e-03" rms="4.7659370303153992e-01" purity="5.0475007295608521e-01" nType="-99"/>
            <Node pos="r" depth="3" NCoef="0" IVar="-1" Cut="0.0000000000000000e+00" cType="1" res="2.3313710466027260e-02" rms="4.2522168159484863e-01" purity="7.0361149311065674e-01" nType="-99"/>
          </Node>
        </Node>
        <Node pos="r" depth="1" NCoef="0" IVar="-1" Cut="0.0000000000000000e+00" cType="1" res="2.2550377994775772e-02" rms="4.0807428956031799e-01" purity="7.2131580114364624e-01" nType="-99"/>
      </Node>
    </BinaryTree>
    <BinaryTree type="DecisionTree" boostWeight="1.0000000000000000e+00" itree="21">
      <Node pos="s" depth="0" NCoef="0" IVar="4" Cut="1.1245517432689667e-01" cType="1" res="5.2945557981729507e-03" rms="4.3504804372787476e-01" purity="5.0709891319274902e-01" nType="0">
        <Node pos="l" depth="1" NCoef="0" IVar="3" Cut="3.0237516403198242e+01" cType="1" res="3.9091955870389938e-02" rms="4.3339860439300537e-01" purity="5.7164275646209717e-01" nType="0">
          <Node pos="l" depth="2" NCoef="0" IVar="-1" Cut="0.0000000000000000e+00" cType="1" res="-9.0711116790771484e-03" rms="4.3139556050300598e-01" purity="3.7449809908866882e-01" nType="-99"/>
          <Node pos="r" depth="2" NCoef="0" IVar="10" Cut="-1.2741633690893650e-02" cType="1" res="7.3348857462406158e-02" rms="4.2973402142524719e-01" purity="6.5628808736801147e-01" nType="0">
            <Node pos="l" depth="3" NCoef="0" IVar="-1" Cut="0.0000000000000000e+00" cType="1" res="9.7246502991765738e-04" rms="4.6506968140602112e-01" purity="5.5399125814437866e-01" nType="-99"/>
            <Node pos="r" depth="3" NCoef="0" IVar="-1" Cut="0.0000000000000000e+00" cType="1" res="2.4305576458573341e-02" rms="4.0804421901702881e-01" purity="7.0444476604461670e-01" nType="-99"/>
          </Node>
        </Node>
        <Node pos="r" depth="1" NCoef="0" IVar="-1" Cut="0.0000000000000000e+00" cType="1" res="-1.7779175192117691e-02" rms="4.2759501934051514e-01" purity="3.4555402398109436e-01" nType="-99"/>
      </Node>
    </BinaryTree>
    <BinaryTree type="DecisionTree" boostWeight="1.0000000000000000e+00" itree="22">
      <Node pos="s" depth="0" NCoef="0" IVar="4" Cut="1.2649275362491608e-01" cType="1" res="-4.2471294291317463e-03" rms="4.3228799104690552e-01" purity="4.9529567360877991e-01" nType="0">
        <Node pos="l" depth="1" NCoef="0" IVar="5" Cut="1.4550642669200897e-01" cType="1" res="2.3119393736124039e-02" rms="4.3294182419776917e-01" purity="5.4786396026611328e-01" nType="0">
          <Node pos="l" depth="2" NCoef="0" IVar="7" Cut="7.8812301158905029e-02" cType="1" res="5.3369008004665375e-02" rms="4.2646604776382446e-01" purity="6.2634623050689697e-01" nType="0">
            <Node pos="l" depth="3" NCoef="0" IVar="2" Cut="6.0570210218429565e-01" cType="1" res="8.3041101694107056e-02" rms="4.1681709885597229e-01" purity="6.9497388601303101e-01" nType="0">
              <Node pos="l" depth="4" NCoef="0" IVar="-1" Cut="0.0000000000000000e+00" cType="1" res="2.7085555717349052e-02" rms="3.8649699091911316e-01" purity="7.7917134761810303e-01" nType="-99"/>
              <Node pos="r" depth="4" NCoef="0" IVar="-1" Cut="0.0000000000000000e+00" cType="1" res="1.1086582206189632e-02" rms="4.4483542442321777e-01" purity="6.0435038805007935e-01" nType="-99"/>
            </Node>
            <Node pos="r" depth="3" NCoef="0" IVar="-1" Cut="0.0000000000000000e+00" cType="1" res="-3.0662538483738899e-03" rms="4.4018623232841492e-01" purity="4.7149547934532166e-01" nType="-99"/>
          </Node>
          <Node pos="r" depth="2" NCoef="0" IVar="-1" Cut="0.0000000000000000e+00" cType="1" res="-1.0118084028363228e-02" rms="4.3963336944580078e-01" purity="3.7006226181983948e-01" nType="-99"/>
        </Node>
        <Node pos="r" depth="1" NCoef="0" IVar="-1" Cut="0.0000000000000000e+00" cType="1" res="-2.3892682045698166e-02" rms="4.1444751620292664e-01" purity="3.0087640881538391e-01" nType="-99"/>
      </Node>
    </BinaryTree>
    <BinaryTree type="DecisionTree" boostWeight="1.0000000000000000e+00" itree="23">
      <Node pos="s" depth="0" NCoef="0" IVar="8" Cut="1.0088158398866653e-01" cType="1" res="6.0084847063990310e-05" rms="4.3132507801055908e-01" purity="5.0033688545227051e-01" nType="0">
        <Node pos="l" depth="1" NCoef="0" IVar="7" Cut="4.9422144889831543e-02" cType="1" res="3.4675858914852142e-02" rms="4.3422961235046387e-01" purity="5.7012677192687988e-01" nType="0">
          <Node pos="l" depth="2" NCoef="0" IVar="-1" Cut="0.0000000000000000e+00" cType="1" res="2.0226309075951576e-02" rms="4.1757103800773621e-01" purity="6.8944031000137329e-01" nType="-99"/>
          <Node pos="r" depth="2" NCoef="0" IVar="9" Cut="3.1914523315429688e+02" cType="1" res="-3.5963426344096661e-03" rms="4.4175755977630615e-01" purity="4.8508301377296448e-01" nType="0">
            <Node pos="l" depth="3" NCoef="0" IVar="-1" Cut="0.0000000000000000e+00" cType="1" res="-9.8439371213316917e-03" rms="4.4201412796974182e-01" purity="4.0055307745933533e-01" nType="-99"/>
            <Node pos="r" depth="3" NCoef="0" IVar="-1" Cut="0.0000000000000000e+00" cType="1" res="1.0024513117969036e-02" rms="4.3664216995239258e-01" purity="5.8547961711883545e-01" nType="-99"/>
          </Node>
        </Node>
        <Node pos="r" depth="1" NCoef="0" IVar="4" Cut="8.8610835373401642e-02" cType="1" res="-6.3909702003002167e-02" rms="4.1843619942665100e-01" purity="3.7136560678482056e-01" nType="0">
          <Node pos="l" depth="2" NCoef="0" IVar="-1" Cut="0.0000000000000000e+00" cType="1" res="-4.4053480960428715e-03" rms="4.3265274167060852e-01" purity="4.7319725155830383e-01" nType="-99"/>
          <Node pos="r" depth="2" NCoef="0" IVar="-1" Cut="0.0000000000000000e+00" cType="1" res="-2.4223733693361282e-02" rms="4.0062764286994934e-01" purity="2.7783513069152832e-01" nType="-99"/>
        </Node>
      </Node>
    </BinaryTree>
    <BinaryTree type="DecisionTree" boostWeight="1.0000000000000000e+00" itree="24">
      <Node pos="s" depth="0" NCoef="0" IVar="4" Cut="6.9687239825725555e-02" cType="1" res="-4.5337686315178871e-03" rms="4.3048778176307678e-01" purity="4.9471336603164673e-01" nType="0">
        <Node pos="l" depth="1" NCoef="0" IVar="-1" Cut="0.0000000000000000e+00" cType="1" res="1.3750307261943817e-02" rms="4.1330209374427795e-01" purity="6.4781785011291504e-01" nType="-99"/>
        <Node pos="r" depth="1" NCoef="0" IVar="14" Cut="1.0000000000000000e+00" cType="1" res="1.1509564518928528e-01" rms="6.3619804382324219e-01" purity="4.1809070110321045e-01" nType="0">
          <Node pos="l" depth="2" NCoef="0" IVar="-1" Cut="0.0000000000000000e+00" cType="1" res="-1.8722688779234886e-02" rms="4.1107472777366638e-01" purity="3.4967336058616638e-01" nType="-99"/>
          <Node pos="r" depth="2" NCoef="0" IVar="8" Cut="8.7200969457626343e-02" cType="1" res="3.0480693094432354e-03" rms="4.5218759775161743e-01" purity="4.7884234786033630e-01" nType="0">
            <Node pos="l" depth="3" NCoef="0" IVar="-1" Cut="0.0000000000000000e+00" cType="1" res="8.7107820436358452e-03" rms="4.5408138632774353e-01" purity="5.7129997014999390e-01" nType="-99"/>
            <Node pos="r" depth="3" NCoef="0" IVar="-1" Cut="0.0000000000000000e+00" cType="1" res="-7.5568608008325100e-03" rms="4.4730469584465027e-01" purity="3.8676342368125916e-01" nType="-99"/>
          </Node>
        </Node>
      </Node>
    </BinaryTree>
    <BinaryTree type="DecisionTree" boostWeight="1.0000000000000000e+00" itree="25">
      <Node pos="s" depth="0" NCoef="0" IVar="10" Cut="-4.6830552816390991e-01" cType="1" res="4.1940840892493725e-03" rms="4.3096825480461121e-01" purity="5.0771397352218628e-01" nType="0">
        <Node pos="l" depth="1" NCoef="0" IVar="-1" Cut="0.0000000000000000e+00" cType="1" res="-1.7492588609457016e-02" rms="4.4077202677726746e-01" purity="3.8536626100540161e-01" nType="-99"/>
        <Node pos="r" depth="1" NCoef="0" IVar="9" Cut="2.7801367187500000e+02" cType="1" res="2.7412232011556625e-02" rms="4.2529344558715820e-01" purity="5.4209810495376587e-01" nType="0">
          <Node pos="l" depth="2" NCoef="0" IVar="-1" Cut="0.0000000000000000e+00" cType="1" res="-7.8327441588044167e-03" rms="4.2957496643066406e-01" purity="4.0531226992607117e-01" nType="-99"/>
          <Node pos="r" depth="2" NCoef="0" IVar="7" Cut="6.2467079609632492e-02" cType="1" res="7.1880303323268890e-02" rms="4.1655230522155762e-01" purity="6.4101153612136841e-01" nType="0">
            <Node pos="l" depth="3" NCoef="0" IVar="-1" Cut="0.0000000000000000e+00" cType="1" res="2.5021879002451897e-02" rms="4.0032094717025757e-01" purity="7.2746121883392334e-01" nType="-99"/>
            <Node pos="r" depth="3" NCoef="0" IVar="-1" Cut="0.0000000000000000e+00" cType="1" res="5.8196960017085075e-03" rms="4.3285867571830750e-01" purity="5.2609598636627197e-01" nType="-99"/>
          </Node>
        </Node>
      </Node>
    </BinaryTree>
    <BinaryTree type="DecisionTree" boostWeight="1.0000000000000000e+00" itree="26">
      <Node pos="s" depth="0" NCoef="0" IVar="5" Cut="1.5643024444580078e-01" cType="1" res="1.9349975045770407e-03" rms="4.3042969703674316e-01" purity="5.0577217340469360e-01" nType="0">
        <Node pos="l" depth="1" NCoef="0" IVar="9" Cut="3.2044741821289062e+02" cType="1" res="2.5626819580793381e-02" rms="4.3217670917510986e-01" purity="5.6843912601470947e-01" nType="0">
          <Node pos="l" depth="2" NCoef="0" IVar="1" Cut="4.1993355751037598e+00" cType="1" res="-1.3923009857535362e-02" rms="4.3996825814247131e-01" purity="4.7450146079063416e-01" nType="0">
            <Node pos="l" depth="3" NCoef="0" IVar="-1" Cut="0.0000000000000000e+00" cType="1" res="1.0732520371675491e-02" rms="4.5267137885093689e-01" purity="5.8358442783355713e-01" nType="-99"/>
            <Node pos="r" depth="3" NCoef="0" IVar="-1" Cut="0.0000000000000000e+00" cType="1" res="-1.3085183687508106e-02" rms="4.2567646503448486e-01" purity="3.9932855963706970e-01" nType="-99"/>
          </Node>
          <Node pos="r" depth="2" NCoef="0" IVar="0" Cut="8.4750201416015625e+02" cType="1" res="6.6040560603141785e-02" rms="4.2023956775665283e-01" purity="6.6442865133285522e-01" nType="0">
            <Node pos="l" depth="3" NCoef="0" IVar="-1" Cut="0.0000000000000000e+00" cType="1" res="4.4360812753438950e-03" rms="4.5290219783782959e-01" purity="5.3927546739578247e-01" nType="-99"/>
            <Node pos="r" depth="3" NCoef="0" IVar="-1" Cut="0.0000000000000000e+00" cType="1" res="2.5294011458754539e-02" rms="3.8756284117698669e-01" purity="7.6647311449050903e-01" nType="-99"/>
          </Node>
        </Node>
        <Node pos="r" depth="1" NCoef="0" IVar="-1" Cut="0.0000000000000000e+00" cType="1" res="-1.5769487246870995e-02" rms="4.1731172800064087e-01" purity="3.1934264302253723e-01" nType="-99"/>
      </Node>
    </BinaryTree>
    <BinaryTree type="DecisionTree" boostWeight="1.0000000000000000e+00" itree="27">
      <Node pos="s" depth="0" NCoef="0" IVar="10" Cut="-3.4958806633949280e-01" cType="1" res="9.5821457216516137e-04" rms="4.2933347821235657e-01" purity="5.0322616100311279e-01" nType="0">
        <Node pos="l" depth="1" NCoef="0" IVar="-1" Cut="0.0000000000000000e+00" cType="1" res="-1.6097636893391609e-02" rms="4.4121024012565613e-01" purity="3.8914391398429871e-01" nType="-99"/>
        <Node pos="r" depth="1" NCoef="0" IVar="6" Cut="9.0908172607421875e+01" cType="1" res="2.5181021541357040e-02" rms="4.2254021763801575e-01" purity="5.4110926389694214e-01" nType="0">
          <Node pos="l" depth="2" NCoef="0" IVar="6" Cut="3.8701213836669922e+01" cType="1" res="-1.0373240336775780e-02" rms="4.2996948957443237e-01" purity="4.6199265122413635e-01" nType="0">
            <Node pos="l" depth="3" NCoef="0" IVar="-1" Cut="0.0000000000000000e+00" cType="1" res="-2.4483172222971916e-02" rms="3.9052292704582214e-01" purity="2.8114536404609680e-01" nType="-99"/>
            <Node pos="r" depth="3" NCoef="0" IVar="-1" Cut="0.0000000000000000e+00" cType="1" res="1.0677902959287167e-02" rms="4.4309115409851074e-01" purity="5.7396155595779419e-01" nType="-99"/>
          </Node>
          <Node pos="r" depth="2" NCoef="0" IVar="-1" Cut="0.0000000000000000e+00" cType="1" res="3.3986393362283707e-02" rms="3.7466421723365784e-01" purity="7.9885089397430420e-01" nType="-99"/>
        </Node>
      </Node>
    </BinaryTree>
    <BinaryTree type="DecisionTree" boostWeight="1.0000000000000000e+00" itree="28">
      <Node pos="s" depth="0" NCoef="0" IVar="2" Cut="1.2649564743041992e+00" cType="1" res="-2.1000141277909279e-03" rms="4.2713755369186401e-01" purity="4.9813047051429749e-01" nType="0">
        <Node pos="l" depth="1" NCoef="0" IVar="10" Cut="-5.2427595853805542e-01" cType="1" res="1.8346006050705910e-02" rms="4.3125224113464355e-01" purity="5.5949950218200684e-01" nType="0">
          <Node pos="l" depth="2" NCoef="0" IVar="-1" Cut="0.0000000000000000e+00" cType="1" res="-1.6004497185349464e-02" rms="4.4375082850456238e-01" purity="4.0195664763450623e-01" nType="-99"/>
          <Node pos="r" depth="2" NCoef="0" IVar="1" Cut="5.0974001884460449e+00" cType="1" res="4.1641231626272202e-02" rms="4.2486763000488281e-01" purity="6.0005390644073486e-01" nType="0">
            <Node pos="l" depth="3" NCoef="0" IVar="0" Cut="7.4838012695312500e+02" cType="1" res="7.1193687617778778e-02" rms="4.2563682794570923e-01" purity="6.4847958087921143e-01" nType="0">
              <Node pos="l" depth="4" NCoef="0" IVar="-1" Cut="0.0000000000000000e+00" cType="1" res="7.4876067228615284e-03" rms="4.5616725087165833e-01" purity="5.3109133243560791e-01" nType="-99"/>
              <Node pos="r" depth="4" NCoef="0" IVar="-1" Cut="0.0000000000000000e+00" cType="1" res="2.8746504336595535e-02" rms="3.8086089491844177e-01" purity="7.8970038890838623e-01" nType="-99"/>
            </Node>
            <Node pos="r" depth="3" NCoef="0" IVar="-1" Cut="0.0000000000000000e+00" cType="1" res="-2.1696805488318205e-03" rms="4.1867586970329285e-01" purity="5.1663517951965332e-01" nType="-99"/>
          </Node>
        </Node>
        <Node pos="r" depth="1" NCoef="0" IVar="-1" Cut="0.0000000000000000e+00" cType="1" res="-2.0626826211810112e-02" rms="3.9896467328071594e-01" purity="2.4609167873859406e-01" nType="-99"/>
      </Node>
    </BinaryTree>
    <BinaryTree type="DecisionTree" boostWeight="1.0000000000000000e+00" itree="29">
      <Node pos="s" depth="0" NCoef="0" IVar="0" Cut="1.3582036132812500e+03" cType="1" res="2.9802292119711637e-03" rms="4.2619335651397705e-01" purity="5.0424987077713013e-01" nType="0">
        <Node pos="l" depth="1" NCoef="0" IVar="1" Cut="4.6912493705749512e+00" cType="1" res="-1.7235200852155685e-02" rms="4.3099090456962585e-01" purity="4.4716444611549377e-01" nType="0">
          <Node pos="l" depth="2" NCoef="0" IVar="10" Cut="-1.4717796444892883e-01" cType="1" res="2.3476220667362213e-02" rms="4.4726154208183289e-01" purity="5.3653484582901001e-01" nType="0">
            <Node pos="l" depth="3" NCoef="0" IVar="-1" Cut="0.0000000000000000e+00" cType="1" res="-4.9807578325271606e-03" rms="4.5566114783287048e-01" purity="4.4479435682296753e-01" nType="-99"/>
            <Node pos="r" depth="3" NCoef="0" IVar="-1" Cut="0.0000000000000000e+00" cType="1" res="1.3842142187058926e-02" rms="4.3709301948547363e-01" purity="6.0904735326766968e-01" nType="-99"/>
          </Node>
          <Node pos="r" depth="2" NCoef="0" IVar="-1" Cut="0.0000000000000000e+00" cType="1" res="-2.0505277439951897e-02" rms="3.9313346147537231e-01" purity="2.9814410209655762e-01" nType="-99"/>
        </Node>
        <Node pos="r" depth="1" NCoef="0" IVar="-1" Cut="0.0000000000000000e+00" cType="1" res="2.0914807915687561e-02" rms="3.9511176943778992e-01" purity="7.3918145895004272e-01" nType="-99"/>
      </Node>
    </BinaryTree>
    <BinaryTree type="DecisionTree" boostWeight="1.0000000000000000e+00" itree="30">
      <Node pos="s" depth="0" NCoef="0" IVar="14" Cut="1.0000000000000000e+00" cType="1" res="5.4586876183748245e-02" rms="5.9993463754653931e-01" purity="5.0239711999893188e-01" nType="0">
        <Node pos="l" depth="1" NCoef="0" IVar="3" Cut="3.8857753753662109e+01" cType="1" res="-4.4750474393367767e-02" rms="4.0714478492736816e-01" purity="4.2623570561408997e-01" nType="0">
          <Node pos="l" depth="2" NCoef="0" IVar="-1" Cut="0.0000000000000000e+00" cType="1" res="-1.9846688956022263e-02" rms="3.8954672217369080e-01" purity="2.8849881887435913e-01" nType="-99"/>
          <Node pos="r" depth="2" NCoef="0" IVar="-1" Cut="0.0000000000000000e+00" cType="1" res="1.4466907596215606e-03" rms="4.2459359765052795e-01" purity="6.1294847726821899e-01" nType="-99"/>
        </Node>
        <Node pos="r" depth="1" NCoef="0" IVar="8" Cut="7.6300658285617828e-02" cType="1" res="3.6662094295024872e-02" rms="4.3455302715301514e-01" purity="5.6777328252792358e-01" nType="0">
          <Node pos="l" depth="2" NCoef="0" IVar="-1" Cut="0.0000000000000000e+00" cType="1" res="1.8784575164318085e-02" rms="4.2203456163406372e-01" purity="6.7954903841018677e-01" nType="-99"/>
          <Node pos="r" depth="2" NCoef="0" IVar="-1" Cut="0.0000000000000000e+00" cType="1" res="2.4752205354161561e-04" rms="4.4130626320838928e-01" purity="4.7671073675155640e-01" nType="-99"/>
        </Node>
      </Node>
    </BinaryTree>
    <BinaryTree type="DecisionTree" boostWeight="1.0000000000000000e+00" itree="31">
      <Node pos="s" depth="0" NCoef="0" IVar="7" Cut="1.1314576119184494e-01" cType="1" res="-8.9090708643198013e-03" rms="4.2162916064262390e-01" purity="4.8830926418304443e-01" nType="0">
        <Node pos="l" depth="1" NCoef="0" IVar="10" Cut="-5.5371171236038208e-01" cType="1" res="8.4901573136448860e-03" rms="4.2776650190353394e-01" purity="5.3249168395996094e-01" nType="0">
          <Node pos="l" depth="2" NCoef="0" IVar="-1" Cut="0.0000000000000000e+00" cType="1" res="-1.6204796731472015e-02" rms="4.4026812911033630e-01" purity="3.7680214643478394e-01" nType="-99"/>
          <Node pos="r" depth="2" NCoef="0" IVar="3" Cut="3.0183874130249023e+01" cType="1" res="2.8563994914293289e-02" rms="4.2221358418464661e-01" purity="5.7113188505172729e-01" nType="0">
            <Node pos="l" depth="3" NCoef="0" IVar="-1" Cut="0.0000000000000000e+00" cType="1" res="-6.2165954150259495e-03" rms="4.1760024428367615e-01" purity="3.7889513373374939e-01" nType="-99"/>
            <Node pos="r" depth="3" NCoef="0" IVar="5" Cut="1.0474602878093719e-01" cType="1" res="5.1283374428749084e-02" rms="4.2200183868408203e-01" purity="6.5016776323318481e-01" nType="0">
              <Node pos="l" depth="4" NCoef="0" IVar="-1" Cut="0.0000000000000000e+00" cType="1" res="2.0582281053066254e-02" rms="3.8948863744735718e-01" purity="7.5674736499786377e-01" nType="-99"/>
              <Node pos="r" depth="4" NCoef="0" IVar="-1" Cut="0.0000000000000000e+00" cType="1" res="4.6047545038163662e-03" rms="4.5112228393554688e-01" purity="5.3990226984024048e-01" nType="-99"/>
            </Node>
          </Node>
        </Node>
        <Node pos="r" depth="1" NCoef="0" IVar="-1" Cut="0.0000000000000000e+00" cType="1" res="-2.3059135302901268e-02" rms="3.7957721948623657e-01" purity="2.7496734261512756e-01" nType="-99"/>
      </Node>
    </BinaryTree>
    <BinaryTree type="DecisionTree" boostWeight="1.0000000000000000e+00" itree="32">
      <Node pos="s" depth="0" NCoef="0" IVar="4" Cut="1.0876148194074631e-01" cType="1" res="8.6802979931235313e-03" rms="4.2549118399620056e-01" purity="5.1145589351654053e-01" nType="0">
        <Node pos="l" depth="1" NCoef="0" IVar="14" Cut="3.0000000000000000e+00" cType="1" res="8.0883763730525970e-02" rms="6.4051884412765503e-01" purity="5.8235019445419312e-01" nType="0">
          <Node pos="l" depth="2" NCoef="0" IVar="-1" Cut="0.0000000000000000e+00" cType="1" res="-1.1322267819195986e-03" rms="4.1606277227401733e-01" purity="5.1313352584838867e-01" nType="-99"/>
          <Node pos="r" depth="2" NCoef="0" IVar="12" Cut="8.0000000000000000e+00" cType="1" res="1.8862898647785187e-01" rms="3.9214318990707397e-01" purity="6.5328598022460938e-01" nType="0">
            <Node pos="l" depth="3" NCoef="0" IVar="-1" Cut="0.0000000000000000e+00" cType="1" res="2.2978361696004868e-02" rms="4.1605409979820251e-01" purity="6.6246533393859863e-01" nType="-99"/>
            <Node pos="r" depth="3" NCoef="0" IVar="-1" Cut="0.0000000000000000e+00" cType="1" res="1.0477948002517223e-02" rms="4.3963420391082764e-01" purity="6.4288270473480225e-01" nType="-99"/>
          </Node>
        </Node>
        <Node pos="r" depth="1" NCoef="0" IVar="3" Cut="3.4883190155029297e+01" cType="1" res="-4.5633371919393539e-02" rms="4.2397484183311462e-01" purity="3.5725718736648560e-01" nType="0">
          <Node pos="l" depth="2" NCoef="0" IVar="-1" Cut="0.0000000000000000e+00" cType="1" res="-1.8518634140491486e-02" rms="3.8983038067817688e-01" purity="2.4746735394001007e-01" nType="-99"/>
          <Node pos="r" depth="2" NCoef="0" IVar="-1" Cut="0.0000000000000000e+00" cType="1" res="-3.8442339282482862e-03" rms="4.5376724004745483e-01" purity="4.6695864200592041e-01" nType="-99"/>
        </Node>
      </Node>
    </BinaryTree>
    <BinaryTree type="DecisionTree" boostWeight="1.0000000000000000e+00" itree="33">
      <Node pos="s" depth="0" NCoef="0" IVar="2" Cut="5.0228816270828247e-01" cType="1" res="-3.9097350090742111e-03" rms="4.2158034443855286e-01" purity="4.9365219473838806e-01" nType="0">
        <Node pos="l" depth="1" NCoef="0" IVar="5" Cut="1.0693039000034332e-01" cType="1" res="4.2043067514896393e-02" rms="4.1709423065185547e-01" purity="6.2836498022079468e-01" nType="0">
          <Node pos="l" depth="2" NCoef="0" IVar="-1" Cut="0.0000000000000000e+00" cType="1" res="1.9086832180619240e-02" rms="3.8656541705131531e-01" purity="7.6326286792755127e-01" nType="-99"/>
          <Node pos="r" depth="2" NCoef="0" IVar="-1" Cut="0.0000000000000000e+00" cType="1" res="2.6281788013875484e-03" rms="4.4164463877677917e-01" purity="5.0196415185928345e-01" nType="-99"/>
        </Node>
        <Node pos="r" depth="1" NCoef="0" IVar="4" Cut="6.9687239825725555e-02" cType="1" res="-3.0992796644568443e-02" rms="4.2186418175697327e-01" purity="4.1425693035125732e-01" nType="0">
          <Node pos="l" depth="2" NCoef="0" IVar="-1" Cut="0.0000000000000000e+00" cType="1" res="5.7283923961222172e-03" rms="4.2310893535614014e-01" purity="5.6919455528259277e-01" nType="-99"/>
          <Node pos="r" depth="2" NCoef="0" IVar="14" Cut="2.0000000000000000e+00" cType="1" res="9.0854696929454803e-02" rms="4.4180011749267578e-01" purity="3.4730458259582520e-01" nType="0">
            <Node pos="l" depth="3" NCoef="0" IVar="-1" Cut="0.0000000000000000e+00" cType="1" res="-2.0725155249238014e-02" rms="3.9131516218185425e-01" purity="2.8203383088111877e-01" nType="-99"/>
            <Node pos="r" depth="3" NCoef="0" IVar="-1" Cut="0.0000000000000000e+00" cType="1" res="-5.3754509426653385e-03" rms="4.4543620944023132e-01" purity="4.1889023780822754e-01" nType="-99"/>
          </Node>
        </Node>
      </Node>
    </BinaryTree>
    <BinaryTree type="DecisionTree" boostWeight="1.0000000000000000e+00" itree="34">
      <Node pos="s" depth="0" NCoef="0" IVar="4" Cut="9.9004782736301422e-02" cType="1" res="1.9438749877735972e-03" rms="4.2392566800117493e-01" purity="5.0019097328186035e-01" nType="0">
        <Node pos="l" depth="1" NCoef="0" IVar="7" Cut="6.5822049975395203e-02" cType="1" res="3.0080690979957581e-02" rms="4.2161247134208679e-01" purity="5.9078449010848999e-01" nType="0">
          <Node pos="l" depth="2" NCoef="0" IVar="8" Cut="7.5724706053733826e-02" cType="1" res="6.0673329979181290e-02" rms="4.1329917311668396e-01" purity="6.8091064691543579e-01" nType="0">
            <Node pos="l" depth="3" NCoef="0" IVar="-1" Cut="0.0000000000000000e+00" cType="1" res="2.0088398829102516e-02" rms="3.9044934511184692e-01" purity="7.4959290027618408e-01" nType="-99"/>
            <Node pos="r" depth="3" NCoef="0" IVar="-1" Cut="0.0000000000000000e+00" cType="1" res="9.2461472377181053e-03" rms="4.3643000721931458e-01" purity="6.0431915521621704e-01" nType="-99"/>
          </Node>
          <Node pos="r" depth="2" NCoef="0" IVar="-1" Cut="0.0000000000000000e+00" cType="1" res="-3.4949956461787224e-03" rms="4.2959845066070557e-01" purity="4.5849585533142090e-01" nType="-99"/>
        </Node>
        <Node pos="r" depth="1" NCoef="0" IVar="4" Cut="1.3632649183273315e-01" cType="1" res="-4.3267410248517990e-02" rms="4.2372116446495056e-01" purity="3.5462203621864319e-01" nType="0">
          <Node pos="l" depth="2" NCoef="0" IVar="-1" Cut="0.0000000000000000e+00" cType="1" res="-4.4281734153628349e-03" rms="4.3317642807960510e-01" purity="3.9856913685798645e-01" nType="-99"/>
          <Node pos="r" depth="2" NCoef="0" IVar="-1" Cut="0.0000000000000000e+00" cType="1" res="-1.8778504803776741e-02" rms="4.0775665640830994e-01" purity="2.9347291588783264e-01" nType="-99"/>
        </Node>
      </Node>
    </BinaryTree>
    <BinaryTree type="DecisionTree" boostWeight="1.0000000000000000e+00" itree="35">
      <Node pos="s" depth="0" NCoef="0" IVar="10" Cut="-5.9844785928726196e-01" cType="1" res="-4.3853092938661575e-03" rms="4.2183491587638855e-01" purity="4.9234905838966370e-01" nType="0">
        <Node pos="l" depth="1" NCoef="0" IVar="-1" Cut="0.0000000000000000e+00" cType="1" res="-1.6925603151321411e-02" rms="4.2530518770217896e-01" purity="3.4593430161476135e-01" nType="-99"/>
        <Node pos="r" depth="1" NCoef="0" IVar="1" Cut="5.1066141128540039e+00" cType="1" res="1.2055020779371262e-02" rms="4.1933649778366089e-01" purity="5.2752387523651123e-01" nType="0">
          <Node pos="l" depth="2" NCoef="0" IVar="0" Cut="7.4838006591796875e+02" cType="1" res="4.4298723340034485e-02" rms="4.2706608772277832e-01" purity="5.8863019943237305e-01" nType="0">
            <Node pos="l" depth="3" NCoef="0" IVar="-1" Cut="0.0000000000000000e+00" cType="1" res="2.2851114626973867e-03" rms="4.4304889440536499e-01" purity="4.7248330712318420e-01" nType="-99"/>
            <Node pos="r" depth="3" NCoef="0" IVar="-1" Cut="0.0000000000000000e+00" cType="1" res="2.3201776668429375e-02" rms="3.9897340536117554e-01" purity="7.4961090087890625e-01" nType="-99"/>
          </Node>
          <Node pos="r" depth="2" NCoef="0" IVar="-1" Cut="0.0000000000000000e+00" cType="1" res="-1.0134684853255749e-02" rms="4.0058091282844543e-01" purity="4.2649161815643311e-01" nType="-99"/>
        </Node>
      </Node>
    </BinaryTree>
    <BinaryTree type="DecisionTree" boostWeight="1.0000000000000000e+00" itree="36">
      <Node pos="s" depth="0" NCoef="0" IVar="8" Cut="1.0184276103973389e-01" cType="1" res="-5.9418925084173679e-03" rms="4.1927203536033630e-01" purity="4.9138301610946655e-01" nType="0">
        <Node pos="l" depth="1" NCoef="0" IVar="10" Cut="3.7046512961387634e-01" cType="1" res="1.7878822982311249e-02" rms="4.2241987586021423e-01" purity="5.5594700574874878e-01" nType="0">
          <Node pos="l" depth="2" NCoef="0" IVar="14" Cut="5.0000000000000000e+00" cType="1" res="5.1397614181041718e-02" rms="2.2415186464786530e-01" purity="4.8767539858818054e-01" nType="0">
            <Node pos="l" depth="3" NCoef="0" IVar="-1" Cut="0.0000000000000000e+00" cType="1" res="-1.2561971321702003e-02" rms="4.1600614786148071e-01" purity="3.9147359132766724e-01" nType="-99"/>
            <Node pos="r" depth="3" NCoef="0" IVar="-1" Cut="0.0000000000000000e+00" cType="1" res="5.3751962259411812e-03" rms="4.5510631799697876e-01" purity="5.8747965097427368e-01" nType="-99"/>
          </Node>
          <Node pos="r" depth="2" NCoef="0" IVar="-1" Cut="0.0000000000000000e+00" cType="1" res="1.3229136355221272e-02" rms="4.0302637219429016e-01" purity="6.2858796119689941e-01" nType="-99"/>
        </Node>
        <Node pos="r" depth="1" NCoef="0" IVar="5" Cut="1.3164986670017242e-01" cType="1" res="-5.2984714508056641e-02" rms="4.0892910957336426e-01" purity="3.6387756466865540e-01" nType="0">
          <Node pos="l" depth="2" NCoef="0" IVar="-1" Cut="0.0000000000000000e+00" cType="1" res="-5.6148883886635303e-03" rms="4.3428722023963928e-01" purity="4.7969636321067810e-01" nType="-99"/>
          <Node pos="r" depth="2" NCoef="0" IVar="-1" Cut="0.0000000000000000e+00" cType="1" res="-2.2237392142415047e-02" rms="3.7418717145919800e-01" purity="2.2807221114635468e-01" nType="-99"/>
        </Node>
      </Node>
    </BinaryTree>
    <BinaryTree type="DecisionTree" boostWeight="1.0000000000000000e+00" itree="37">
      <Node pos="s" depth="0" NCoef="0" IVar="5" Cut="8.0062136054039001e-02" cType="1" res="1.8837543902918696e-03" rms="4.1936090588569641e-01" purity="5.0017642974853516e-01" nType="0">
        <Node pos="l" depth="1" NCoef="0" IVar="-1" Cut="0.0000000000000000e+00" cType="1" res="1.8502024933695793e-02" rms="3.8587167859077454e-01" purity="7.2960442304611206e-01" nType="-99"/>
        <Node pos="r" depth="1" NCoef="0" IVar="1" Cut="5.0806689262390137e+00" cType="1" res="-1.6580933704972267e-02" rms="4.2581316828727722e-01" purity="4.3984851241111755e-01" nType="0">
          <Node pos="l" depth="2" NCoef="0" IVar="12" Cut="1.0000000000000000e+01" cType="1" res="1.9504679739475250e-01" rms="3.0277544260025024e-01" purity="4.8937699198722839e-01" nType="0">
            <Node pos="l" depth="3" NCoef="0" IVar="0" Cut="6.4833892822265625e+02" cType="1" res="3.5599675029516220e-02" rms="4.3720778822898865e-01" purity="5.1626038551330566e-01" nType="0">
              <Node pos="l" depth="4" NCoef="0" IVar="-1" Cut="0.0000000000000000e+00" cType="1" res="-4.1246968321502209e-03" rms="4.4151464104652405e-01" purity="3.8045182824134827e-01" nType="-99"/>
              <Node pos="r" depth="4" NCoef="0" IVar="-1" Cut="0.0000000000000000e+00" cType="1" res="2.1843293681740761e-02" rms="4.2491555213928223e-01" purity="6.6469228267669678e-01" nType="-99"/>
            </Node>
            <Node pos="r" depth="3" NCoef="0" IVar="-1" Cut="0.0000000000000000e+00" cType="1" res="-1.2919874861836433e-02" rms="4.4469591975212097e-01" purity="4.3063071370124817e-01" nType="-99"/>
          </Node>
          <Node pos="r" depth="2" NCoef="0" IVar="-1" Cut="0.0000000000000000e+00" cType="1" res="-1.4967014081776142e-02" rms="3.9074048399925232e-01" purity="3.4709843993186951e-01" nType="-99"/>
        </Node>
      </Node>
    </BinaryTree>
    <BinaryTree type="DecisionTree" boostWeight="1.0000000000000000e+00" itree="38">
      <Node pos="s" depth="0" NCoef="0" IVar="7" Cut="4.9940530210733414e-02" cType="1" res="2.5778522249311209e-03" rms="4.1920852661132812e-01" purity="5.0407391786575317e-01" nType="0">
        <Node pos="l" depth="1" NCoef="0" IVar="9" Cut="2.9029681396484375e+02" cType="1" res="4.6678941696882248e-02" rms="4.2054978013038635e-01" purity="6.3697445392608643e-01" nType="0">
          <Node pos="l" depth="2" NCoef="0" IVar="-1" Cut="0.0000000000000000e+00" cType="1" res="3.7551962304860353e-03" rms="4.3796458840370178e-01" purity="5.4378235340118408e-01" nType="-99"/>
          <Node pos="r" depth="2" NCoef="0" IVar="-1" Cut="0.0000000000000000e+00" cType="1" res="1.6811216250061989e-02" rms="4.0681982040405273e-01" purity="7.0105767250061035e-01" nType="-99"/>
        </Node>
        <Node pos="r" depth="1" NCoef="0" IVar="9" Cut="3.1854852294921875e+02" cType="1" res="-2.6779841631650925e-02" rms="4.1572758555412292e-01" purity="4.1560325026512146e-01" nType="0">
          <Node pos="l" depth="2" NCoef="0" IVar="5" Cut="1.3231147825717926e-01" cType="1" res="-5.4428011178970337e-02" rms="4.0789371728897095e-01" purity="3.3066195249557495e-01" nType="0">
            <Node pos="l" depth="3" NCoef="0" IVar="-1" Cut="0.0000000000000000e+00" cType="1" res="-8.7096542119979858e-03" rms="4.2696645855903625e-01" purity="4.2247468233108521e-01" nType="-99"/>
            <Node pos="r" depth="3" NCoef="0" IVar="-1" Cut="0.0000000000000000e+00" cType="1" res="-1.8907474353909492e-02" rms="3.8559296727180481e-01" purity="2.3253741860389709e-01" nType="-99"/>
          </Node>
          <Node pos="r" depth="2" NCoef="0" IVar="-1" Cut="0.0000000000000000e+00" cType="1" res="2.2075597662478685e-03" rms="4.2299467325210571e-01" purity="5.2586513757705688e-01" nType="-99"/>
        </Node>
      </Node>
    </BinaryTree>
    <BinaryTree type="DecisionTree" boostWeight="1.0000000000000000e+00" itree="39">
      <Node pos="s" depth="0" NCoef="0" IVar="5" Cut="1.7230594158172607e-01" cType="1" res="-1.5400141710415483e-03" rms="4.2107284069061279e-01" purity="4.9400395154953003e-01" nType="0">
        <Node pos="l" depth="1" NCoef="0" IVar="2" Cut="1.1212800741195679e+00" cType="1" res="1.2326217256486416e-02" rms="4.2545536160469055e-01" purity="5.3917562961578369e-01" nType="0">
          <Node pos="l" depth="2" NCoef="0" IVar="12" Cut="1.1000000000000000e+01" cType="1" res="1.8383079767227173e-01" rms="3.1545427441596985e-01" purity="6.1070704460144043e-01" nType="0">
            <Node pos="l" depth="3" NCoef="0" IVar="14" Cut="2.0000000000000000e+00" cType="1" res="1.8971829116344452e-01" rms="7.6844191551208496e-01" purity="6.2675881385803223e-01" nType="0">
              <Node pos="l" depth="4" NCoef="0" IVar="-1" Cut="0.0000000000000000e+00" cType="1" res="3.6347040440887213e-03" rms="4.1860365867614746e-01" purity="5.5866044759750366e-01" nType="-99"/>
              <Node pos="r" depth="4" NCoef="0" IVar="-1" Cut="0.0000000000000000e+00" cType="1" res="1.7839154228568077e-02" rms="4.1826710104942322e-01" purity="6.8905985355377197e-01" nType="-99"/>
            </Node>
            <Node pos="r" depth="3" NCoef="0" IVar="-1" Cut="0.0000000000000000e+00" cType="1" res="-5.5623617954552174e-03" rms="4.4686865806579590e-01" purity="5.6550008058547974e-01" nType="-99"/>
          </Node>
          <Node pos="r" depth="2" NCoef="0" IVar="-1" Cut="0.0000000000000000e+00" cType="1" res="-8.9733544737100601e-03" rms="4.1380050778388977e-01" purity="3.0909392237663269e-01" nType="-99"/>
        </Node>
        <Node pos="r" depth="1" NCoef="0" IVar="-1" Cut="0.0000000000000000e+00" cType="1" res="-1.6543984413146973e-02" rms="3.9359515905380249e-01" purity="2.8330096602439880e-01" nType="-99"/>
      </Node>
    </BinaryTree>
    <BinaryTree type="DecisionTree" boostWeight="1.0000000000000000e+00" itree="40">
      <Node pos="s" depth="0" NCoef="0" IVar="2" Cut="1.3698918819427490e+00" cType="1" res="5.9278919361531734e-03" rms="4.2269113659858704e-01" purity="5.0554192066192627e-01" nType="0">
        <Node pos="l" depth="1" NCoef="0" IVar="7" Cut="3.8243636488914490e-02" cType="1" res="2.0472772419452667e-02" rms="4.2879492044448853e-01" purity="5.5720657110214233e-01" nType="0">
          <Node pos="l" depth="2" NCoef="0" IVar="-1" Cut="0.0000000000000000e+00" cType="1" res="1.7708403989672661e-02" rms="4.2425602674484253e-01" purity="6.9407916069030762e-01" nType="-99"/>
          <Node pos="r" depth="2" NCoef="0" IVar="0" Cut="7.8962194824218750e+02" cType="1" res="7.5057585490867496e-04" rms="4.2887952923774719e-01" purity="5.0490671396255493e-01" nType="0">
            <Node pos="l" depth="3" NCoef="0" IVar="5" Cut="1.1962352693080902e-01" cType="1" res="-2.5459745898842812e-02" rms="4.3776977062225342e-01" purity="4.0301343798637390e-01" nType="0">
              <Node pos="l" depth="4" NCoef="0" IVar="-1" Cut="0.0000000000000000e+00" cType="1" res="-8.5689267143607140e-04" rms="4.5250359177589417e-01" purity="5.1276147365570068e-01" nType="-99"/>
              <Node pos="r" depth="4" NCoef="0" IVar="-1" Cut="0.0000000000000000e+00" cType="1" res="-1.0973142459988594e-02" rms="4.2316776514053345e-01" purity="3.0453979969024658e-01" nType="-99"/>
            </Node>
            <Node pos="r" depth="3" NCoef="0" IVar="-1" Cut="0.0000000000000000e+00" cType="1" res="7.2809364646673203e-03" rms="4.1690814495086670e-01" purity="6.1763870716094971e-01" nType="-99"/>
          </Node>
        </Node>
        <Node pos="r" depth="1" NCoef="0" IVar="-1" Cut="0.0000000000000000e+00" cType="1" res="-1.9349584355950356e-02" rms="3.7761393189430237e-01" purity="2.2187156975269318e-01" nType="-99"/>
      </Node>
    </BinaryTree>
    <BinaryTree type="DecisionTree" boostWeight="1.0000000000000000e+00" itree="41">
      <Node pos="s" depth="0" NCoef="0" IVar="14" Cut="2.0000000000000000e+00" cType="1" res="7.7275656163692474e-02" rms="7.0487958192825317e-01" purity="5.0292235612869263e-01" nType="0">
        <Node pos="l" depth="1" NCoef="0" IVar="9" Cut="2.9404330444335938e+02" cType="1" res="-2.7116376906633377e-02" rms="4.0292948484420776e-01" purity="4.3227028846740723e-01" nType="0">
          <Node pos="l" depth="2" NCoef="0" IVar="-1" Cut="0.0000000000000000e+00" cType="1" res="-1.8268724903464317e-02" rms="3.9146223664283752e-01" purity="3.0994474887847900e-01" nType="-99"/>
          <Node pos="r" depth="2" NCoef="0" IVar="-1" Cut="0.0000000000000000e+00" cType="1" res="2.7895229868590832e-03" rms="4.0871709585189819e-01" purity="5.3793078660964966e-01" nType="-99"/>
        </Node>
        <Node pos="r" depth="1" NCoef="0" IVar="0" Cut="7.4838140869140625e+02" cType="1" res="3.0194204300642014e-02" rms="4.3170621991157532e-01" purity="5.7168048620223999e-01" nType="0">
          <Node pos="l" depth="2" NCoef="0" IVar="-1" Cut="0.0000000000000000e+00" cType="1" res="8.2662707427516580e-04" rms="4.4539311528205872e-01" purity="4.6811428666114807e-01" nType="-99"/>
          <Node pos="r" depth="2" NCoef="0" IVar="-1" Cut="0.0000000000000000e+00" cType="1" res="1.7182497307658195e-02" rms="4.0903422236442566e-01" purity="7.1577835083007812e-01" nType="-99"/>
        </Node>
      </Node>
    </BinaryTree>
    <BinaryTree type="DecisionTree" boostWeight="1.0000000000000000e+00" itree="42">
      <Node pos="s" depth="0" NCoef="0" IVar="0" Cut="1.3582036132812500e+03" cType="1" res="1.7059019301086664e-03" rms="4.1839957237243652e-01" purity="5.0317144393920898e-01" nType="0">
        <Node pos="l" depth="1" NCoef="0" IVar="1" Cut="4.3288331031799316e+00" cType="1" res="-1.4481333084404469e-02" rms="4.2330655455589294e-01" purity="4.4530797004699707e-01" nType="0">
          <Node pos="l" depth="2" NCoef="0" IVar="12" Cut="8.0000000000000000e+00" cType="1" res="1.9627919793128967e-01" rms="-nan" purity="5.5371391773223877e-01" nType="0">
            <Node pos="l" depth="3" NCoef="0" IVar="-1" Cut="0.0000000000000000e+00" cType="1" res="1.3025951571762562e-02" rms="4.3645212054252625e-01" purity="5.8932971954345703e-01" nType="-99"/>
            <Node pos="r" depth="3" NCoef="0" IVar="-1" Cut="0.0000000000000000e+00" cType="1" res="-4.2556221596896648e-03" rms="4.4826686382293701e-01" purity="5.2300989627838135e-01" nType="-99"/>
          </Node>
          <Node pos="r" depth="2" NCoef="0" IVar="-1" Cut="0.0000000000000000e+00" cType="1" res="-1.1693454347550869e-02" rms="3.9810782670974731e-01" purity="3.3385640382766724e-01" nType="-99"/>
        </Node>
        <Node pos="r" depth="1" NCoef="0" IVar="-1" Cut="0.0000000000000000e+00" cType="1" res="1.7102055251598358e-02" rms="3.9157253503799438e-01" purity="7.3433673381805420e-01" nType="-99"/>
      </Node>
    </BinaryTree>
    <BinaryTree type="DecisionTree" boostWeight="1.0000000000000000e+00" itree="43">
      <Node pos="s" depth="0" NCoef="0" IVar="10" Cut="8.9750982820987701e-02" cType="1" res="1.4679669402539730e-03" rms="4.1793271899223328e-01" purity="5.0260096788406372e-01" nType="0">
        <Node pos="l" depth="1" NCoef="0" IVar="1" Cut="4.0249619483947754e+00" cType="1" res="-3.9200209081172943e-02" rms="4.2849573493003845e-01" purity="4.1464841365814209e-01" nType="0">
          <Node pos="l" depth="2" NCoef="0" IVar="-1" Cut="0.0000000000000000e+00" cType="1" res="-2.0992953795939684e-03" rms="4.5498779416084290e-01" purity="5.0587314367294312e-01" nType="-99"/>
          <Node pos="r" depth="2" NCoef="0" IVar="-1" Cut="0.0000000000000000e+00" cType="1" res="-1.8588608130812645e-02" rms="3.9368101954460144e-01" purity="3.1155231595039368e-01" nType="-99"/>
        </Node>
        <Node pos="r" depth="1" NCoef="0" IVar="9" Cut="2.9404330444335938e+02" cType="1" res="2.8567958623170853e-02" rms="4.0850132703781128e-01" purity="5.6120985746383667e-01" nType="0">
          <Node pos="l" depth="2" NCoef="0" IVar="-1" Cut="0.0000000000000000e+00" cType="1" res="-1.5665448736399412e-03" rms="4.2114928364753723e-01" purity="4.3229141831398010e-01" nType="-99"/>
          <Node pos="r" depth="2" NCoef="0" IVar="-1" Cut="0.0000000000000000e+00" cType="1" res="1.5864517539739609e-02" rms="3.9349007606506348e-01" purity="6.8203771114349365e-01" nType="-99"/>
        </Node>
      </Node>
    </BinaryTree>
    <BinaryTree type="DecisionTree" boostWeight="1.0000000000000000e+00" itree="44">
      <Node pos="s" depth="0" NCoef="0" IVar="3" Cut="3.0237037658691406e+01" cType="1" res="2.5883202906697989e-03" rms="4.1839289665222168e-01" purity="5.0574386119842529e-01" nType="0">
        <Node pos="l" depth="1" NCoef="0" IVar="-1" Cut="0.0000000000000000e+00" cType="1" res="-9.3816397711634636e-03" rms="4.0075621008872986e-01" purity="3.2117286324501038e-01" nType="-99"/>
        <Node pos="r" depth="1" NCoef="0" IVar="10" Cut="5.3245955705642700e-01" cType="1" res="2.0647551864385605e-02" rms="4.2492994666099548e-01" purity="5.8952033519744873e-01" nType="0">
          <Node pos="l" depth="2" NCoef="0" IVar="12" Cut="9.0000000000000000e+00" cType="1" res="1.9422739744186401e-01" rms="3.6163371801376343e-01" purity="5.3769069910049438e-01" nType="0">
            <Node pos="l" depth="3" NCoef="0" IVar="-1" Cut="0.0000000000000000e+00" cType="1" res="5.1973736844956875e-03" rms="4.3094193935394287e-01" purity="5.5563426017761230e-01" nType="-99"/>
            <Node pos="r" depth="3" NCoef="0" IVar="-1" Cut="0.0000000000000000e+00" cType="1" res="-1.0076232254505157e-02" rms="4.5192295312881470e-01" purity="5.1145750284194946e-01" nType="-99"/>
          </Node>
          <Node pos="r" depth="2" NCoef="0" IVar="-1" Cut="0.0000000000000000e+00" cType="1" res="1.3079178519546986e-02" rms="4.0264675021171570e-01" purity="6.5308475494384766e-01" nType="-99"/>
        </Node>
      </Node>
    </BinaryTree>
    <BinaryTree type="DecisionTree" boostWeight="1.0000000000000000e+00" itree="45">
      <Node pos="s" depth="0" NCoef="0" IVar="5" Cut="1.6030161082744598e-01" cType="1" res="5.0667638424783945e-04" rms="4.1913378238677979e-01" purity="5.0178813934326172e-01" nType="0">
        <Node pos="l" depth="1" NCoef="0" IVar="7" Cut="6.3064038753509521e-02" cType="1" res="1.3902901671826839e-02" rms="4.2238655686378479e-01" purity="5.5759042501449585e-01" nType="0">
          <Node pos="l" depth="2" NCoef="0" IVar="4" Cut="9.3101501464843750e-02" cType="1" res="3.5980679094791412e-02" rms="4.1845545172691345e-01" purity="6.5300220251083374e-01" nType="0">
            <Node pos="l" depth="3" NCoef="0" IVar="-1" Cut="0.0000000000000000e+00" cType="1" res="1.4344369061291218e-02" rms="3.9816036820411682e-01" purity="7.3424142599105835e-01" nType="-99"/>
            <Node pos="r" depth="3" NCoef="0" IVar="-1" Cut="0.0000000000000000e+00" cType="1" res="1.3026538072153926e-03" rms="4.4865500926971436e-01" purity="5.1743328571319580e-01" nType="-99"/>
          </Node>
          <Node pos="r" depth="2" NCoef="0" IVar="9" Cut="3.2522415161132812e+02" cType="1" res="-1.3168105855584145e-02" rms="4.2559710144996643e-01" purity="4.4059967994689941e-01" nType="0">
            <Node pos="l" depth="3" NCoef="0" IVar="-1" Cut="0.0000000000000000e+00" cType="1" res="-8.9957816526293755e-03" rms="4.2533355951309204e-01" purity="3.5203176736831665e-01" nType="-99"/>
            <Node pos="r" depth="3" NCoef="0" IVar="-1" Cut="0.0000000000000000e+00" cType="1" res="3.9971075020730495e-03" rms="4.2410632967948914e-01" purity="5.5421948432922363e-01" nType="-99"/>
          </Node>
        </Node>
        <Node pos="r" depth="1" NCoef="0" IVar="-1" Cut="0.0000000000000000e+00" cType="1" res="-1.1428962461650372e-02" rms="4.0444141626358032e-01" purity="3.1059333682060242e-01" nType="-99"/>
      </Node>
    </BinaryTree>
    <BinaryTree type="DecisionTree" boostWeight="1.0000000000000000e+00" itree="46">
      <Node pos="s" depth="0" NCoef="0" IVar="2" Cut="6.3153481483459473e-01" cType="1" res="-7.5344024226069450e-03" rms="4.1540646553039551e-01" purity="4.9089244008064270e-01" nType="0">
        <Node pos="l" depth="1" NCoef="0" IVar="12" Cut="1.0000000000000000e+01" cType="1" res="1.7320385575294495e-01" rms="4.0467283129692078e-01" purity="6.2216514348983765e-01" nType="0">
          <Node pos="l" depth="2" NCoef="0" IVar="-1" Cut="0.0000000000000000e+00" cType="1" res="1.1070945300161839e-02" rms="4.0809068083763123e-01" purity="6.4133065938949585e-01" nType="-99"/>
          <Node pos="r" depth="2" NCoef="0" IVar="-1" Cut="0.0000000000000000e+00" cType="1" res="-5.9137567877769470e-03" rms="4.2618358135223389e-01" purity="5.8597499132156372e-01" nType="-99"/>
        </Node>
        <Node pos="r" depth="1" NCoef="0" IVar="1" Cut="4.6293206214904785e+00" cType="1" res="-3.0962234362959862e-02" rms="4.1372635960578918e-01" purity="3.8109070062637329e-01" nType="0">
          <Node pos="l" depth="2" NCoef="0" IVar="-1" Cut="0.0000000000000000e+00" cType="1" res="1.0354762343922630e-04" rms="4.4514915347099304e-01" purity="4.6256434917449951e-01" nType="-99"/>
          <Node pos="r" depth="2" NCoef="0" IVar="-1" Cut="0.0000000000000000e+00" cType="1" res="-1.6217678785324097e-02" rms="3.7847697734832764e-01" purity="3.0243775248527527e-01" nType="-99"/>
        </Node>
      </Node>
    </BinaryTree>
    <BinaryTree type="DecisionTree" boostWeight="1.0000000000000000e+00" itree="47">
      <Node pos="s" depth="0" NCoef="0" IVar="5" Cut="1.5820945799350739e-01" cType="1" res="8.0971239367499948e-04" rms="4.1678628325462341e-01" purity="5.0213211774826050e-01" nType="0">
        <Node pos="l" depth="1" NCoef="0" IVar="0" Cut="8.7910229492187500e+02" cType="1" res="1.4753693714737892e-02" rms="4.1912317276000977e-01" purity="5.6427770853042603e-01" nType="0">
          <Node pos="l" depth="2" NCoef="0" IVar="0" Cut="5.5966510009765625e+02" cType="1" res="-8.2317553460597992e-03" rms="4.3334043025970459e-01" purity="4.5732358098030090e-01" nType="0">
            <Node pos="l" depth="3" NCoef="0" IVar="-1" Cut="0.0000000000000000e+00" cType="1" res="-8.8148377835750580e-03" rms="4.3766567111015320e-01" purity="3.9839616417884827e-01" nType="-99"/>
            <Node pos="r" depth="3" NCoef="0" IVar="-1" Cut="0.0000000000000000e+00" cType="1" res="3.4099651966243982e-03" rms="4.2863076925277710e-01" purity="5.0303339958190918e-01" nType="-99"/>
          </Node>
          <Node pos="r" depth="2" NCoef="0" IVar="2" Cut="6.2309700250625610e-01" cType="1" res="4.3398465961217880e-02" rms="3.9885029196739197e-01" purity="6.9756537675857544e-01" nType="0">
            <Node pos="l" depth="3" NCoef="0" IVar="-1" Cut="0.0000000000000000e+00" cType="1" res="1.5471441671252251e-02" rms="3.7144783139228821e-01" purity="7.8745001554489136e-01" nType="-99"/>
            <Node pos="r" depth="3" NCoef="0" IVar="-1" Cut="0.0000000000000000e+00" cType="1" res="7.6395631767809391e-03" rms="4.2748448252677917e-01" purity="5.9567165374755859e-01" nType="-99"/>
          </Node>
        </Node>
        <Node pos="r" depth="1" NCoef="0" IVar="-1" Cut="0.0000000000000000e+00" cType="1" res="-1.0688800364732742e-02" rms="4.0644878149032593e-01" purity="3.0978950858116150e-01" nType="-99"/>
      </Node>
    </BinaryTree>
    <BinaryTree type="DecisionTree" boostWeight="1.0000000000000000e+00" itree="48">
      <Node pos="s" depth="0" NCoef="0" IVar="1" Cut="5.0660419464111328e+00" cType="1" res="5.3224619477987289e-04" rms="4.1562807559967041e-01" purity="4.9891868233680725e-01" nType="0">
        <Node pos="l" depth="1" NCoef="0" IVar="10" Cut="-3.1497102230787277e-02" cType="1" res="1.9690662622451782e-02" rms="4.2706975340843201e-01" purity="5.4612326622009277e-01" nType="0">
          <Node pos="l" depth="2" NCoef="0" IVar="-1" Cut="0.0000000000000000e+00" cType="1" res="-4.1624661535024643e-03" rms="4.3697392940521240e-01" purity="4.4520384073257446e-01" nType="-99"/>
          <Node pos="r" depth="2" NCoef="0" IVar="12" Cut="9.0000000000000000e+00" cType="1" res="1.7584784328937531e-01" rms="3.8104388117790222e-01" purity="6.2859582901000977e-01" nType="0">
            <Node pos="l" depth="3" NCoef="0" IVar="-1" Cut="0.0000000000000000e+00" cType="1" res="1.8946589902043343e-02" rms="4.0720731019973755e-01" purity="6.4447784423828125e-01" nType="-99"/>
            <Node pos="r" depth="3" NCoef="0" IVar="-1" Cut="0.0000000000000000e+00" cType="1" res="5.0222291611135006e-03" rms="4.2572775483131409e-01" purity="6.0845315456390381e-01" nType="-99"/>
          </Node>
        </Node>
        <Node pos="r" depth="1" NCoef="0" IVar="-1" Cut="0.0000000000000000e+00" cType="1" res="-9.1081289574503899e-03" rms="3.9122620224952698e-01" purity="4.1193911433219910e-01" nType="-99"/>
      </Node>
    </BinaryTree>
    <BinaryTree type="DecisionTree" boostWeight="1.0000000000000000e+00" itree="49">
      <Node pos="s" depth="0" NCoef="0" IVar="7" Cut="8.9016228914260864e-02" cType="1" res="-1.8978677690029144e-03" rms="4.1782096028327942e-01" purity="4.9801984429359436e-01" nType="0">
        <Node pos="l" depth="1" NCoef="0" IVar="10" Cut="1.7437060177326202e-01" cType="1" res="1.2719943188130856e-02" rms="4.2661136388778687e-01" purity="5.6533735990524292e-01" nType="0">
          <Node pos="l" depth="2" NCoef="0" IVar="12" Cut="8.0000000000000000e+00" cType="1" res="1.9974599778652191e-01" rms="4.0390351414680481e-01" purity="4.8429983854293823e-01" nType="0">
            <Node pos="l" depth="3" NCoef="0" IVar="-1" Cut="0.0000000000000000e+00" cType="1" res="3.3687932882457972e-03" rms="4.3926769495010376e-01" purity="5.2260953187942505e-01" nType="-99"/>
            <Node pos="r" depth="3" NCoef="0" IVar="-1" Cut="0.0000000000000000e+00" cType="1" res="-1.0498215444386005e-02" rms="4.5198678970336914e-01" purity="4.4642364978790283e-01" nType="-99"/>
          </Node>
          <Node pos="r" depth="2" NCoef="0" IVar="3" Cut="4.0474365234375000e+01" cType="1" res="3.3956084400415421e-02" rms="4.0943428874015808e-01" purity="6.2693679332733154e-01" nType="0">
            <Node pos="l" depth="3" NCoef="0" IVar="-1" Cut="0.0000000000000000e+00" cType="1" res="4.0986887179315090e-03" rms="4.3519720435142517e-01" purity="4.8468130826950073e-01" nType="-99"/>
            <Node pos="r" depth="3" NCoef="0" IVar="-1" Cut="0.0000000000000000e+00" cType="1" res="1.4176160097122192e-02" rms="3.8139307498931885e-01" purity="7.6829600334167480e-01" nType="-99"/>
          </Node>
        </Node>
        <Node pos="r" depth="1" NCoef="0" IVar="-1" Cut="0.0000000000000000e+00" cType="1" res="-1.0617061518132687e-02" rms="3.9148676395416260e-01" purity="3.2289513945579529e-01" nType="-99"/>
      </Node>
    </BinaryTree>
    <BinaryTree type="DecisionTree" boostWeight="1.0000000000000000e+00" itree="50">
      <Node pos="s" depth="0" NCoef="0" IVar="0" Cut="1.3582060546875000e+03" cType="1" res="3.6297452170401812e-03" rms="4.1569375991821289e-01" purity="5.0281095504760742e-01" nType="0">
        <Node pos="l" depth="1" NCoef="0" IVar="6" Cut="5.7897743225097656e+01" cType="1" res="-1.0820763185620308e-02" rms="4.2105391621589661e-01" purity="4.4472372531890869e-01" nType="0">
          <Node pos="l" depth="2" NCoef="0" IVar="11" Cut="4.0000000000000000e+00" cType="1" res="-3.3840622752904892e-02" rms="3.7429761886596680e-01" purity="3.0852058529853821e-01" nType="0">
            <Node pos="l" depth="3" NCoef="0" IVar="-1" Cut="0.0000000000000000e+00" cType="1" res="-2.1973574534058571e-02" rms="3.5926511883735657e-01" purity="2.2334390878677368e-01" nType="-99"/>
            <Node pos="r" depth="3" NCoef="0" IVar="-1" Cut="0.0000000000000000e+00" cType="1" res="1.5463780146092176e-03" rms="4.4831275939941406e-01" purity="4.1990584135055542e-01" nType="-99"/>
          </Node>
          <Node pos="r" depth="2" NCoef="0" IVar="13" Cut="1.0000000000000000e+01" cType="1" res="2.1692790091037750e-02" rms="3.7002164125442505e-01" purity="6.2130874395370483e-01" nType="0">
            <Node pos="l" depth="3" NCoef="0" IVar="-1" Cut="0.0000000000000000e+00" cType="1" res="1.6269953921437263e-02" rms="4.3133205175399780e-01" purity="6.6810202598571777e-01" nType="-99"/>
            <Node pos="r" depth="3" NCoef="0" IVar="-1" Cut="0.0000000000000000e+00" cType="1" res="-2.9963948763906956e-03" rms="4.4687858223915100e-01" purity="5.6808596849441528e-01" nType="-99"/>
          </Node>
        </Node>
        <Node pos="r" depth="1" NCoef="0" IVar="-1" Cut="0.0000000000000000e+00" cType="1" res="1.6173603013157845e-02" rms="3.8849550485610962e-01" purity="7.3292839527130127e-01" nType="-99"/>
      </Node>
    </BinaryTree>
    <BinaryTree type="DecisionTree" boostWeight="1.0000000000000000e+00" itree="51">
      <Node pos="s" depth="0" NCoef="0" IVar="4" Cut="1.3921993970870972e-01" cType="1" res="4.4470280408859253e-03" rms="4.1540113091468811e-01" purity="5.0168734788894653e-01" nType="0">
        <Node pos="l" depth="1" NCoef="0" IVar="1" Cut="5.0695738792419434e+00" cType="1" res="1.4319830574095249e-02" rms="4.1714957356452942e-01" purity="5.3648281097412109e-01" nType="0">
          <Node pos="l" depth="2" NCoef="0" IVar="10" Cut="4.0528047084808350e-01" cType="1" res="3.0987076461315155e-02" rms="4.2706742882728577e-01" purity="5.8458012342453003e-01" nType="0">
            <Node pos="l" depth="3" NCoef="0" IVar="13" Cut="1.0000000000000000e+01" cType="1" res="1.4537262916564941e-01" rms="6.0497558116912842e-01" purity="5.2623742818832397e-01" nType="0">
              <Node pos="l" depth="4" NCoef="0" IVar="-1" Cut="0.0000000000000000e+00" cType="1" res="7.7456128783524036e-03" rms="4.3860849738121033e-01" purity="5.3094911575317383e-01" nType="-99"/>
              <Node pos="r" depth="4" NCoef="0" IVar="-1" Cut="0.0000000000000000e+00" cType="1" res="-2.8890527319163084e-03" rms="4.4628551602363586e-01" purity="5.2084302902221680e-01" nType="-99"/>
            </Node>
            <Node pos="r" depth="3" NCoef="0" IVar="-1" Cut="0.0000000000000000e+00" cType="1" res="1.6469694674015045e-02" rms="3.9902850985527039e-01" purity="6.7699682712554932e-01" nType="-99"/>
          </Node>
          <Node pos="r" depth="2" NCoef="0" IVar="-1" Cut="0.0000000000000000e+00" cType="1" res="-4.6998942270874977e-03" rms="3.9526301622390747e-01" purity="4.4340541958808899e-01" nType="-99"/>
        </Node>
        <Node pos="r" depth="1" NCoef="0" IVar="-1" Cut="0.0000000000000000e+00" cType="1" res="-1.3313115574419498e-02" rms="4.0081575512886047e-01" purity="3.0485737323760986e-01" nType="-99"/>
      </Node>
    </BinaryTree>
    <BinaryTree type="DecisionTree" boostWeight="1.0000000000000000e+00" itree="52">
      <Node pos="s" depth="0" NCoef="0" IVar="10" Cut="-7.4202400445938110e-01" cType="1" res="-2.6627499610185623e-03" rms="4.1406425833702087e-01" purity="4.9583381414413452e-01" nType="0">
        <Node pos="l" depth="1" NCoef="0" IVar="-1" Cut="0.0000000000000000e+00" cType="1" res="-1.7410269007086754e-02" rms="4.2196622490882874e-01" purity="3.3156064152717590e-01" nType="-99"/>
